-2.58551 -3.14416 -1.83385 -3.05783 -2.78902 -3.01486 -2.8645 -2.49476 -3.7506 -2.30955 -2.72757 -3.09639 -2.51672 -1.83157 1.00215 -2.41786 -1.4889 -2.8589 -2.94047 -2.72302 -2.57641 -3.25876 0.589564 -3.25147 -3.28542 -2.43089 -1.76345 -2.88839 -3.13063 -3.70847 -3.18437 -2.37073 -1.92778 -2.89378 -3.19785 -2.53328 -2.45343 -3.62426 -2.29635 -2.7617 -2.14591 -3.92983 -2.82889 -2.72747 2.31587 -2.77842 -2.58295 -3.01234 -1.22898 3.4541 -3.06224 2.23792 -3.00809 -2.28322 -2.05053 -2.60772 -2.34939 -2.73613 -2.15201 -2.68611 -2.76888 -1.23002 -3.43535 -2.48556 -2.97436 -2.58234 -2.5485 -5.2071 -1.83562 -2.67613 -2.15757 -1.49253 2.38101 -3.11088 -2.99232 -3.46868 2.72231 -2.73427 -2.1034 -3.28529 -1.81417 1.37996 -2.85077 -0.919031 -2.91468 -2.74479 -2.22849 -2.47735 -3.43457 -2.7521 -1.82442 -3.06555 -2.44054 -2.77143 -3.47254 -2.89014 0.647554 -2.65689 -3.29839 -1.699 -2.55118 -2.67686 -2.57681 -2.3925 -1.8157 -2.87537 -3.3054 -2.54529 -3.28194 -1.66635 -3.32077 -1.54538 -3.00304 -1.88789 3.48869 -3.09836 -2.74125 -2.41761 -0.65772 -2.04872 -2.77617 -1.77961 -2.66841 -2.89475 -2.16467 -1.80151 -2.82332 -2.33691 -0.958499 -1.12782 -0.472822 -0.205896 -0.174184 -1.39608 -0.720581 -1.5029 0.322508 -1.13456 -0.851207 -0.405683 -1.12105 -0.460758 -2.05021 -0.342707 -0.558602 -1.18763 -0.976217 -0.413948 -1.53792 -0.774883 -0.601436 -0.787414 -1.8258 -1.38842 -0.755811 -1.72767 -1.14467 -0.741384 -1.44291 -0.873029 -0.46714 -1.02092 -1.00387 -1.85459 -0.384266 -1.4666 -0.555588 -0.72492 -0.817924 -0.975898 -0.931321 -0.979795 -0.137855 -2.10715 -1.42705 -0.655032 -0.0100189 0.0135998 -1.61589 -0.470197 -0.434074 -0.356154 -1.3557 0.0688435 -0.45207 -1.08644 -0.493985 -0.628825 -0.834591 -1.32139 -1.47469 -0.650693 -1.90486 -0.756948 -1.64342 1.5617 -0.499548 -0.959847 0.260864 -0.957902 0.394735 -1.67336 -0.394522 -1.10204 1.75016 -1.52318 -0.294483 -0.929174 -0.987343 -0.197039 -1.14073 -0.338938 -1.17281 -1.35302 -0.486135 -1.27027 -1.6065 -1.48082 -1.29949 -1.36762 -0.780683 -0.416501 -1.77753 -0.383352 -0.742299 -0.984127 -0.323401 -0.266267 -1.10986 -0.0826219 -0.29294 -1.20967 -0.0465212 -1.4348 -1.14549 -0.802212 -0.729595 -1.3494 -0.696317 -1.40932 -0.799474 -0.941243 0.724294 -0.835622 -0.686988 -0.99612 -0.755489 -0.250965 -1.35529 -0.618325 -0.864114 -1.71735 -0.791224 -0.237442 -1.41321 -1.20205 0.361979 0.18243 -0.0471151 -0.0143233 0.41452 -0.267278 -0.00964074 0.26611 0.821399 -0.0310351 -0.300053 -0.449924 0.039661 -0.179149 2.27753 0.456015 0.330326 -0.253844 0.477585 0.166481 0.584374 0.23542 0.562025 -0.0480683 -0.235742 -0.303097 0.302409 -0.100476 -0.200816 0.679778 -0.241371 -0.209911 -0.0603158 0.68161 -0.257521 -0.0507332 0.0244356 -0.149882 0.578679 -0.563085 -0.0866267 0.0212619 -0.197982 0.407473 0.0461261 -0.59654 0.231924 0.374648 0.0594271 -0.262172 0.0561578 0.233955 0.455107 0.216861 0.0477536 -0.0909804 0.0238126 -0.445239 0.411534 0.0328639 0.0176969 0.256853 -0.102876 0.212135 -0.0789443 -0.353743 0.205101 1.04896 -0.174173 0.247905 0.289715 0.237997 0.130423 0.480722 -0.508852 0.157013 6.58515 -0.190254 0.316327 0.13128 -0.291177 -1.629 -0.074027 0.700197 0.205598 0.179373 0.0447102 -0.103213 -0.60437 0.0786926 -0.351225 0.200708 0.188173 0.0530307 -0.220584 0.261173 -0.25138 0.408812 -0.253522 -0.788554 -0.5385 0.564532 0.25896 -0.561352 0.526199 -0.259754 0.006021 -0.0502793 0.206502 -0.100479 -0.159729 -0.171033 0.0547446 0.406401 -0.372838 -0.283236 -0.218415 0.430704 -0.358607 -0.116 0.183933 -0.978738 0.00645768 1.05031 -0.135471 0.387984 -0.0498213 -0.209696 