0.00568326 0.0223003 0.0705882 -0.120854 0.0793492 -0.015028 -0.0662693 0.171845 -0.0137509 0.0573549 -0.144867 0.0784322 0.119799 -0.0261634 0.015723 0.104788 0.00733449 -0.0130468 0.0489968 0.155912 -0.184849 -0.070346 0.00531198 -0.0158038 -0.0355591 -0.0906382 -0.0432926 -0.203793 -0.109889 -0.115049 0.0789565 0.0808819 0.00110967 0.050204 0.19423 0.16004 0.14825 0.088066 0.0770527 0.154591 0.204541 0.17194 -0.03797 -0.08233 -0.0093976 -0.145952 -0.0563672 0.145235 0.0143653 -0.0808109 0.0418409 -0.0962063 0.0645419 0.0502706 0.0906397 -0.0176633 0.0775058 0.112657 -0.0601686 0.112883 0.134166 -0.0924154 0.0409956 -0.0525334 0.118191 0.0319798 -0.0176275 0.0805783 0.0156918 -0.0314765 0.0134907 0.0802599 0.0470588 0.0255025 0.0134713 0.0497174 -0.00414338 -0.13782 0.182729 0.138536 -0.00323382 0.0840463 0.121273 -0.0334198 -0.0707719 0.112507 -0.146281 0.0382042 -0.0692961 -0.0636673 -0.101763 0.133584 -0.0537707 0.0247039 0.0329022 -0.0892697 -0.0141799 0.0660062 0.0635038 -0.157889 0.0975127 -0.0895143 0.232995 0.10998 0.211409 -0.0945734 0.179086 0.102908 -0.0278522 0.0334097 0.194409 0.0615218 0.034588 0.192244 -0.0471782 -0.0463183 0.137398 0.107969 -0.136986 0.0695404 -0.0493337 -0.00464705 -0.000511345 0.00523846 -0.0312696 0.0159294 -0.110195 -0.0365907 -0.0406391 -0.11926 0.00673396 -0.0500578 0.120949 -0.0224903 -0.0716532 0.0435739 0.0617224 -0.0236243 0.184405 0.0885256 0.158004 0.00480194 -0.0435395 0.277561 -0.0208799 0.115209 -0.0151 0.0474835 -0.0530919 0.0179346 -0.0717767 -0.138122 -0.118837 -0.0230921 0.192828 -0.174782 0.0388046 -0.0396482 0.0153262 0.165995 -0.229964 -0.193523 0.202061 -0.087283 0.202102 -0.0712468 0.168826 -0.181214 -0.000485447 -0.141515 -0.125631 0.0560082 0.00855047 0.0645327 0.0129316 0.0659988 -0.0274906 -0.0208243 0.0405306 0.00980164 0.072754 -0.0227393 -0.143532 0.0203926 0.124601 -0.0265856 -0.108998 -0.0986321 0.125976 0.0730658 -0.0625056 -0.0022245 0.00759467 0.207705 0.0255182 0.0486379 -0.136023 0.00701265 0.00617004 0.0546225 -0.135965 0.200145 0.0688937 0.0403943 0.0120688 -0.0673359 0.000722488 0.0862903 -0.145201 -0.122082 0.233442 -0.0652756 -0.173469 0.197134 -0.214985 0.270286 0.122871 -0.165366 -0.146731 0.234244 -0.0191711 0.113951 0.125246 0.0137503 -0.00868001 -0.0483886 -0.163586 -0.0503874 -0.0286879 0.0627989 0.0420647 -0.143175 -0.0894737 0.0871948 0.0111168 -0.0333337 0.0106143 -0.245422 0.0749218 0.0201887 -0.00354613 -0.0815778 0.0540447 0.011877 0.215305 0.169153 -0.0291311 -0.117433 -0.161856 0.056442 -0.0770799 0.0114246 0.204424 -0.0488607 -0.065248 0.27759 0.291344 0.0911793 -0.14651 0.0747561 -0.326932 -0.0591712 -0.196321 -0.0896681 0.0452459 -0.0617965 0.231674 -0.195998 0.0569765 0.200416 0.00596946 0.209646 -0.0796444 -0.0626307 0.0717226 -0.0857922 -0.00773289 0.00502905 -0.0890683 -0.332803 0.267033 0.201843 -0.141565 0.161944 -0.0559267 -0.272669 -0.156224 0.133619 -0.0912333 -0.110474 -0.334126 -0.0189209 0.0631974 -0.0219849 -0.155081 0.134191 -0.0165545 0.0507924 -0.103098 -0.0840032 0.0360647 0.0736937 0.0843188 0.197779 -0.174361 0.0776451 -0.000350275 0.0351104 0.128936 0.133641 -0.234868 -0.098156 0.146178 0.165211 -0.0130034 0.141181 -0.0140366 0.15934 0.0263804 -0.00702317 -0.0444244 -0.149081 0.0385612 0.0720139 0.0500063 -0.230125 0.0963568 0.411609 0.00777405 0.0893307 -0.039414 0.112077 0.000904345 0.0308272 -0.10128 0.176811 -0.0167807 -0.0503347 0.130463 0.160268 0.123836 0.233616 0.0238543 0.0551455 0.0236437 0.00798012 0.197132 -0.137168 -0.0037534 -0.00726702 -0.0975812 0.102349 0.0500784 0.0813134 -0.0645928 0.00179139 -0.180615 -0.139513 -0.00561733 0.279757 0.0650344 0.088426 -0.171902 -0.0797336 0.106446 0.0404047 -0.101983 0.0277127 0.235787 0.153962 -0.206831 0.0984578 0.0953336 -0.192327 0.18828 -0.089013 -0.0802309 0.152922 0.0247107 -0.0189561 0.158103 0.0646741 -0.103039 0.0812626 0.166815 0.134436 0.193293 0.142453 0.0463556 0.028995 -0.0196438 -0.000510247 -0.119215 -0.0122496 -0.0941272 -0.167571 0.16018 0.144329 -0.0801622 0.0412691 0.0643093 0.0561006 0.13774 -0.127968 0.206139 -0.0950015 -0.0803817 -0.0402422 -0.128938 -0.0333751 -0.0047498 -0.0120924 -0.0717992 -0.11147 0.087079 0.139002 -0.145369 -0.0598867 -0.127728 -0.133517 -0.0401954 -0.0588371 -0.106444 0.0704219 0.117118 -0.0806934 -0.115267 -0.144237 0.118991 -0.0283687 0.0907046 -0.100969 -0.0823911 0.0771936 0.0907949 -0.0139274 -0.112023 -0.00836933 0.0324609 -0.0173952 -0.0278905 0.129747 -0.074126 -0.0361587 0.0213754 0.153083 0.00695597 0.0923379 0.119832 0.0377108 -0.170465 -0.0895302 0.0148486 -0.0147333 -0.0677484 0.0641814 0.0987351 -0.0287529 -0.00607021 0.0688571 -0.00485657 -0.0732928 -0.00635368 0.141684 -0.0434537 0.168233 0.118477 0.0608168 -0.0768756 -0.0873049 -0.00852055 -0.0536584 0.0557192 0.0377933 -0.100628 0.0337403 -0.138153 0.321608 0.156589 0.0640891 0.0402686 -0.128844 0.0808789 -0.221531 -0.0377234 0.117288 -0.0267483 -0.0792217 -0.0381057 0.153892 0.0903192 0.20569 -0.031189 -0.157742 0.122649 -0.0340161 -0.0562126 0.154218 0.0921986 0.0591742 0.17886 -0.0517016 -0.00447527 0.0734735 0.0762147 0.14398 -0.223135 0.0693585 -0.0747581 0.00547154 0.0554195 -0.0127223 -0.106698 0.0814897 0.0155612 -0.182838 0.0478308 -0.131121 0.00630897 0.0382678 -0.0670969 0.17521 0.0387162 -0.0613358 -0.0582713 -0.0645405 0.034598 -0.0131513 -0.166431 0.116795 0.189893 -0.0470325 -0.0796578 -0.0771357 0.0411616 0.4395 -0.28603 0.0116464 0.132409 -0.119592 -0.164298 0.107782 -0.195983 0.0366405 -0.0292437 -0.247594 0.0255226 -0.221492 0.0013831 0.295914 -0.0490843 0.145151 0.117086 0.0420582 0.0677346 -0.0206628 0.0410538 -0.0876448 0.190795 -0.0131052 0.0588008 -0.0887072 -0.168519 0.0577461 -0.0843664 -0.102188 0.0973079 0.140003 -0.0664863 0.171139 -0.0275552 0.0787328 0.181248 -0.0944983 0.0928028 0.123993 0.0998782 0.0479003 0.0536546 -0.0220917 0.0508797 -0.0599292 -0.228601 0.172891 -0.0562026 -0.270277 -0.138337 -0.304972 0.00633607 -0.153439 -0.134153 -0.137795 -0.131557 0.157141 -0.161129 0.0432537 -0.0288989 0.0219892 -0.0831186 0.0748489 -0.0953389 0.0618064 0.0315537 0.0409701 0.00566993 -0.0814815 -0.079855 0.0123472 0.0197078 -0.0282903 -0.184195 -0.0383171 -0.0587432 -0.180112 0.17144 -0.00944248 -0.0807677 -0.187986 0.120362 -0.1981 -0.120923 0.142181 0.0338598 -0.0444151 0.156189 0.0384625 0.00831418 -0.00771958 -0.274162 -0.0139551 0.0563273 -0.250233 0.168158 0.0518315 0.0753303 0.00653781 0.0307667 -0.0460523 0.0895253 -0.00974031 -0.127174 0.283346 0.0136452 -0.041743 -0.000876 -0.104577 0.0718909 -0.230487 0.0973721 0.0176411 -0.0380136 -0.120612 0.362658 0.0897625 0.085248 0.27563 0.01851 0.0413184 0.0652236 -0.163401 -0.0774266 -0.015672 0.0116942 0.125111 -0.014338 0.10958 0.139995 0.0924355 0.142605 0.0836975 0.141325 -0.159194 -0.00225988 -0.109213 -0.0107772 0.00739949 0.0265675 -0.00717421 -0.0231847 -0.168514 0.161798 -0.0563954 -0.0922435 -0.0621372 0.0359724 -0.0211069 -0.0881151 0.00922134 -0.0562565 0.0358316 0.163215 -0.0624647 -0.123507 -0.266647 -0.0396705 0.0637647 0.150196 -0.132509 -0.0840952 -0.308934 -0.0622508 0.0276586 0.0539961 -0.00193265 -0.0504323 0.261352 0.0396892 0.015625 -0.179189 0.19999 -0.277061 0.0891994 -0.0186094 -0.12329 -0.0106327 0.0112039 -0.00140217 0.0199579 0.143838 -0.058193 0.00724764 -0.0823864 -0.168717 -0.0167689 0.0450407 -0.00564225 -0.037956 -0.110346 -0.00209965 0.0971532 -0.0820971 -0.145328 -0.148243 0.0596612 -0.0457416 -0.107032 0.112758 -0.00393187 -0.175614 0.133924 0.00589736 -0.0686025 -0.13281 0.0750562 0.104602 -0.179118 -0.062995 0.178092 0.0723774 -0.0697272 -0.126039 -0.074261 -0.0505539 0.0579514 0.00649398 -0.126439 -0.142022 -0.20601 -0.315125 -0.130938 0.0998754 0.0312931 0.0892708 0.167747 -0.018935 -0.194797 -0.155763 0.0393842 0.108096 0.101113 -0.0281797 0.119977 0.142705 -0.145214 -0.176803 -0.0626995 0.050328 -0.00117874 0.0102126 0.0197075 0.19104 -0.107198 0.033755 0.0231065 -0.0152302 0.0300529 0.148464 0.00584176 0.0164164 -0.0744606 -0.00812183 -0.0681354 -0.217234 0.00494615 0.0873389 -0.0409733 -0.175124 -0.14451 -0.0762202 0.0525721 -0.106327 -0.156228 -0.171148 -0.0385671 0.0818472 -0.112896 0.175945 -0.121001 0.0867168 -0.113002 -0.0472065 -0.0756998 -0.0157955 0.00578176 0.0275796 0.0985481 -0.0960203 0.043366 0.0645263 -0.0285499 0.090175 0.0458187 0.218345 0.132071 0.0294231 0.178395 0.0188994 6.19775e-05 -0.0329768 -0.0504076 -0.0523338 0.00286128 0.0174248 0.020506 -0.0600035 0.137325 -0.0750637 -0.11711 -0.00333737 0.0320011 0.0602291 0.123379 0.0563593 0.123732 -0.0254882 0.0719308 0.212839 -0.0393776 0.082955 -0.0481564 -0.0750264 -0.0498817 0.10584 0.10071 -0.195237 0.0378714 0.159967 0.117275 -0.0015306 0.0112467 0.207078 0.035474 0.156855 0.178942 -0.0299619 -0.0669685 -0.0013876 0.014475 0.0927646 -0.119194 -0.0772128 0.0415582 0.0901083 -0.0214166 0.0879515 0.212892 0.0265519 -0.106053 -0.015788 -0.0515042 0.0515112 -0.0970476 0.0340031 -0.00447292 -0.0965543 0.0385739 0.121639 0.0245112 0.10571 0.150944 0.00697862 -0.0819958 -0.0830928 0.0392647 0.202701 0.0730008 -0.0638902 -0.0345028 0.0844211 0.103176 0.116752 0.0212033 -0.0589836 0.0137521 0.0812903 0.214735 0.101958 0.0963352 -0.0294387 -0.229662 0.0163829 -0.0175647 0.0405676 0.0485076 -0.0866662 0.29391 -0.101181 0.075306 -0.0268087 0.00785918 -0.0222105 -0.00441634 -0.0635746 -0.144679 0.0529021 0.283598 -0.243787 0.0602438 0.0740074 -0.161477 -0.0608524 -0.114051 -2.93646e-05 0.0740912 0.196948 0.0685855 -0.0406232 0.0591795 -0.0830937 -0.0777044 -0.0316922 0.0281905 0.182282 0.0490043 -0.0837462 0.0436095 0.0140278 -0.00257393 0.0177211 -0.079626 0.0355314 -0.0846181 0.101418 0.196034 0.149085 -0.0288295 0.0333848 0.02812 0.117853 -0.00971131 -0.097791 0.0637124 -0.0482559 0.224223 -0.0932586 0.244601 -0.00718093 0.0133675 -0.00263626 0.0803845 0.425395 -0.0599847 0.254337 -0.133737 -0.244383 0.0134171 -0.00543184 0.0514417 0.0408106 0.219327 0.124827 -0.0814238 0.0509909 0.0895421 -0.00989217 0.165146 0.248411 0.0371192 -0.185263 -0.0201496 -0.00345493 -0.211168 0.00366776 -0.0048866 0.100506 0.149414 -0.0547166 0.141566 -0.061961 -0.201186 0.153476 -0.0882072 0.0562219 -0.0354291 0.167397 -0.23034 0.22823 0.0467212 0.0869255 0.170389 -0.0254613 -0.0670982 -0.000494091 0.0471349 -0.0136253 0.117381 -0.042795 0.0404274 -0.0602484 -0.0214145 0.0596163 -0.0608309 0.1254 0.116164 0.0356468 -0.04554 0.211247 0.126838 -0.176346 0.0936655 -0.0110835 -0.0934661 -0.0438057 0.00114368 0.184052 -0.0303408 -0.217665 -0.037268 0.131371 -0.0128309 -0.150997 0.275741 -0.11175 -0.0253207 0.0524792 0.139375 0.0669652 -0.167433 -0.202997 0.0258709 0.0684968 0.160837 -0.0891022 -0.11296 -0.0431215 0.0893743 -0.291724 -0.00447153 0.0806411 -0.0627208 0.122938 -0.0590647 0.148498 -0.0671477 0.408951 0.105742 0.249956 0.0826393 -0.0567182 0.0254806 -0.19915 -0.026421 -0.0570576 -0.0306888 0.171154 0.0386312 -0.0344117 -0.143145 0.0893982 -0.133557 0.134626 -0.135897 0.0418696 0.0167039 -0.228731 0.0256662 -0.0923367 0.0898555 0.0485878 0.138263 -0.0437943 -0.0179694 0.201403 0.0368201 0.00532505 0.137331 -0.0582631 -0.12332 -0.125585 -0.0284809 0.0009733 -0.18192 0.0760646 -0.0625474 -0.105989 0.0518527 0.150318 0.115394 0.0757964 0.0210286 -0.0936158 -0.0833844 0.00245511 0.0699995 -0.0516877 0.0319005 0.138439 0.00605097 0.0955098 -0.0680649 0.329491 0.0490174 0.0870417 -0.109172 0.0657335 -0.13278 0.141678 -0.157795 -0.114992 -0.0991154 0.127168 -0.107051 0.163914 -0.0139746 -0.0916857 -0.0892506 -0.0616583 -0.142524 0.142946 -0.329017 -0.275331 0.0567027 0.00117965 0.00211995 0.077155 0.189028 0.0447515 0.181816 0.115233 0.163175 0.0203228 -0.089658 -0.00441198 0.2425 -0.00558781 -0.0400892 0.0350089 0.165331 -0.111407 0.0576524 -0.051731 0.0898152 0.073134 -0.0501527 0.23025 0.0864872 -0.0238017 -0.279134 -0.033795 0.108208 -0.27503 0.0225605 0.111328 0.0495187 0.0863049 0.0502044 0.0919119 0.122203 0.0956737 -0.0170259 -0.119262 -0.0438584 -0.179937 0.0326207 0.157109 -0.0871671 -0.04476 0.0522802 0.0286921 -0.10968 0.0692009 0.00253532 0.0891999 -0.0543993 0.147005 -0.0424147 0.0712353 0.0430467 -0.0556421 0.0548007 0.0652908 -0.00405953 -0.140281 -0.0748958 -0.115556 0.0162146 -0.0830952 0.15932 0.00993965 -0.00110517 0.105106 -0.1455 0.0844036 0.11048 -0.0620175 -0.0200451 -0.0889472 -0.0353222 -0.0547389 -0.0750976 0.0158852 0.0387103 -0.0815346 -0.0737372 -0.0582802 0.108595 0.0134903 -0.257721 0.045082 0.0957133 -0.0190879 0.142777 -0.044942 0.0821829 -0.0692168 0.0897314 -0.101082 -0.0119883 0.034994 0.0285362 -0.0254071 0.0901225 0.162401 -0.0476188 0.032596 0.0462719 0.0238856 0.0441454 0.0984892 -0.0236513 -0.137829 -0.0258337 -0.123125 -0.140609 0.168016 -0.0635418 -0.0804274 0.045334 -0.195146 -0.0319265 -0.0421348 -0.00267845 -0.0787932 -0.064677 -0.0568535 -0.096621 0.0752323 -0.0497256 0.114063 -0.113001 0.0559128 0.123675 0.0608226 -0.0897904 -0.00956337 0.0879726 -0.0495001 0.212907 0.0240888 -0.0797556 0.164693 -0.0689841 0.0675078 0.00220488 -0.0453175 -0.0487557 0.0624623 -0.00462014 -0.0494066 0.00586616 -0.0180411 0.0168392 -0.142462 0.0495685 -0.0723952 -0.0647657 0.0377101 -0.151313 -0.0401319 0.00122345 -0.0333017 -0.0387134 -0.0738816 -0.153873 -0.293376 -0.00678239 -0.0667211 -0.115515 -0.230511 0.150421 0.0630555 0.129586 -0.0648685 -0.0233745 0.310438 0.123547 0.0836149 -0.3023 -0.045812 0.0752641 -0.00145059 0.0755658 -0.0695368 -0.197103 -0.130193 0.0604078 -0.0960951 0.105898 -0.0452185 0.0224997 0.00867245 -0.0437444 -0.00863084 0.00646084 -0.201482 -0.0814633 0.20769 0.266619 0.168757 0.0779563 0.0230912 0.190577 -0.0725527 0.0760898 0.00374223 -0.0158327 0.049632 0.103306 -0.0330911 -0.160978 -0.0420379 0.0256271 0.00535566 -0.255022 -0.0311812 -0.0287555 0.14517 0.0971748 -0.0472516 -0.186988 0.29629 0.0577758 0.162933 0.106702 -0.0252006 -0.180236 0.0350915 -0.11232 0.0305128 -0.240506 -0.115173 -0.274301 0.146068 0.0938571 -0.422206 0.0246707 -0.0456118 -0.048395 -0.099719 -0.0535458 0.0674023 0.270675 0.0123336 -0.343176 -0.0559869 -0.00361776 -0.144295 0.222683 0.163725 -0.0900206 0.0973527 0.232384 0.010116 0.0179276 -0.0291787 0.0268404 0.160063 -0.0262596 0.0186647 -0.111027 0.0273167 -0.0023015 0.0199428 0.110796 0.0456165 -0.232767 0.378764 0.151505 0.216627 -0.020621 0.160685 -0.199702 0.216375 0.0595658 0.0294639 0.157579 -0.142646 -0.15229 -0.0805088 -0.140346 -0.0728662 0.00461062 0.0882883 0.366076 0.0736832 0.109517 -0.0227352 -0.124949 0.0968533 0.0553053 0.0744869 0.137397 -0.105783 -0.147885 -0.402003 0.0180169 0.132453 0.243346 -0.0870813 -0.010556 0.0416887 0.150933 -0.015001 -0.148251 -0.0221674 0.0856597 0.20905 0.17577 0.0310565 -0.249715 -0.0323106 0.234955 0.0429109 -0.0332945 0.216019 -0.0547825 0.343109 0.032473 -0.0599056 0.0152527 -0.234681 -0.12865 0.0335623 0.140891 0.0924848 0.00437623 0.0338167 -0.0160293 -0.0880504 -0.0790465 -0.127883 0.149681 0.0690991 -0.145609 0.056254 0.0834621 -0.0937273 0.075446 -0.0870198 -0.0601506 0.0923045 -0.092171 0.117945 0.112301 5.79425e-05 0.0263323 0.179926 0.0784312 -0.0540165 -0.00863757 0.145934 -0.0599617 0.053505 -0.0607159 -0.174239 0.18729 0.191377 -0.180242 -0.0926896 0.090681 -0.00833146 0.0898075 -0.0992157 -0.170418 -0.0909149 0.0574238 0.010621 -0.0652651 -0.0248799 0.086374 0.0428189 0.071853 -0.146595 0.035114 -0.0558799 0.00912465 -0.117929 0.22082 0.104787 0.163048 -0.0257834 -0.0987728 0.0680055 -0.134022 0.095831 0.00245709 0.103841 0.0467065 0.193641 -0.0754339 -0.216801 -0.0440738 0.110317 -0.0684778 0.101579 0.0625934 -0.128934 -0.0179904 -0.0604623 -0.11258 0.121282 -0.16937 0.129656 -0.05584 -0.15314 -0.13901 -0.0424243 -0.137823 -0.0923909 0.0834832 -0.0222389 -0.0793997 0.0815656 0.0693976 0.0238137 -0.0650091 -0.0350705 -0.200021 0.0121084 0.188359 0.125859 -0.012362 -0.167738 -0.0238011 -0.0817633 -0.0537689 -0.126873 -0.113141 -0.0453979 -0.0755087 -0.0221113 -0.118795 -0.0916204 0.0102603 -0.0306008 -0.0594108 0.0406532 -0.126931 -0.0803819 -0.109555 -0.0781595 0.18789 -0.0344174 -0.145183 -0.105993 -0.0207179 0.0535143 0.067841 -0.0469323 0.156531 -0.000980003 -0.0399707 0.0627307 0.094803 -0.0866639 0.0819924 -0.0245612 0.0947507 0.0359204 -0.0600495 -0.00806594 0.077635 -0.0808994 0.00763082 -0.0411634 0.111621 0.0141855 -0.11279 -0.125207 -0.0240735 0.060021 0.00198951 0.0300098 0.0147848 -0.229913 0.14755 -0.157484 0.0543729 0.000982831 -0.117934 -0.0179782 0.00946873 0.0406062 -0.280388 0.13514 -0.0194846 -0.108321 -0.0246141 0.176283 -0.0340257 -0.100711 -0.141517 -0.0157894 -0.0752903 0.134827 -0.232226 0.132007 0.0050594 0.231776 0.10804 -0.147915 0.0191561 -0.0237706 -0.242613 -0.0254345 -0.151742 -0.0702789 0.179722 0.0737549 -0.139375 -0.0598657 -0.100009 -0.0565146 0.0314342 0.17434 0.0218146 -0.132863 0.0644247 -0.124192 -0.13128 0.152752 0.0286613 0.0817208 0.038995 -0.0299337 0.00962825 0.0376216 0.00724119 -0.091513 -0.0174942 -0.278912 0.0067306 -0.0321934 -0.196555 -0.168298 0.0397962 0.0271661 0.102015 0.117923 -0.00999148 0.0446617 -0.114898 0.113937 0.17203 -0.149123 -0.126568 0.0495306 -0.0331912 -0.137847 -0.109345 -0.0820599 0.0756448 0.00852085 -0.229182 0.0155505 -0.252381 -0.0820042 0.0301974 -0.126393 0.0615963 0.0687565 -0.0989132 -0.0794141 0.102848 0.185268 0.0406495 0.105957 0.0142035 0.0604126 -0.117233 0.0441914 0.0190501 -0.209994 -0.0597487 -0.209922 -0.00473727 0.431177 -0.147184 -0.115034 -0.0817496 -0.0477631 0.0759289 0.118707 0.000472513 0.0358888 0.123666 0.064506 -0.166774 -0.0418164 0.164909 -0.0206569 -0.0334408 -0.226112 -0.0186004 -0.271509 -0.380385 -0.0705717 -0.106175 0.0612636 0.035572 0.0301507 0.141219 0.1494 -0.28094 -0.100191 -0.0454581 0.0833937 0.153759 0.0654315 -0.0149704 -0.0618853 -0.227036 -0.0820575 0.0690122 0.127243 -0.0846498 -0.122177 0.0111036 -0.16518 0.0814481 0.0737513 -0.0322787 0.0246673 -0.0568898 0.0630813 0.00172973 -0.0703985 -0.0446276 0.252949 -0.081519 -0.0989603 0.11376 -0.0683033 0.152162 0.0260775 0.0382964 0.0429459 -0.095091 -0.0308867 -0.0360474 -0.060968 -0.179548 -0.0685033 0.0741562 0.159588 0.0434003 -0.0228977 -0.106148 -0.046851 0.0414954 0.152079 -0.00157048 -0.0574581 0.160199 0.143399 -0.133549 0.0458068 -0.0528777 -0.103199 -0.187514 -0.0567847 -0.0856443 0.034685 -0.00321904 -0.073762 0.179074 0.121138 0.030044 0.00844854 -0.237902 0.0892729 0.0336706 0.0986682 -0.0634541 -0.0389495 0.00901005 -0.187884 -0.177162 -0.135686 -0.133333 -0.0141666 0.0996394 0.081046 -0.102548 0.0107115 0.0912932 -0.195229 0.0735732 -0.141811 -0.160966 0.146716 -0.282267 0.0954484 0.150687 0.0130014 0.0524512 0.0994765 -0.125022 -0.0466703 0.172901 0.0701274 -0.0327794 0.0609834 -0.0720915 -0.024591 -0.135531 -0.177484 0.0145694 -0.0569811 0.0578725 -0.164772 0.158986 -0.0184536 -0.0922251 -0.129997 -0.0242739 -0.0672038 -0.047243 0.103331 -0.0211141 0.128719 -0.0897887 -0.323603 -0.146015 0.0684837 -0.0377832 0.0458796 0.145409 -0.000618442 -0.00715221 -0.0037019 0.181914 -0.0120581 -0.181892 0.0413727 0.0515846 0.0202901 -0.0705116 0.357466 -0.0688245 -0.104545 -0.0643952 -0.00678758 -0.0206531 0.121644 0.0894907 -0.166186 -0.164295 -0.0466903 -0.231705 0.0848753 -0.139853 0.0640498 -0.0660429 0.00177894 -0.0113507 0.0678576 -0.0476255 0.0185449 -0.0535098 0.0485058 0.38298 -0.0844382 -0.0194846 -0.0176323 0.256044 0.095247 -0.0829875 0.0267033 -0.0343575 -0.0406091 0.153788 0.0638774 -0.0708304 0.256138 -0.0466205 -0.0516434 0.137537 0.000622583 0.0249722 -0.0262939 0.0707121 -0.115544 0.120727 -0.0804075 -0.0572395 0.112866 0.0332946 -0.0548063 0.0239036 0.0485986 0.142418 0.0766618 -0.0771693 -0.0395696 0.0381402 -0.00189563 0.0367661 -0.0936393 -0.00108286 0.00259293 0.190894 0.155425 -0.121495 0.0103877 -0.0170734 -0.0784992 0.0985656 0.0963718 -0.0309213 0.000316217 -0.069681 -0.0107244 0.109866 -0.0849403 0.242504 -0.00334334 0.0251729 0.0288872 0.0511936 0.0314995 -0.0511125 -0.121044 0.0248816 -0.049084 -0.159768 0.0934221 -0.209684 -0.0469644 0.103442 0.071152 0.0394427 -0.00935957 -0.00370044 0.1152 0.0456417 0.053109 0.189475 -0.0308746 -0.0819487 -0.0620678 0.0710439 -0.0131032 -0.0643904 0.140671 -0.0399411 -0.00673245 -0.0478071 0.0611391 0.0810434 -0.0283091 0.0681666 0.00348544 0.0705437 -0.0453427 0.15122 -0.020111 0.00906745 0.12509 -0.0102701 -0.130275 0.0354603 0.0134374 0.1089 0.0220412 0.0412825 0.0337781 0.0231502 -0.00149781 -0.035805 0.163015 -0.0342328 0.0653594 -0.192735 -0.0352896 0.0793392 -0.0995211 0.177755 -0.066385 -0.0529965 0.0446909 0.0346317 0.220441 0.0970747 0.145389 0.107269 0.184484 -0.164978 -0.0208742 0.117256 0.225503 -0.0666733 -0.296085 -0.106683 -0.0115822 -0.0695415 0.0554521 0.0928894 -0.0148706 -0.00886208 0.0804918 -0.109619 0.122686 0.0464724 -0.0799384 -0.0647644 -0.0505923 -0.0405643 -0.172973 0.0950602 -0.0704757 0.060421 -0.0359106 0.0438832 0.183686 -0.170649 0.31379 0.214513 0.0190816 -0.0460575 -0.0221555 0.140052 -0.010541 0.0258348 0.0964739 0.0484118 -0.121061 0.0611924 0.0145458 0.0437186 0.119969 0.0766834 -0.112865 0.081102 0.266307 -0.0200538 -0.0840024 0.149757 0.200629 0.249805 0.0517036 0.173615 0.00284618 0.198015 0.142817 0.0737277 0.0594255 -0.137016 -0.107593 0.204174 0.187649 -0.0486873 -0.043449 0.0305819 -0.0307894 0.0960312 0.101041 -0.0162186 0.0342838 -0.0648696 0.0927171 0.048369 0.147912 0.170271 -0.165727 0.10741 -0.0363269 0.0858409 0.0957864 -0.0918444 -0.150824 0.0993484 0.287939 0.174383 0.0516505 -0.0213113 -0.14371 0.10521 0.00922073 0.0499387 -0.0952979 -0.206848 0.107732 0.28951 0.0618215 -0.0145456 -0.00749748 -0.25181 0.151175 -0.0268407 0.133669 -0.065353 0.157771 0.0147905 0.207345 -0.292269 -0.0991314 0.0404649 0.220237 0.123871 0.259762 -0.00589047 -0.129801 0.0279249 0.0479028 0.0932655 0.0697496 0.062133 -0.197438 -0.112581 0.0898709 -0.225421 0.126586 0.0585208 -0.143815 0.104368 0.154837 0.134543 0.188871 -0.00716375 0.0626494 -0.00142772 0.00254679 -0.0643286 0.0958898 -0.0490629 0.021579 -0.00820435 0.0536964 0.0534286 0.197679 -0.0219702 0.262019 -0.266218 -0.156236 0.0387911 0.0982393 -0.110876 -0.0118827 -0.029215 -0.0639458 -0.147449 0.0589663 0.139616 0.0767332 0.0767594 -0.229002 0.1367 -0.0592335 -0.215662 -0.0275933 -0.0917693 0.00748379 0.0884162 0.123112 0.00404432 0.0749362 -0.197428 -0.167327 -0.277432 -0.0930254 0.0218559 0.053192 0.107466 -0.10793 0.178311 0.0134236 -0.0339057 -0.107156 0.13347 -0.238056 0.010007 0.0244741 -0.201377 -0.0315989 0.152692 -0.312781 -0.0749455 -0.0650693 -0.0379355 -0.0284468 -0.114574 -0.0537447 0.0262178 0.0684623 0.0262295 0.0889895 -0.0324894 -0.0378587 -0.290209 -0.0751504 -0.0937325 -0.174454 0.0692719 -0.225855 -0.0270011 -0.0364422 0.140418 0.0644806 -0.145121 0.247085 -0.0867584 -0.0764885 -0.0544764 -0.0723872 0.138742 -0.0150493 0.154989 0.0041282 0.0553248 0.0930489 0.100992 6.79768e-05 0.0273848 0.0326307 0.21473 -0.0388988 -0.00920993 0.220299 -0.0875306 0.0379413 -0.242058 -0.0597964 -0.0970992 0.0973475 0.192228 -0.0475119 -0.245329 -0.154923 0.0114526 -0.383772 -0.123291 0.0370587 -0.0330618 0.0547099 0.0423248 0.077026 -0.106246 0.00352629 -0.129104 0.00990269 0.0474453 -0.0705077 -0.0435675 -0.141091 -0.198794 0.109829 0.0794675 -0.107253 -0.0286024 0.0470886 0.0733664 0.0780352 0.260255 -0.14799 -0.0460782 -0.015753 0.0638064 -0.0925493 -0.118721 0.0333613 0.0725952 0.0271122 -0.00695838 -0.0265348 -0.0109555 -0.154487 0.0348434 -0.0814071 0.0323314 -0.0530457 0.0797114 -0.129209 -0.176437 -0.133069 -0.0916335 -0.00375695 -0.0119229 -0.00345664 -0.0121089 0.0461788 0.0948081 0.0871067 0.062221 0.0130864 0.0867546 -0.0397562 -0.043848 0.0182177 -0.119921 0.0642104 -0.156543 -0.0695008 -0.204569 -0.0195473 0.00352362 -0.0160747 -0.169572 0.137614 -0.0387569 0.0679118 -0.178062 -0.102559 -0.130553 -0.149566 0.0887204 -0.0774202 0.0543963 0.0913463 0.0478375 -0.0209424 0.0981825 0.0787459 0.0350166 -0.0108227 -0.0417046 -0.0136798 -0.0847101 0.0407785 0.0571566 -0.079786 0.112246 0.0707369 0.115583 0.0187289 0.0391337 0.0433211 0.196765 -0.122851 -0.0831217 0.106358 0.0558815 0.0732382 0.149419 -0.0718219 -0.141759 0.1466 0.0994767 -0.117211 -0.165167 0.0705754 -0.115297 -0.0214703 -0.127208 -0.0453231 -0.0596619 -0.112978 -0.0540399 -0.178619 -0.146652 0.00545284 -0.112873 -0.134565 -0.0973198 0.0615039 0.0243603 0.0664734 -0.0571635 0.0411357 -0.0787019 -0.0241743 0.00558866 0.0672861 -0.133925 0.0388594 -0.012149 0.0258314 -0.0281288 0.104442 0.03022 -0.0141332 -0.0474863 0.115935 -0.136584 -0.0734077 -0.0801137 -0.180191 0.073793 -0.0843207 -0.055773 0.0312552 -0.00745663 0.00828637 0.118371 -0.205039 -0.0970854 0.0673346 -0.0732316 0.105434 -0.0126246 -0.11188 0.0187411 -0.191094 -0.058409 0.0236464 -0.101047 -0.155903 -0.0951674 -0.141411 -0.150415 0.0822239 0.00973907 -0.190993 -0.149154 -0.071259 0.105955 -0.0166645 -0.00571631 0.199311 0.0556386 -0.395346 0.154435 0.100777 0.0324837 0.0602921 -0.148374 0.117824 -0.0989152 -0.122558 -0.140814 0.100975 0.124389 0.00503666 0.0656025 0.00195594 -0.13499 -0.156914 0.390963 -0.0693068 0.127498 -0.0351712 0.240375 -0.236565 0.120619 -0.188491 0.013516 0.0878776 -0.0697427 -0.243909 -0.074016 0.1401 -0.0336993 -0.121615 0.0357703 -0.0786929 0.0969962 0.0493208 -0.111028 -0.179791 0.0382052 0.0762526 -0.396694 0.0032375 0.0110453 -0.0103168 -0.0198286 0.175033 0.12203 0.129126 -0.124045 0.0027536 -0.0155342 0.0604535 0.0604096 0.0199712 -0.185679 0.0145883 -0.0463706 0.0148624 0.16902 -0.0904015 0.137138 0.0507262 0.119165 0.117112 0.0849089 -0.0469592 0.309381 -0.0561723 -0.0902755 0.0207645 -0.243085 0.00087544 -0.1273 -0.0644563 0.180419 -0.18441 0.128875 -0.0461973 0.0622104 -0.0552228 -0.12529 0.057234 -0.026614 0.0458122 0.212061 0.0358595 0.173093 -0.164546 0.0927538 0.0235137 -0.00654495 -0.177836 0.0517373 0.0895261 -0.0903643 -0.0370061 -0.175848 0.100501 -0.0158364 0.127452 -0.0308146 0.138014 0.0742528 -0.125081 0.175341 0.105831 0.126397 -0.0528814 0.158286 -0.187648 -0.0498639 0.00173119 -0.0981203 0.120092 -0.0868661 -0.0329667 -0.0154381 0.139646 0.129253 -0.138416 0.00845722 0.150317 0.0418022 -0.109659 0.0903594 -0.260395 -0.0817396 -0.1618 -0.181325 0.0221434 -0.0493352 -0.0793481 0.147457 0.171563 0.257434 -0.0815022 -0.0341118 0.123357 -0.329788 -0.178016 0.0352545 -0.0901321 -0.0239227 0.0777142 0.343443 -0.122367 0.128976 -0.142187 0.100793 0.0701517 -0.142574 0.372675 -0.076631 -0.0591197 0.211238 0.00949598 -0.0151562 0.10846 0.0146296 0.0178125 0.08198 0.11728 0.00661998 0.00478017 0.149364 -0.108226 -0.00169698 0.0706444 -0.031507 -0.0081687 0.110394 -0.0656426 -0.04731 -0.360506 -0.0646223 0.0869908 0.0276578 0.276411 -0.137584 -0.0610963 -0.141732 0.154245 -0.19511 0.0646963 -0.244314 -7.82815e-05 0.0230149 0.0669518 0.298112 -0.0672767 -0.0230024 0.0556699 -0.0687726 -0.135145 -0.127314 0.130635 0.0495237 0.0689899 0.154452 -0.0734508 0.134842 0.233918 0.178938 -0.173651 -0.0243887 -0.15491 0.10913 -0.24885 -0.0403734 -0.05475 -0.0322059 0.0199147 0.0892466 0.0982929 0.0207161 0.172325 0.130466 -0.271201 0.0587966 -0.0308349 -0.166584 -0.0601407 0.0573959 -0.0817003 -0.00577645 0.230129 -0.0450402 0.0442908 -0.0242438 0.351193 0.0115469 -0.0197299 0.0422055 -0.0116626 -0.102127 -0.224817 0.21185 -0.0398182 0.0121871 0.107857 0.0495249 -0.11531 0.11081 0.0255462 0.0925065 -0.0013409 0.0532803 0.110647 0.0837748 0.0347112 -0.121206 0.0889362 -0.0992806 0.148126 0.103549 0.0931374 0.0627939 0.0410907 -0.0293535 0.0954811 -0.00107695 -0.0838056 -0.182303 0.166674 -0.0227862 -0.117375 -0.016171 0.0695002 -0.11903 -0.00763884 -0.165225 0.00363506 0.133308 0.155265 -0.0352035 0.0765252 -0.127598 -0.0571949 0.0488058 0.0201148 0.0739127 -0.0709518 -0.0355847 -0.135245 -0.204278 0.0552743 -0.0605163 -0.0307526 -0.0248755 0.0139334 -0.0469598 0.00875877 -0.11089 -0.245133 -0.0535198 0.175073 0.0534566 0.0521622 0.0295788 -0.00561451 -0.0380872 -0.0876127 0.116397 -0.074692 0.111581 -0.0138453 0.0556266 0.0425201 -0.301657 -0.0908028 -0.0128698 -0.074415 0.011357 -0.0399454 -0.0070666 0.094826 -0.173078 -0.0518091 0.00851037 -0.0912597 0.0656047 0.152114 -0.0326574 -0.00481908 0.0873471 -0.00272123 0.0142453 -0.0486211 0.120109 0.133435 -0.136191 -0.0464996 0.0242048 -0.0482892 0.0792016 -0.0207371 -0.157302 0.173754 -0.0744911 -0.130239 -0.0576807 0.0357225 -0.0655235 -0.0344595 0.112993 0.0654796 0.117651 0.103351 -0.0474218 -0.233372 -0.252682 -0.0428296 0.0464317 -0.164622 0.0709574 0.0190397 0.0396164 -0.0583523 -0.00601477 -0.149485 -0.0752911 -0.197952 -0.0157012 -0.0142528 -0.0780683 -0.238539 -0.0006255 -0.041143 0.153156 0.100921 -0.158635 0.0010264 0.0751941 0.0168353 -0.100162 0.128557 -0.0625509 0.222786 0.0379438 -0.227893 0.130399 -0.00716909 0.089136 0.0560301 -0.0809276 0.0568693 0.154394 -0.00230993 0.337258 -0.187673 0.150034 -0.0828045 0.111921 0.0854133 0.233434 -0.0850846 -0.0969758 -0.161741 -0.0713514 0.196174 0.0543392 -0.11472 -0.164948 -0.176374 -0.127932 -0.120428 -0.123817 -0.0414333 -0.0421031 -0.0481008 -0.109652 -0.0624919 -0.0095111 0.0154625 -0.00656429 -0.194308 0.0739455 0.249103 0.184969 -0.254487 0.0793756 0.208213 -0.0350716 -0.0131741 -0.0127893 -0.0131594 -0.164282 -0.108961 -0.00915798 0.024373 -0.0951569 -0.214512 -0.11057 -0.0342114 -0.0261405 -0.143199 -0.177501 0.0468501 0.119391 -0.0271473 0.0169821 -0.141236 -0.121457 -0.0354218 -0.0222763 -0.0117575 0.0120693 0.0587963 0.0157039 -0.185658 -0.283037 -0.077742 0.07357 0.0904059 0.0211104 -0.131391 0.351331 -0.0119154 -0.156937 -0.0690928 0.0854909 0.145018 -0.104259 -0.0793062 -0.0609694 0.127209 0.1922 -0.0413705 0.105935 -0.111583 -0.197896 0.183084 -0.125817 0.0136555 0.0244346 0.0186821 -0.0538519 0.0927314 -0.108524 0.0345877 -0.0333652 -0.0843703 0.000537855 -0.107585 0.0866141 0.0738662 -0.0502085 0.0339553 -0.133641 0.0154721 -0.065938 0.0223158 -0.0843248 -0.208328 -0.0690608 -0.213649 0.171044 -0.203677 -0.118474 0.0542142 0.014888 0.0775052 0.00995155 -0.0953542 -0.132211 0.347975 -0.109958 -0.0199432 -0.100049 0.0542128 0.136651 0.0786548 0.0167234 -0.0426938 0.00353991 -0.118826 0.181009 -0.15234 -0.0408963 0.0288209 0.0923507 -0.231514 0.0615865 0.0214289 -0.100234 0.222208 0.0874625 -0.282395 -0.0761105 -0.0869834 0.210259 0.152956 -0.221535 0.136315 -0.177137 -0.174609 0.0875687 0.044098 -0.0505799 -0.0848505 0.110443 -0.0348276 0.0245483 0.0482968 0.142203 -0.0405663 -0.00513121 0.117591 -0.0925903 0.0577111 -0.0612592 -0.154665 -0.140737 -0.00786515 0.0372865 0.228895 -0.0172461 0.00281492 -0.0933409 0.0100148 -0.102044 -0.200352 -0.0393553 0.0167405 -0.116866 -0.0476773 0.304781 -0.0922575 -0.0768022 0.000519316 -0.163746 -0.0168267 0.0163537 0.163797 -0.0253544 0.0159921 0.130579 0.0564607 0.126216 0.256185 0.20009 -0.0980238 -0.0481926 -0.0142635 -0.00799413 -0.00693774 0.0786399 -0.0493208 0.187896 -0.0225822 -0.0442546 0.147202 0.0468075 0.0978288 -0.0317791 -0.121714 0.0839448 -0.0220628 -0.171291 0.100956 -0.0541249 0.282789 -0.0794943 -0.0437473 0.155453 0.0340729 -0.164196 -0.014537 0.0629675 -0.104009 0.117248 0.104513 -0.194365 -0.0453869 -0.100545 0.0835408 0.0358151 0.0825522 -0.0628434 -0.133145 0.190633 0.0779565 -0.163101 -0.0324363 -0.0783261 -0.0049102 0.0983557 0.121177 0.0550833 0.0199642 -0.053705 0.03853 0.10874 -0.0149881 -0.0723475 0.0780665 -0.0614443 -0.0959629 -0.0486392 -0.0271315 -0.0494469 -0.114184 -0.162 0.0225654 -0.0843991 0.12639 -0.127641 -0.0896372 0.00764852 0.0406145 0.0980932 -0.0522093 0.076501 0.13114 -0.0727927 0.0421122 0.0143691 -0.123816 -0.127718 0.0299479 0.0754135 -0.101305 -0.0209248 -0.0928447 0.0374943 -0.0877519 0.0373909 0.00397671 -0.101372 -0.0935114 -0.0927765 -0.095082 0.0953996 -0.0491902 -0.0401228 -0.0861956 -0.0749542 0.13993 0.136244 0.134392 -0.119378 -0.113077 -0.244916 -0.0625414 -0.167136 -0.0774988 0.0432424 -0.0194048 -0.0796209 -0.192474 -0.0349101 -0.128973 -0.171347 -0.0337359 0.011507 0.169775 -0.113462 -0.00619362 0.0526582 -0.088938 -0.035954 -0.0774214 -0.0320924 0.0441808 -0.116054 -0.01157 -0.0368469 0.072609 -0.21258 -0.0576499 0.133794 0.0974348 -0.00110635 0.120779 0.122484 -0.0543806 0.0764773 0.178819 -0.206213 -0.041742 -0.0319683 0.082137 0.0232961 0.0980158 -0.0969407 0.00734545 -0.0492452 -0.0623957 -0.157305 0.0978533 0.113214 -0.186731 -0.0391096 -0.115918 -0.0529573 0.0324227 0.0113471 0.0532118 0.0371316 0.10666 0.0950607 -0.271056 -0.114635 0.0790049 -0.0154134 -0.0961006 0.00935091 -0.197345 -0.0048463 0.0778534 0.128427 -0.087382 -0.176145 0.012167 0.0449846 -0.113579 -0.0880814 -0.0216699 -0.0416838 0.136828 0.244943 0.145049 0.0178067 -0.0378599 0.176237 -0.0565274 -0.101928 0.0625243 -0.0771025 -0.134347 -0.0191093 0.00867985 -0.335951 -0.17567 -0.182972 0.0745391 0.146336 0.0492973 -0.0152814 -0.165044 0.161818 -0.114327 0.185711 0.0350757 0.171199 0.192585 0.27106 0.0138832 -0.154768 -0.158962 -0.179613 0.226034 -0.256008 0.0218474 0.048799 0.00640711 -0.137519 0.0836365 0.0127813 0.152511 -0.0901573 -0.101394 -0.0235373 0.198989 -0.0451124 -0.115384 0.0295071 -0.0735252 -0.154815 -0.046379 -0.158377 -0.36731 0.0665107 -0.241223 -0.00262358 0.11119 0.0325025 -0.131825 0.22667 0.132348 0.0502697 0.101588 0.188049 0.0171045 -0.0513188 0.0326311 -0.0166621 -0.0456304 -0.159747 0.1603 0.118462 0.0976253 0.060459 0.00959981 0.173573 0.0567182 0.0637532 0.140266 -0.0941084 0.195689 -0.278586 -0.0661831 0.0583587 0.307845 -0.278978 0.0206167 0.141521 -3.75645e-05 0.111942 -0.238061 0.0502862 -0.0660432 -0.0063972 -0.133779 -0.102742 0.0298282 0.0902755 -0.193514 -0.0186685 -0.132605 -0.0154517 -0.146685 0.290843 -0.0116697 0.114608 0.254629 -0.267018 -0.0477693 -0.102584 -0.375493 -0.106667 -0.0180079 -0.0288014 -0.165225 0.0613335 -0.141732 0.00407333 0.0369041 0.00609207 0.292948 0.113874 0.0258514 -0.0997929 -0.0277121 -0.225121 0.074837 0.137717 0.133213 -0.0173875 0.32441 -0.118215 0.0952573 0.234449 0.159897 0.0308014 0.0483988 -0.0800077 -0.151858 0.0367188 -0.162231 0.165995 0.0663281 -0.138689 -0.0281198 -0.023218 -0.0850203 0.151829 0.13279 0.0346343 0.00563187 0.280769 0.150889 -0.0638835 0.151329 -0.125092 0.0977246 0.0110476 -0.0868969 0.0612289 0.108972 -0.0105717 -0.140218 0.165955 0.0459234 -0.113966 0.0277433 0.107741 0.0043779 0.0402478 0.10016 -0.00727467 -0.0447238 0.143503 -0.00164237 -0.142927 -0.0976531 0.221046 -0.0499272 -0.141292 -0.118903 0.0672386 0.101701 -0.060053 -0.0641369 0.125044 0.29705 -0.179182 -0.1952 0.0551947 0.0551497 -0.213847 -0.126003 0.119618 0.00024376 -0.0877028 0.047021 0.0939259 0.0517337 0.107743 0.2068 0.167417 0.0493256 0.157986 0.0901028 -0.0631599 -0.150325 -0.0515552 -0.128524 0.0742588 -0.0650265 0.0140129 -0.171871 0.134635 -0.158751 0.181221 0.0941067 -0.0113247 0.137452 0.0828266 0.072469 0.137242 0.00256913 0.0786296 0.0731746 -0.145508 -0.127504 0.0809107 -0.103718 -0.096459 -0.0258844 -0.425554 0.0056229 0.204629 0.127824 -0.0412211 0.0599522 -0.0296416 0.159832 -0.00367867 0.0254877 0.00990032 -0.0262524 0.0340422 0.107106 -0.232286 0.0230583 0.0142264 0.0906356 0.0405133 0.0322834 -0.0265713 0.119113 0.0494025 0.002174 0.0557585 0.0566326 0.0965472 0.0736884 0.046222 -0.021712 0.0536783 0.0386269 0.0714967 0.122294 0.0764205 0.0552591 -0.0891937 0.0860724 -0.159267 0.0560194 -0.0327786 -0.0979292 -0.102752 0.131114 -0.0594969 0.0543721 -0.207979 0.0238822 0.0812264 -0.148596 0.0598402 -0.0690608 0.118198 0.00104206 0.0314969 0.0397117 -0.0074011 -0.052313 -0.0768232 0.0195178 0.00232889 -0.0533493 -0.0215434 -0.100484 0.127478 -0.0444573 -0.0641442 -0.0331691 0.0221961 0.105944 -0.119282 0.0355483 0.128273 -0.146424 -0.314755 -0.133941 -0.0090054 0.0564126 0.128092 0.071775 -0.00427738 0.0353024 0.0601568 -0.0795927 -0.0215909 -0.00520348 0.052501 0.00122747 0.189067 -0.136517 -0.0787026 0.0504678 -0.205658 -0.00363153 -0.000463365 0.0945646 -0.0555295 0.0191962 -0.0570258 0.0455468 -0.148034 0.0604003 -0.236052 0.156467 0.0636395 -0.0824972 0.04112 -0.0379558 0.143645 0.400082 -0.13164 0.066839 0.0599498 -0.0383811 -0.168007 -0.232492 0.0546432 -0.0857615 -0.0461501 -0.184473 -0.0125638 -0.0447761 -0.0199472 0.0434252 -0.115703 -0.0440468 0.118132 -0.0473665 -0.0379958 0.100344 -0.079035 -0.0195613 -0.0587235 -0.0278097 -0.0859929 0.0841247 0.045672 -0.202921 0.0777056 0.0902245 -0.0845652 -0.116101 0.0405099 -0.161157 -0.0942314 -0.0269802 -0.0140244 0.148297 -0.020931 -0.0929383 -0.00359344 0.0369471 0.0657747 0.00520683 0.149603 -0.0395776 -0.0023411 0.055131 -0.137606 0.0515555 -0.208057 0.220172 -0.0187843 -0.0172268 0.053855 -0.0292027 -0.0456059 0.12133 -0.168207 0.0204195 -0.0113259 0.271631 -0.129746 -0.108565 -0.205123 0.0797133 0.0991199 0.411693 0.133913 -0.000827347 0.0200047 -0.128201 0.217014 -0.0322717 0.0068456 -0.0097439 0.148198 0.0127022 -0.120675 0.0823796 -0.0561341 -0.0279774 0.0230159 -0.057291 -0.0147758 0.0478998 0.13673 -0.19191 0.0690551 0.0296614 0.207856 -0.113038 0.243762 -0.0640264 -0.0797202 0.121496 -0.0252063 -0.105948 -0.0335885 0.0710568 -0.0236215 0.148613 -0.0303484 0.0956764 -0.255755 -0.0220012 0.0543024 0.0168123 0.037453 0.00171444 -0.014113 -0.0211049 0.252334 -0.161184 -0.00409495 0.162287 0.236751 -0.0991217 -0.00149593 -0.167432 -0.0507841 0.363693 0.00910459 0.136146 0.115975 -0.0701457 -0.0333424 -0.126422 0.0525436 0.0594972 -0.167117 0.182265 0.0609535 0.0228242 -0.0239729 -0.0891751 -0.250381 -0.0688998 0.0108931 -0.157806 -0.252527 -0.0643505 0.212276 -0.00309005 0.0534765 0.0861609 -0.0833726 0.0136876 -0.163436 -0.154021 0.105563 -0.0390247 0.177316 -0.0143853 0.0242156 0.0948771 -0.0423787 0.109273 -0.000790968 -0.101934 -0.101069 0.164651 0.0128581 -0.00999475 -0.0674651 -0.124165 -0.101644 -0.0226969 -0.0285481 -0.103576 -0.303658 -0.0351247 -0.0522317 0.0894542 0.102889 -0.0291826 -0.147212 -0.0547832 -0.119381 -0.0787429 0.159112 -0.048819 0.0904821 0.09967 0.1775 -0.0338832 0.139779 0.245483 -0.0898381 0.281531 -0.113587 -0.156726 0.0300836 -0.243959 -0.0338155 0.0503498 0.108258 0.0982336 0.00197245 0.0254225 -0.351406 -0.0232326 -0.0564744 -0.0835023 -0.0806168 0.0595133 -0.0379843 0.0263612 -0.109757 -0.132264 0.0799751 -0.0264952 0.0470148 -0.103946 0.11715 -0.24591 -0.158444 -0.0458897 0.0734051 -0.0939636 -0.0183025 0.0367639 0.197909 -0.0972499 0.294642 0.0391451 -0.0782209 -0.134548 0.00979751 0.0134823 0.0544504 -0.100792 -0.175253 -0.160715 -0.0093141 0.072702 -0.126234 -0.00075535 -0.0572328 -0.127851 -0.125619 0.0373921 -0.10771 0.0111278 0.00271188 -0.118202 0.0422904 0.0672433 -0.185197 0.151538 0.264989 0.0629712 0.150527 -0.148631 0.0660641 -0.135545 0.133529 0.0538957 0.0820684 0.0387313 -0.0150241 0.0869235 0.0103492 -0.0136554 0.102588 0.0425435 -0.0704897 -0.0114671 0.0235869 -0.10902 -0.0783302 0.0787263 0.0831224 0.0234402 0.0639798 -0.0237493 -0.0670625 0.0693277 -0.158163 0.046127 -0.0398869 -0.00227356 -0.0236341 0.0652621 0.0636081 0.204371 -0.0444626 0.232113 0.212206 -0.0222928 0.0172311 0.0767259 0.0274244 -0.069992 0.0488865 0.00335081 -0.124978 0.0658639 0.105743 0.0557819 -0.105239 -0.0367285 -0.112054 -0.138275 0.0560641 -0.0511886 -0.185734 0.049634 -0.134699 -0.0709553 0.0788487 -0.133825 -0.129118 0.0173705 -0.00736995 0.0244878 -0.141563 0.0894104 0.0722959 -0.0103126 -0.037436 -0.0940203 0.0262198 -0.0231129 -0.00586967 -0.0331074 -0.0852818 0.0898212 -0.0800156 0.0140486 -0.0951511 -0.172449 -0.0301966 -0.0325024 -0.0554621 -0.00198293 0.0318292 -0.0851751 -0.0619074 -0.165021 -0.106016 -0.144917 0.095715 -0.168691 0.0496292 0.0347526 -0.0675388 -0.0950282 -0.0294545 -0.0403525 -0.0518523 -0.212882 0.0434842 -0.104626 -0.00847574 -0.0566614 0.0676055 0.0646875 -0.125572 -0.188277 0.0137973 -0.0491907 -0.0692584 0.128517 -0.0552908 0.0154948 0.11239 0.122459 0.0356074 -0.0556534 -0.0708415 -0.076114 -0.157507 -0.0937079 -0.0497797 -0.0456916 0.0609913 -0.061003 -0.0618461 -0.110581 -0.132347 -0.133938 -0.10254 0.0426119 -0.120013 -0.0296054 -0.119812 -0.0690829 -0.168842 -0.1147 0.105081 -0.026085 -0.11543 0.0350024 -0.0848446 -0.044271 -0.103968 0.0314772 0.116369 -0.00535645 0.0402667 0.0530239 0.0398658 -0.0365525 -0.123792 0.0131716 -0.142872 -0.100895 -0.0969543 -0.163761 0.0384779 -0.000261361 0.0354997 -0.00335801 -0.0140677 -0.00215071 -0.230035 0.0996313 -0.0482009 -0.0256269 0.0930891 0.155465 -0.122362 0.0195004 0.15503 -0.0201307 0.0966462 -0.160822 0.105106 0.105825 -0.102316 0.0530906 -0.281803 0.0947559 -0.0281435 0.00344311 -0.146081 -0.0613934 -0.212576 -0.0716873 0.0875693 0.0806545 -0.224957 0.0409502 0.012662 -0.0755221 0.0667586 -0.0510418 -0.143128 0.0161203 0.0403866 -0.153029 0.258105 -0.078582 0.0402582 -0.0345379 -0.0180386 0.0759069 -0.0509483 0.130182 0.099299 0.0728024 -0.168252 0.097485 -0.0498607 -0.00767863 0.00257145 0.0927 -0.0171221 -0.0147324 0.112451 -0.173798 0.027891 0.127636 0.202114 -0.107791 -0.0351824 0.0162869 -0.0354051 0.169811 -0.0426191 -0.186963 0.130595 0.00472334 0.0487103 0.0813452 0.135012 0.00721888 0.0961055 0.0112246 -0.0627176 0.0167282 -0.00291278 0.140814 -0.0296096 -0.101936 -0.0403955 0.142228 -0.0507001 -0.0153685 -0.107282 0.00985379 -0.134212 0.125543 -0.0158985 0.0641215 0.000922366 0.018229 -0.0930217 -0.0365992 -0.105258 -0.124988 0.141538 0.0499969 -0.0418057 0.0305228 -0.0438836 -0.0545903 -0.105186 0.0370676 -0.0347206 0.0806504 0.20769 -0.126613 -0.0255888 0.156054 0.100333 -0.125623 -0.105071 -0.0926511 -0.178253 -0.0774035 -0.200338 0.133459 -0.000987318 0.086386 -0.203595 0.0339171 0.136854 0.0179476 0.0330726 0.0383888 0.0714664 0.0133748 -0.113521 -0.22703 0.115673 0.0316357 -0.00796518 0.174072 -0.0843376 0.0721924 0.142502 -0.150388 -0.130333 -0.153801 0.0133134 0.107484 0.188741 -0.0599643 -0.0220916 0.217788 -0.227538 -0.144601 -0.070597 -0.0686448 0.0604119 -0.0297971 -0.370938 -0.0665339 0.121771 -0.149512 0.00555152 0.51551 -0.174295 -0.0483535 -0.20135 -0.073983 -0.036008 0.156395 -0.219265 -0.0188203 -0.0150468 -0.24205 0.169765 -0.190669 0.0999723 0.0672393 -0.0841156 0.0377806 -0.241782 0.194715 -0.185937 -0.112805 0.09745 -0.0334193 -0.0040926 -0.107602 -0.0740442 0.0436831 0.13624 -0.114247 0.0430978 -0.12894 -0.0341765 -0.207682 0.0413179 0.0493089 -0.0313242 -0.157361 -0.0892056 0.0382191 -0.105186 0.155784 -0.0649067 0.0834761 -0.168542 -0.0157438 0.141962 0.0206342 0.0297385 0.000952581 -0.11042 0.0191829 -0.0911567 -0.138702 -0.0635447 -0.137284 0.134402 0.114043 -0.132344 -0.047254 -0.0336037 0.0870288 0.114395 0.0876099 0.204152 0.0500763 0.0304679 0.115093 -0.000884355 0.112872 -0.168772 0.0793469 0.0767711 -0.0570267 -0.0283062 -0.116879 -0.128703 -0.0679377 0.0148056 0.0595734 -0.184349 0.150447 0.0322423 0.101319 0.0485058 -0.0247339 0.0122185 0.0103171 0.082605 -0.0329849 -0.14206 0.00773803 -0.0681043 -0.00883021 0.0166498 0.185873 0.0396623 -0.0393274 0.174075 0.0748246 -0.00247833 -0.097131 -0.0233678 -0.177568 -0.0892264 0.0524562 0.00959124 0.0914183 -0.0630473 -0.0197252 -0.132537 0.0187308 -0.035612 -0.139233 0.0786229 -0.0289878 0.0272349 -0.0959457 -0.174512 -0.104401 0.0645602 0.147151 -0.0942115 -0.0899495 -0.197441 -0.0313592 0.0426225 -0.0290008 -0.0636929 -0.063253 -0.0688725 0.0555663 0.00857376 0.204935 -0.0921172 -0.118045 -0.116197 0.0286472 0.00863693 0.0670515 0.0505055 0.0925213 -0.0877164 0.048129 -0.09021 -0.0292818 0.107003 0.0270969 -0.0528737 -0.0993128 -0.0775116 -0.039019 -0.136416 -0.0463674 -0.0310819 -0.0050599 0.0379219 0.016757 -0.0757906 0.0496081 -0.0212754 -0.178515 -0.0414054 -0.0916784 0.0999873 -0.116386 -0.0471621 -0.0161127 -0.163635 0.13485 -0.0829484 -0.0938306 -0.0688118 -0.0552814 -0.0592419 -0.00630043 0.053169 0.0275332 -0.10131 0.0482697 0.0759434 -0.115824 0.0265258 -0.0126843 -0.123505 -0.123989 -0.00985509 0.120249 0.045197 -0.0346712 0.00564449 -0.0721585 -0.00703264 -0.140772 0.0426253 -0.0805414 0.0195809 -0.0506025 0.010399 0.0423396 0.108784 -0.183338 -0.150264 0.089951 -0.0453155 0.14979 0.0436186 -0.132931 0.177368 -0.0691841 -0.0546792 0.265544 0.0465844 0.0965847 -0.133899 -0.0335753 -0.109485 -0.115927 -0.0419863 0.175068 0.0105555 0.0713195 0.121846 -0.0428468 -0.179765 0.207999 -0.0082651 -0.156031 0.0230671 -0.11216 0.0702921 -0.104653 0.11513 0.186005 -0.125906 -0.285927 -0.0845804 -0.0128323 -0.34243 -0.164345 -0.0216646 -0.111829 -0.0169685 -0.0353833 -0.224946 -0.0145685 0.044856 0.0140442 -0.119434 -0.104884 0.144045 0.0435697 0.184749 -0.131093 -0.126547 -0.0139735 0.190805 -0.282312 -0.273602 -0.0640689 -0.106701 0.0163023 0.01092 -0.00413692 0.075776 -0.0796923 -0.171022 0.100272 0.248175 -0.0437312 -0.0145348 0.0878471 -0.242774 -0.0260042 -0.204386 -0.0524411 -0.183562 -0.013246 -0.0144391 0.0898926 -0.0146937 -0.0650006 0.0296695 -0.0778715 -0.107901 -0.116433 0.155845 0.0584393 0.0343865 -0.129768 -0.0838632 0.122636 -0.165556 -0.0360682 0.119961 0.14916 0.0382517 -0.0283452 -0.160724 -0.0322213 -0.0776654 0.0569342 0.179435 0.238191 -0.00424098 0.0374117 -0.154642 0.0513177 -0.00442517 0.0227373 -0.00487638 0.107278 0.122504 0.0236244 0.0755057 0.0227188 0.0439506 0.00601128 0.0811563 -0.337852 0.110453 0.0384521 0.046604 0.252307 0.0209283 0.00547621 0.0443279 0.0337702 -0.0450704 -0.094597 0.127164 -0.0233983 -0.028407 -0.00822453 0.134807 -0.0553888 -0.0678844 -0.248346 -0.0728304 0.049707 -0.0134827 -0.0391764 0.0319904 0.0251848 -0.130707 -0.0192827 -0.0300565 0.104062 0.222472 -0.159112 -0.0806024 -0.0828954 -0.000200288 -0.18206 -0.131009 0.171096 -0.085694 0.0250347 -0.0870766 -0.127143 -0.0778143 0.0268695 0.121608 0.124222 0.261118 -0.0198948 0.073914 -0.120912 -0.12527 -0.231943 -0.00239892 0.000551288 0.0663662 -0.0139154 -0.0714467 -0.189928 -0.0373904 0.111924 -0.101952 0.0323808 -0.0178657 -0.226491 0.110712 -0.0707958 -0.0142457 0.178791 -0.0736701 0.0367145 -0.0778564 -0.0295619 -0.0206903 0.0107484 -0.0113513 0.0962863 -0.0329134 0.1363 0.100716 -0.0788492 -0.189872 0.175166 -0.116757 -0.00962658 -0.0761085 0.20213 0.144583 -0.0468663 0.0749817 -0.216129 0.0634183 0.118549 0.154337 -0.00199991 0.0996718 0.148711 -0.029581 -0.0274829 0.0855615 -0.157448 -0.240263 -0.0176101 -0.171225 0.195076 0.101857 -0.029503 0.0771653 -0.192777 0.130739 -0.166809 0.116458 0.061855 -0.0106835 0.00876293 -0.0950488 0.00104394 -0.0814726 -0.0566649 -0.0161776 -0.216694 -0.0114856 -0.0827586 0.0397643 0.216879 0.105585 0.0393403 0.00912639 -0.0818318 0.111351 -0.0469346 -0.0435833 0.167117 -0.0651288 0.182453 0.0618042 0.141039 0.149435 -0.103854 -0.189686 0.118702 0.167002 -0.171104 0.0708538 0.0221649 0.0322335 -0.0657615 -0.109061 -0.0209151 -0.0027903 0.0396326 -0.151959 0.230372 -0.0124807 -0.0221722 -0.132084 -0.0222126 0.0325351 -0.0581304 -0.27951 0.0848549 -0.0307248 0.0455666 0.259575 -0.251175 0.0283582 0.137609 0.261311 0.113907 0.0115139 -0.00669654 -0.0112801 -0.0199478 0.0346483 0.0534063 0.26487 -0.136365 -0.125251 -0.0352246 -0.0463644 0.0163015 0.0388632 0.0476446 -0.0378325 0.00957585 0.126394 0.106802 0.0508292 -0.0611281 -0.013918 0.0540037 0.12812 0.00419708 0.0881407 0.0612966 0.169834 -0.0156829 0.102936 0.041018 -0.101088 0.0897957 0.00627006 -0.0849232 -0.0662154 0.0563768 -0.0403007 0.00253082 0.0540995 -0.0370891 0.204993 0.243017 0.173029 0.0589664 0.00441839 0.0955472 -0.196138 0.0856898 -0.0264709 -0.0983328 0.0540559 0.0559402 -0.0411967 -0.167503 -0.0209061 0.0573281 -0.0334116 -0.0204843 0.127557 -0.0664923 0.132988 0.106918 0.0577937 0.101857 -0.0155085 0.054732 0.0151165 0.0232455 0.00107523 0.0371652 -0.120378 0.0457139 -0.119481 -0.118164 -0.112061 -0.0132445 -0.109325 -0.0118121 -0.00414228 0.10122 0.0234764 0.0903648 0.0616073 -0.089393 0.0703097 0.0452316 0.0433878 -0.0188086 -0.0594262 -0.00902116 -0.158621 0.0424621 -0.0560173 0.0483162 0.0712784 0.0769782 0.239254 -0.0333889 0.0504786 0.182404 -0.174333 -0.112083 -0.0332018 0.0864042 0.0677432 -0.0630597 -0.133221 -0.0746435 0.0171977 -0.114942 0.0442301 -0.0913364 -0.125234 -0.0651638 0.146996 0.0478516 0.0236126 0.0427256 0.0807204 -0.040231 0.100028 0.22425 0.00834977 0.0128449 -0.0662639 -0.000739871 0.0534665 0.175965 0.111011 -0.0521853 0.0685775 0.0261929 -0.0180622 0.0955862 0.130951 0.284702 -0.057215 0.0510723 -0.0608509 -0.290739 0.0517226 -0.0966406 0.139067 -0.0220564 -0.0585142 0.272322 0.148626 0.101812 0.139368 0.0302493 -0.129891 0.143411 0.138409 -0.0355852 0.158161 -0.105574 0.129918 0.149845 0.0199989 0.106836 0.0890248 0.0136481 -0.137504 0.0378047 0.118882 0.0886988 0.0241147 0.150478 -0.0105884 -0.0177536 0.0807063 -0.103312 0.115469 -0.0585057 0.169975 -0.100918 0.0178414 0.0750868 -0.0133335 0.25006 0.172277 0.236121 -0.00918322 5.94393e-05 -0.172376 0.157887 0.0460066 0.132225 -0.0147204 -0.168517 0.0678518 -0.0394591 0.0131487 0.0606103 -0.0407301 0.0588965 -0.0175919 -0.102862 0.00677555 0.0879793 0.399064 0.222717 0.164028 0.0370215 0.00743414 0.0569443 0.0674345 0.102153 -0.0601325 0.155294 -0.0445543 -0.0176157 -0.144274 0.00670982 0.223045 0.260531 0.213321 0.126259 -0.259943 0.0215013 -0.141784 -0.330469 -0.134977 0.0522524 0.103351 -0.00792734 -0.0155098 -0.0729766 -0.0616545 0.0206024 0.192251 -0.0158321 0.00695297 0.0374602 0.182126 0.0970365 -0.0489426 0.0252644 0.260612 0.0939773 -0.0380047 -0.0346633 -0.172975 -0.105238 0.227127 -0.147292 -0.00963915 -0.0583114 -0.0534512 -0.0112427 0.111816 0.0403754 -0.0144458 0.0099936 0.080909 0.149335 -0.0223003 0.171876 0.316365 -0.0273817 -0.0226252 0.121957 0.0594695 -0.119623 -0.0709899 -0.0430766 -0.0909506 0.00709448 -0.20029 0.0314042 -0.00586022 0.0384824 -0.133272 0.0150672 -0.0504038 -0.106652 -0.106097 0.15332 -0.107043 -0.0749669 -0.271265 0.11697 0.217352 0.0596841 0.319798 -0.0940401 0.106392 -0.0339289 0.221884 0.0507984 0.209108 0.139018 0.110937 -0.0809096 -0.0412398 0.0633874 0.137417 -0.111696 0.109388 -0.0848528 0.10041 -0.22333 -0.0314993 0.0183675 0.136909 0.175141 -0.0487353 0.0539999 0.142148 -0.0683404 -0.0620592 0.0914045 -0.0665579 0.397456 -0.190973 0.0334061 -0.187351 -0.0843713 0.0697499 0.0139951 -0.0484827 -0.107565 0.000824947 0.0227522 -0.055958 -0.0276824 -0.0684147 -0.117836 0.0450667 0.10782 0.0964889 0.000276258 0.0128121 -0.043503 -0.17524 -0.0745189 0.0159307 -0.342378 0.00718977 -0.238428 0.0504438 -0.145465 0.0362974 0.0214591 0.139878 -0.0256168 0.0482207 -0.232256 -0.341974 0.014848 -0.0400396 -0.0503116 0.285981 -0.0159143 -0.0330275 -0.00515879 0.20927 0.100887 0.0376996 0.0969564 -0.173769 0.11515 0.0752163 -0.0472159 0.0273076 -0.107638 -0.0676298 0.101455 0.0870312 -0.0717934 -0.0491442 0.0462726 0.0335892 -0.053093 0.154465 -0.198604 -0.0858282 -0.042707 -0.180899 0.148654 0.0349489 0.0456936 -0.0224709 -0.0593596 -0.011633 0.0180439 -0.125597 0.102048 -0.0489975 -0.0149742 -0.128671 0.180553 0.130242 0.111492 -0.0385181 -0.132492 -0.0474433 -0.114847 -0.0947428 0.0212048 0.0730243 0.0591718 0.0904281 -0.231073 -0.0843881 0.0351498 0.131471 0.021902 0.0316292 -0.0475532 0.0140163 0.0448982 -0.13342 0.0412901 -0.0583144 0.0675564 0.0538224 0.0124134 -0.095674 -0.0815343 -0.0953326 -0.0737152 0.0643082 -0.222352 -0.171419 0.0848129 0.210914 0.000692316 -0.155444 0.00495338 -0.00431746 0.0156985 0.0874858 0.0326312 0.169166 -0.126328 0.118553 -0.111343 0.00767465 0.108221 0.191842 0.0465503 -0.17369 0.175317 0.150401 -0.0499521 -0.0250245 0.0430855 0.0616922 -0.0571822 -0.0465025 0.121349 0.16739 0.180322 0.00739702 0.0916524 -0.129907 0.216378 0.0411889 -0.0734217 0.00742221 -0.0349789 -0.1294 -0.110462 0.0147346 -0.0950598 -0.171436 -0.0962909 -0.173885 0.118656 0.120941 -0.0114042 0.0473788 0.0599958 0.0726121 -0.0119582 0.000583696 -0.117447 0.0590402 0.00808895 -0.0674761 0.0342971 -0.101147 0.0333238 -0.0340538 -0.173525 0.056925 -0.00781436 -0.0985718 -0.151733 -0.144194 -0.0440134 0.0372763 0.0680832 -0.31 -0.15815 0.170668 0.134589 -0.0376721 -0.0537023 0.00345203 0.0196733 -0.0191116 0.0537884 -0.230558 -0.0829684 0.0143259 -0.0333427 0.338533 0.0303863 0.0724919 -0.0882596 0.0689018 0.196086 0.0335589 0.00387988 0.108282 0.131876 -0.113404 -0.00599229 -0.276819 -0.124782 0.061243 -0.00431638 0.106911 -0.0808135 0.0291521 -0.043993 -0.186804 -0.387561 -0.0936596 0.168865 0.128702 -0.138304 -0.115667 -0.123602 -0.12105 -0.168137 -0.0830674 -0.00291532 0.0153971 0.121335 0.0829206 0.0781247 0.192288 -0.249503 0.1717 -0.100858 -0.0053307 0.0503548 0.152098 -0.0375318 0.00864473 -0.0241062 0.0879253 -0.129377 0.299483 0.189321 0.0163643 0.0545122 0.0276796 -0.0346426 -0.00393593 0.204815 0.14079 0.0264871 -0.0920741 0.0435303 -0.0821586 0.159907 -0.110864 -0.0198599 0.0268277 0.12368 0.148617 0.00779235 -0.0847977 -0.0184498 -0.107575 0.0551811 0.148887 -0.062972 0.0250326 0.0869186 0.0324697 -0.00375201 0.399717 0.127273 0.00206758 0.10229 0.0710776 -0.00107669 0.108079 -0.0367409 -0.0528332 -0.148863 0.0577051 0.0955267 -0.185005 -0.211714 0.0428112 0.0152173 0.108812 -0.203366 -0.154962 0.191357 -0.0524927 0.032252 0.154934 0.158245 0.0280646 0.232075 -0.278661 -0.00440127 0.0808696 0.0298075 -0.0890647 0.101226 -0.105763 0.0791602 -0.043417 0.0546071 -0.0608759 0.00790127 0.0101546 -0.0583395 0.1193 -0.117273 0.0209217 -0.12416 -0.0657821 0.128478 -0.0945634 0.159791 0.293812 -0.0595568 -0.154105 -0.103071 -0.119972 0.18624 -0.000436356 0.0624021 0.0836902 0.109037 -0.145959 0.263649 -0.117424 -0.0480482 -0.144192 0.132946 0.0771231 -0.0397689 0.18222 -0.0324293 -0.0133656 0.0687078 0.263511 -0.115915 -0.0347291 -0.118077 -0.075504 -0.11909 -0.0554329 0.052494 -0.279478 -0.190278 0.182707 -0.0615515 0.047726 0.0272329 0.00875075 -0.0362813 -0.0751662 -0.126595 -0.198304 0.0732868 -0.125762 -0.0608484 0.209384 0.0275888 -0.0668042 -0.123406 -0.182712 0.0279765 0.169626 -0.0778195 -0.0951821 0.132514 -0.0130947 -0.067117 -0.00291855 -0.0304582 0.119796 -0.119016 -0.121144 -0.0425953 0.218989 0.14877 -0.172606 0.0853829 0.0807457 0.204616 -0.0165522 0.0515706 0.192079 -0.050294 -0.135312 0.273259 -0.127551 0.143156 -0.231696 -0.0212867 0.0507669 -0.148333 0.123423 0.000920555 0.0117931 -0.113132 -0.0061595 -0.00571874 0.0818341 -0.152766 -0.108765 0.0991269 -0.0514551 0.0754822 0.0577283 -0.120012 0.00704355 -0.0616966 -0.22958 -0.0184908 -0.18771 0.157764 0.0761054 0.00319461 0.10736 -0.0424715 -0.0981519 0.161834 0.096232 0.110108 -0.114939 0.151642 -0.0215413 0.0788305 0.0933627 -0.169403 0.123944 -0.194627 0.0871998 0.0593365 0.0575665 0.0042949 0.0680186 0.238429 0.0248954 -0.00716874 0.0628523 -0.121288 0.149 0.0191679 -0.0325598 0.169758 0.250741 -0.104387 0.0761197 0.0369592 0.0573241 -0.109419 0.112211 0.111211 -0.0223919 -0.014448 0.0676712 -0.0662372 0.0692682 0.140538 -0.00606702 0.000618031 -0.142243 -0.0325552 -0.2067 0.303624 0.142832 0.118031 0.149603 -0.11473 -0.0805624 0.0127454 0.0396251 0.194586 -0.0659131 0.121084 0.0863169 -0.0596931 0.046545 0.0723585 0.0228656 0.120452 0.166753 -0.103996 0.0440377 0.0900744 0.0347954 0.04931 -0.115295 -0.113912 0.213684 -0.0026418 0.145911 -0.062715 0.0338181 0.037722 0.0341635 0.166192 -0.0643538 -0.00708561 0.021354 -0.0761876 0.0206315 0.0941947 0.0201642 0.0582357 -0.0620057 0.0179294 -0.0962064 0.0828532 0.043245 0.093253 0.0419316 -0.0558401 0.166101 -0.0415188 -0.0455123 -0.0733813 -0.0782725 -0.0092112 -0.0769749 0.0159801 0.0341126 0.0282795 -0.167045 0.0692044 0.141945 -0.0937577 -0.00966723 0.00624665 0.114813 0.0732821 -0.0749805 0.250855 0.0536269 0.0295742 0.0274029 0.0142797 -0.147376 0.0360725 0.0417223 -0.0259681 0.324757 -0.0345549 -0.114415 -0.0570145 -0.161398 -0.0270753 -0.0846067 0.00483909 0.0224393 0.100536 0.0241368 0.269233 0.00488492 0.229309 0.0368294 0.0624743 0.0987934 -0.0563222 0.112787 0.0308262 0.00488026 -0.120105 -0.044501 0.0132955 -0.0130557 0.0293591 0.0975973 0.00831212 0.0874296 0.0719014 0.120929 -0.0453402 0.245767 0.0341614 0.108768 0.086989 -0.0151541 -0.163066 0.0592878 0.0802006 -0.0372553 0.0727926 0.114644 0.241873 -0.180479 0.0321762 -0.0103029 -0.188854 0.138174 0.139229 0.0900679 -0.0641291 -0.0657964 -0.043828 0.0828507 0.0910398 0.131934 0.049469 0.196974 0.18647 -0.0712115 -0.00818402 0.358847 0.0150899 0.109154 0.0820992 0.108544 0.0594616 -0.0682527 0.0934953 -0.107138 0.0198367 -0.0672274 0.0272324 0.0541956 0.163131 -0.121245 -0.0189988 -0.0717775 -0.0157971 0.195128 -0.225926 -0.0603935 0.0846523 0.0124951 0.232565 -0.000821128 0.111032 0.0380929 -0.15406 0.107388 0.19591 0.325834 0.060221 0.175661 -0.10864 -0.10215 -0.00703665 0.12176 -0.138709 0.096461 0.199589 0.0379171 -0.00393076 -0.0508289 0.155511 0.129476 0.0601815 -0.0827723 -0.0627732 0.272243 0.197319 0.0125201 -0.00678968 -0.0720177 0.0861813 0.0732959 0.285449 -0.0722917 0.0181328 0.0857251 -0.138764 0.0493316 -0.141444 0.059719 -0.178606 0.0116594 0.165528 -0.114132 0.133532 -0.134781 0.134962 -0.112966 0.122601 -0.00768782 0.0243105 0.0267795 0.0099165 0.138876 0.111545 -0.00783516 -0.153933 -0.0162635 0.00765908 -0.0220651 -0.0113113 -0.0165945 0.0341524 0.0101691 -0.0329972 0.0968517 -0.000829658 -0.0267504 -0.0355272 -0.0227 0.00736603 0.258075 -0.130675 0.138263 0.096277 -0.143054 -0.012306 0.0114621 0.129876 0.170263 -0.225283 -0.269853 0.259573 0.0273571 0.104641 -0.040116 0.0400519 -0.103639 -0.0157534 0.130229 -0.133631 0.327964 -0.0651345 -0.0317594 -0.0272882 -0.105104 -0.0211462 -0.183973 0.0641399 -0.0249163 -0.0142082 0.0619254 0.0239506 -0.0162418 0.154702 -0.144503 0.00647398 0.122307 -0.04663 -0.0991008 0.0887907 0.0811746 -0.217018 -0.162329 -0.0219367 0.0957565 0.135679 -0.0799831 -0.168672 -0.0651867 0.0906166 -0.0125574 -0.0515025 0.0644053 0.164566 0.0420152 -0.129557 -0.207143 -0.0283203 -0.0216541 -0.0691148 -0.226497 -0.0442604 0.058551 -0.109356 -0.322355 0.093369 -0.133814 -0.164393 0.162418 -0.0474101 0.123547 -0.19338 -0.00847116 -0.0272468 -0.175028 -0.0835773 -0.057586 0.0360484 0.0655357 0.0811414 0.174229 -0.101653 0.128142 0.00155841 0.136766 0.107191 0.035259 0.0906082 0.0519997 0.0867871 -0.148156 0.197494 0.170573 -0.0509185 0.360244 0.0567265 0.15628 -0.0315453 -0.120254 0.0726616 0.116421 0.328817 -0.060912 0.0420237 0.0931741 -0.0747995 -0.0766591 -0.0283959 0.175879 -0.052776 -0.037573 0.0933144 -0.176758 0.0690219 -0.0183661 -0.130085 -0.138696 0.117012 0.00479008 0.0506552 -0.00228007 -0.0308482 0.0797618 -0.216711 -0.0203811 -0.148207 0.0958617 0.00188063 -0.0123859 0.00694653 -0.121893 0.0265718 0.0996829 -0.195782 -0.0847646 -0.276398 0.0822057 0.145906 0.12087 -0.0572439 -0.023856 -0.321496 0.0775869 -0.09624 0.158772 -0.0984431 -0.12738 -0.15434 0.0833301 0.0234474 0.0389582 0.051562 -0.00439454 0.160602 0.0658128 0.0612418 0.102159 -0.00332215 0.0698991 -0.0551665 0.0514882 0.00446083 0.0243115 0.100219 0.109105 -0.0857782 -0.0313974 0.273082 -0.0441726 0.0578641 0.0978639 -0.193295 0.0223539 0.163084 0.170432 0.0407834 -0.115694 -0.00653632 -0.0107307 0.174634 -0.015982 0.0933062 0.084469 0.0734475 0.0359539 0.0391932 0.0579729 -0.0336322 0.0341542 0.113372 0.200895 0.056581 0.0466518 0.0824147 0.113932 -0.0695912 -0.189062 -0.0293849 -0.180017 0.28516 -0.051847 -0.0296605 0.0546068 0.0759655 0.0898188 0.0636347 0.077511 0.0602994 0.0503951 0.0285718 -0.0786548 0.00510699 0.185422 0.0796627 0.164841 0.12046 0.0231567 0.0175713 0.128937 0.0129237 0.136683 -0.110384 0.120816 0.00188169 0.0565827 -0.0882811 0.063531 0.0739051 -0.119371 -0.0837205 0.0256913 -0.0992297 0.073445 -0.113605 -0.0242181 -0.00362976 -0.211959 -0.168751 0.00564034 0.094224 -0.0685165 0.0782701 0.021606 -0.308054 -0.0373402 -0.109276 0.0263788 -0.0241999 -0.0799126 -0.0456499 0.194834 -0.12518 0.167112 0.0248231 -0.156562 -0.0381768 0.0138756 0.114714 0.0175784 0.0290869 -0.108311 -0.0138505 -0.127701 -0.0739662 0.049369 -0.161948 -0.0346936 0.135909 0.048104 -0.067859 -0.155396 0.0754214 0.0938156 0.248622 0.0336079 0.20761 -0.106824 -0.228498 0.130961 -0.124565 0.0712567 0.0560428 0.170607 0.0623711 -0.0906155 0.14067 -0.146027 -0.0978997 0.202913 0.0567421 -0.289691 0.215856 0.134939 0.124376 -0.234537 -0.0178473 -0.126525 0.00695062 0.0996589 0.148111 0.0375675 0.247458 0.021074 -0.254142 0.121925 0.123397 -0.104309 -0.173289 0.0447749 0.0207805 0.0676443 0.0976592 0.0593946 -0.118824 0.0112318 0.195204 0.0695067 -0.184658 0.0424501 0.0958876 0.121246 0.128738 -0.0566634 0.255839 -0.239357 -0.0833618 -0.00810299 0.182199 0.100348 0.0177218 0.0480965 0.0547367 0.00184245 0.248356 -0.0825689 0.109644 -0.241861 0.0910188 -0.304978 -0.0999614 0.0423632 -0.193153 -0.0722344 -0.124816 -0.0532004 -0.156457 0.200224 0.0534331 -0.135535 -0.0332018 -0.0222197 -0.00817965 -0.0901779 -0.0671744 0.196325 0.0259767 -0.159526 -0.191278 -0.081449 -0.075433 0.0336639 -0.10057 -0.0760984 0.121252 0.0455365 0.0885535 0.180375 -0.024305 0.168898 0.0911865 -0.0711052 -0.107867 0.275983 0.254063 -0.188183 0.0863693 0.0475949 -0.0520717 0.0362547 0.00661115 -0.180932 -0.140678 0.0731452 0.0368903 -0.170909 -0.124612 0.00785859 -0.0807489 0.0415974 -0.0190306 0.0644087 -0.184949 0.29022 0.133547 -0.142468 0.043109 -0.227699 0.103224 0.28926 -0.000529494 -0.00865455 0.00838741 0.100105 -0.28297 -0.200929 -0.0454666 -0.0329899 -0.0889305 0.138169 0.196773 -0.159023 -0.200906 0.116577 0.0351274 0.136564 -0.0306127 -0.0805923 0.0509947 -0.0273176 0.135086 0.0998291 -0.0466362 -0.112573 0.0708521 -0.0191729 0.0807616 0.0880609 0.12789 -0.174021 -0.0164001 -0.0904476 0.110241 0.074233 -0.0399305 0.240302 0.144068 -0.00295313 -0.068807 -0.0735137 -0.0694831 -0.0506913 -0.0801506 0.0325868 0.147466 -0.0755609 0.325341 0.0246715 -0.0757333 0.0866253 0.159859 -0.202972 -0.00686689 0.0656222 0.106156 -0.0634342 0.0685455 -0.319766 -0.0112781 0.092533 -0.183098 -0.0285458 0.157138 0.0175461 0.0894197 -0.0807146 0.000892864 -0.208226 0.000888589 -0.187259 0.0700396 -0.244273 0.194274 -0.139876 -0.054451 -0.0238455 -0.205708 0.139136 0.0221133 0.112388 0.135758 0.122504 -0.00787694 -0.255881 0.0880305 0.0816484 0.106761 0.125733 0.0213419 0.0337399 -0.0441729 -0.0795466 -0.110591 0.0371549 -0.099283 0.0301317 -0.102317 -0.0936996 -0.175633 0.0479156 0.00372104 0.132409 -0.101355 -0.108198 0.190014 0.00244352 0.0708764 0.0530053 -0.153925 0.114903 0.040526 -0.141618 -0.146924 -0.0354981 0.277015 -0.0419076 -0.11565 -0.150307 0.0116983 -0.238211 -0.0400755 -0.11986 -0.127843 0.00237654 0.0331914 0.0891381 -0.0425528 0.10251 0.0817067 0.124858 -0.0471487 0.024907 0.0550654 0.128805 0.0352896 0.159238 -0.0981297 -0.0494947 0.127509 -0.0818878 -0.0762049 0.0661389 -0.0873257 0.153195 0.0851196 -0.054966 -0.0142084 0.03499 0.0110285 0.193037 0.0689138 0.103962 0.0750429 -0.0382689 0.13152 0.0460772 0.0571663 0.191078 0.093852 -0.0444366 -0.0871838 -0.0742886 0.0464749 -0.0850621 0.0351748 0.0211175 -0.106287 0.147337 0.107388 0.0803637 -0.119006 0.0548755 0.0169216 0.13598 -0.0756197 0.0490206 0.232575 0.0267479 0.0412939 0.158948 0.0793576 0.208803 0.0401256 0.00267716 0.115498 0.0277593 -0.0278951 0.128628 0.148187 0.102071 -0.103263 0.166614 -0.0796863 0.0818992 0.0163115 0.0443767 0.0179802 -0.0289506 -0.0317449 -0.0592395 0.0721046 0.108938 -0.0929433 0.105965 0.0164339 0.0895976 0.0299464 0.116788 0.148149 0.0397339 0.195161 0.0834954 0.024276 -0.0244622 -0.00169578 -0.01711 -0.0257073 0.179534 -0.0349354 -0.00435362 -0.0529999 -0.012276 0.0620177 -0.0705329 -0.027514 -0.0424919 -0.0459079 0.198943 0.0634015 0.0482058 -0.127055 0.0399611 -0.160717 -0.146607 -0.0581021 -0.15707 -0.0570771 0.0312837 -0.0412037 0.0506882 0.0559421 -0.100987 0.0632234 -0.110962 0.11255 0.0259001 0.137382 -0.00599903 -0.145983 -0.0465371 -0.109613 0.046243 0.165498 0.0980623 -0.0569939 0.0544996 -0.0409942 -0.106955 -0.0583117 0.100045 -0.122061 -0.0494575 -0.0278117 -0.0673109 -0.132985 -0.0598733 0.00642044 0.126815 0.0311827 -0.243496 -0.00357815 -0.194167 0.0312747 0.0854905 0.200073 -0.304636 0.194739 0.125031 -0.00448916 -0.117234 0.00902973 -0.0729853 0.0867307 0.231075 0.149727 -0.0719005 0.0292941 0.220758 0.0277742 0.110001 -0.0195904 0.0733367 -0.0295347 0.188294 0.0535005 0.0484956 0.228514 -0.0539652 0.0146696 -0.00777716 0.206957 0.131971 0.0369438 0.202984 -0.130394 0.00327278 0.23478 0.0623277 0.0827521 0.148257 0.127173 0.206449 -0.0187413 0.0722804 -0.104694 0.0674221 0.166838 0.0192977 0.0061473 -0.0279524 0.0350552 0.260841 -0.079929 0.0535197 0.0950526 -0.00145718 0.166096 0.376931 -0.0879519 -0.152673 -0.185106 0.00873743 0.0251221 0.198151 -0.156158 -0.0788988 0.0416932 -0.175128 0.286886 0.00708929 -0.191074 0.0166627 0.115783 0.116143 0.0216464 0.0636899 0.0455215 0.156285 0.154253 0.146476 0.0889106 0.0163638 -0.0167714 -0.0764073 0.040002 0.0779217 0.0592166 -0.0291348 0.160241 0.148684 0.181157 0.15856 0.00782986 0.145742 0.0215093 -0.0777389 0.0680504 0.277324 -0.30554 0.0433059 0.253763 -0.0592126 0.140256 0.0571208 0.0446982 0.0364717 -0.312832 0.0816931 -0.19126 0.0605904 0.205811 -0.0432596 -0.0363583 0.387011 -0.0182623 -0.180924 0.152124 0.0700689 0.0679509 -0.030406 -0.00854878 -0.0958407 -0.0340468 0.00991521 0.123671 0.187728 0.180267 0.161624 -0.0789661 -0.412794 0.142972 0.134624 0.122113 0.113998 0.107565 0.229111 -0.16709 -0.17258 0.159381 0.0580949 -0.0555125 0.0383679 -0.0608989 0.209397 0.104652 0.184593 0.0920385 -0.206297 -0.122428 0.0363345 0.00966132 -0.0701886 -0.174717 -0.190115 -0.0606973 -0.132408 0.234622 -0.0161328 -0.0405775 -0.0872246 -0.13538 0.0322305 -0.0707402 0.0711777 0.317682 0.261227 0.0879389 0.147545 -0.00329634 0.0300911 -0.0935692 0.0953957 -0.0326188 -0.00914752 -0.00148394 -0.0816893 -0.0744619 -0.117986 0.0709617 -0.0284562 0.000193707 0.121887 0.0023616 0.109665 0.0130115 -0.0727352 0.0742513 -0.0857319 -0.074025 0.342183 0.106772 -0.213375 -0.10336 -0.0362969 0.0163994 0.14559 -0.170545 -0.0794259 0.0209823 -0.0678387 0.137324 -0.0213007 -0.0775153 0.0804745 -0.0607153 -0.0320263 0.00456674 0.0463767 -0.0184198 0.00797378 -0.0799295 -0.0523522 0.224476 0.106554 0.117457 -0.00429612 -0.0885377 -0.186933 -0.105629 -0.0504859 0.132931 -0.0389996 0.16452 0.209163 0.0728797 -0.251203 0.0742256 -0.230791 0.0112294 0.0949274 0.0509156 0.2626 0.0260356 -0.206676 0.073712 -0.0116628 -0.0246056 0.0861416 0.0726273 0.0906036 0.0460729 0.0384717 0.0972126 0.0960304 0.0025779 -0.0179937 -0.0399891 -0.211427 -0.0269094 -0.0229562 0.0384978 -0.0258767 -0.0294889 0.18517 -0.114749 -0.0261051 -0.00134048 0.0259564 0.105286 0.133575 -0.0447175 0.103568 0.0458604 -0.0861138 0.00370895 -0.00337519 0.0769133 0.117867 0.0334354 -0.0309622 0.171575 0.076132 0.0429024 0.0461477 -0.148477 0.0429558 0.125963 0.0888046 -0.0163609 0.000110614 0.116294 0.0534285 -0.00469585 -0.0145351 0.00517441 0.11762 0.00747691 0.0800015 -0.0432962 -0.00113311 -0.00458902 -0.032772 0.0375093 -0.0463379 0.123751 0.0899067 -0.0995958 0.0844497 0.0205975 -0.102737 -0.0509383 0.0556554 -0.0431774 -0.0978037 0.114559 0.113451 0.0303131 -0.0401579 -0.0899801 0.122264 0.00676581 -0.0997406 0.17739 -0.0395684 0.000279991 -0.150069 0.0471057 0.0667643 -0.0790201 -0.0865372 -0.10923 0.0899416 -0.123693 0.18622 0.235311 -0.0212139 -0.136874 -0.157532 0.104509 0.114007 0.0723883 -0.149391 -0.0583175 -0.163221 -0.0490483 -0.257751 -0.048067 -0.0872654 0.265054 -0.0875981 0.181989 0.0326473 -0.0520122 0.163887 0.0313165 -0.0401241 -0.0233843 0.027481 0.0860911 0.0213856 0.0471265 -0.134261 0.0665816 0.0975867 0.141779 0.0485134 0.182614 0.0257624 0.145576 -0.0550017 0.109913 0.144683 -0.114603 0.280321 0.0280969 0.039355 -0.0142135 -0.00934464 -0.0398838 0.155978 0.128384 -0.00655812 -0.180163 0.0564911 0.0473886 0.0625295 -0.0276514 0.0820171 0.0883085 0.0600122 0.0762312 -0.132457 0.129292 0.116864 -0.0411073 -0.221689 0.161491 -0.0591736 -0.045051 0.283429 0.217286 0.0197292 0.218436 0.0783963 -0.150613 0.0895057 0.217427 0.0892894 0.0405765 -0.0675477 0.122624 0.257332 -0.0990146 -0.0811582 0.176925 -0.0126924 0.00203021 0.0431337 0.174084 0.0734398 0.143845 0.0592786 0.0733033 -0.0398405 -0.214305 0.132207 0.184713 0.0717527 0.12801 0.0300615 0.084128 -0.0602287 0.0381403 0.227098 0.417679 0.23693 0.0588334 0.345425 0.0482044 0.0335777 -0.0090754 0.20624 0.0222617 0.293252 -0.133339 0.299418 -0.125134 0.314528 0.0578703 0.100213 0.243029 0.0497111 -0.100849 -0.0397451 -0.274539 -0.12557 0.0354901 -0.113631 0.00102699 0.197264 -0.0409662 -0.0968456 0.0245368 -0.266041 -0.0970982 -0.000764525 -0.0909762 0.109908 0.0715109 -0.0116066 -0.165035 -0.150993 0.206676 -0.0895381 -0.00157896 -0.0598654 0.262802 0.0239511 0.0990242 0.01804 -0.037237 0.105784 -0.0646921 -0.025449 0.21566 -0.0124415 -0.0330125 0.0976691 -0.0615687 0.0771114 0.209327 0.0897785 0.120502 0.0734105 0.168547 0.0932505 0.0452405 -0.0365166 0.117755 0.186384 0.0945598 0.0406628 0.192905 0.102058 -0.0209436 -0.115124 -0.217124 -0.101854 -0.0505633 0.124512 0.0626849 -0.00345537 -0.133825 0.115293 0.000436412 0.0242179 0.064641 0.113519 0.126322 -0.159928 -0.0893331 0.0387062 0.0730818 -0.0249604 0.107789 0.0608224 0.0100604 -0.364026 -0.0595086 0.0936104 0.155728 0.0279888 0.0556274 -0.271296 -0.17736 0.0162799 0.257423 0.016619 0.119207 -0.171741 0.178474 -0.0119194 -0.21709 0.0043712 0.0104683 0.139407 0.279754 -0.155092 -0.0631687 -0.0311522 0.352926 -0.0154785 0.187506 -0.147306 0.127101 -0.0359241 -0.035682 0.0525261 0.0252439 0.0761535 0.0117334 0.027255 -0.0839463 0.210935 0.117672 0.164849 -0.0340926 -0.0828561 -0.162116 0.0659253 0.148848 -0.0706623 -0.230252 0.23007 0.119623 -0.387095 0.000873491 0.0932266 -0.138924 -0.02354 0.179811 0.128231 -0.0449563 0.053321 0.195958 0.0581072 -0.143757 -0.13384 -0.189061 0.111361 -0.278203 0.0432815 0.0158249 -0.138643 0.0370356 -0.0639075 -0.0851673 -0.115545 0.0029363 0.0860251 0.029327 0.0792634 0.0758229 -0.048381 -0.228818 0.000759467 0.019333 -0.0225921 -0.179465 -0.065128 0.0879831 -0.0370794 -0.0375339 0.109047 0.0816711 0.0904658 -0.0882218 -0.129862 0.053933 -0.18238 -0.163605 0.159261 0.0318817 0.187885 -0.160613 -0.0896575 -0.0426525 0.0566081 -0.12324 0.033118 -0.0465745 -0.148735 0.207459 -0.075174 -0.172901 -0.165799 -0.166408 -0.0755442 -0.0678775 -0.0041666 0.027121 -0.0754955 -0.000525031 -0.0652287 0.0222729 0.0991254 -0.0479103 0.0113454 -0.063658 0.016245 -0.00635136 0.0881907 0.124116 0.0505777 -0.0861655 0.052047 -0.00961222 0.14112 0.310211 0.010655 -0.0951226 -0.0598356 0.0380282 0.00795633 -0.0205282 0.0710236 -0.0175201 0.0791825 0.0846057 0.104965 -0.0145824 0.0803458 0.000917736 0.0734315 0.0937285 0.148835 -0.0702106 0.0426272 -0.128723 0.0293257 -0.100963 0.0987359 0.112559 -0.0371544 0.177957 0.0278643 -0.113799 0.0299059 0.0567742 0.209561 0.0816768 0.0829375 0.0673277 0.00322996 -0.0205681 0.0710779 -0.175351 0.00761516 0.0431672 -0.00688796 -0.0431027 -0.0676578 0.0632167 -0.0723936 -0.00500936 -0.0351624 0.023548 0.0162719 0.168414 -0.0356338 -0.0556287 0.0364579 0.230696 -0.112258 -0.0938772 -0.00856945 0.0364599 0.0188431 -0.0385436 0.0642284 -0.0430106 0.0429431 0.0210031 -0.0580685 0.00979463 0.0488278 -0.0869806 -0.0169576 0.0972679 -0.0178795 -0.0770449 0.259786 -0.19788 0.0720625 -0.0304948 -0.11298 0.177043 -0.0711859 -0.0333032 -0.115592 -0.12468 0.00679582 -0.00303581 0.0613195 0.0207624 0.220599 0.0546028 0.117352 0.0668684 0.0249244 -0.0636242 -0.0168805 -0.156046 0.033221 -0.12693 -0.181856 0.0195232 0.0010623 -0.118142 0.048756 -0.052143 0.039344 0.171487 -0.0908475 -0.0942065 -0.0242408 0.075345 0.117987 0.052035 -0.00921231 0.0849331 0.0996044 0.125395 0.224121 -0.212008 0.0663691 0.00557147 0.135044 0.0860355 0.0472387 -0.0507518 -0.308026 0.0602281 0.00263227 -0.0430017 -0.0247858 -0.16422 -0.0919224 0.0304516 0.0601772 -0.180745 0.0259729 0.057973 0.0533447 -0.179005 -0.15735 0.0145124 -0.0264103 -0.0226202 -0.125449 0.128971 0.0569973 -0.0928815 0.0768925 0.0292315 -0.0098966 0.0912172 0.0207221 -0.0216317 -0.156834 0.141435 0.10316 0.0658507 -0.0796895 0.0348509 0.048528 0.112923 0.0114332 0.115699 0.0030871 0.140549 0.0255835 0.269493 0.0165205 0.00718888 -0.0198589 -0.0313801 -0.196665 -0.0931004 -0.0156068 0.08175 0.156133 -0.0147365 0.028483 0.145556 0.0608108 0.154598 -0.0460151 -0.263416 -0.161185 -0.013336 -0.190465 -0.156044 -0.138524 -0.00616582 -0.151714 0.0231042 0.18444 0.145055 -0.162732 -0.192299 0.122692 0.101848 -0.116316 0.16909 0.101442 0.257754 -0.0275015 -0.0576076 -0.0969789 -0.0180399 -0.0845439 -0.0496171 -0.121 -0.0562287 -0.0633237 0.0272997 0.172529 0.0268822 -0.027022 0.0182785 -0.0701393 0.0652889 -0.043516 -0.114116 0.0754092 -0.11594 0.0188903 0.0723576 -0.0251354 0.00669213 0.0124653 0.108669 0.0513611 -8.7681e-05 -0.140154 -0.110478 0.299691 0.00586095 0.114055 -0.0659864 -0.0845347 -0.0902781 0.0318057 -0.138464 0.0429716 -0.1386 -0.134369 -0.0308638 -0.160251 -0.0647179 0.10674 0.203724 0.162012 -0.00935499 0.238183 0.0449901 0.018898 0.211413 0.111991 -0.104009 -0.282209 -0.130822 0.175155 -0.0843489 -0.0937023 -0.136098 -0.0600405 0.0304841 0.172297 -0.0580811 -0.119661 -0.0898889 -0.0494658 -0.194934 -0.00970487 0.15202 -0.0293881 0.0267687 0.202505 0.056828 -0.160925 -0.0274595 -0.128017 0.00308003 -0.10909 0.249212 -0.0466234 -0.177255 0.128988 0.349107 0.128153 0.0801117 -0.111971 -0.149306 0.0814721 -0.0481155 0.0111812 0.0711912 -0.177242 -0.0138348 0.0206553 -0.0614728 -0.0261807 -0.114819 0.00979028 -0.115009 -0.203302 0.255364 0.0225687 0.00103465 0.0242172 0.156205 -0.0525298 -0.258319 0.0119339 -0.318783 -0.048853 0.085201 0.0243232 0.141259 0.139259 -0.108716 0.103782 -0.0318158 -0.141448 0.0614288 0.0115965 -0.185744 0.0625365 0.0365356 -0.137743 0.0359396 -0.00564216 0.172064 0.239999 -0.0780017 0.103359 -0.0645447 0.173647 0.20515 0.123218 -0.155671 -0.0869044 -0.0303159 0.0465937 -0.0609418 -0.0647082 0.0721824 0.069609 -0.0790774 -0.0464786 -0.101694 0.0736533 -0.0136752 0.0526247 -0.00662936 0.0964397 0.146546 0.0789061 -0.250435 -0.0705087 0.00191922 -0.1988 -0.0342389 -0.0153875 0.081541 0.098394 -0.0680547 -0.045649 -0.0527604 -0.0660281 -0.0921766 -0.178687 -0.0288242 -0.00944388 -0.000461659 -0.0491264 -0.130023 -0.131283 -0.23955 -0.0337833 0.0782168 0.023741 0.0383685 -0.192189 -0.0629931 -0.0457055 -0.0206276 -0.0510723 -0.105966 -0.0335082 -0.0635167 0.166984 0.134306 0.0948197 0.129528 -0.0939042 -0.0599715 0.0795282 0.0147684 -0.0258591 -0.13797 0.131097 -0.16769 0.0606636 0.0455069 -0.138289 -0.0447451 -0.0723111 -0.165085 0.129474 0.120444 -0.0188332 -0.0220073 0.00977408 0.13731 -0.110539 -0.105367 -0.0462404 -0.130344 0.108236 -0.0943224 0.0267887 0.0303458 -0.139388 0.155124 0.0922094 -0.165382 -0.0376455 -0.117545 -0.00533172 0.136358 0.0309481 -0.0199938 -0.0421519 -0.225549 -0.0017265 -0.0310296 -0.270149 -0.133633 0.0379929 -0.0747821 0.0338239 0.0678985 -0.0628341 0.113114 -0.198556 -0.0251218 -0.162681 -0.168282 -0.147895 0.0066897 -0.0535962 0.00194145 -0.201226 0.0263787 -0.140442 -0.0803612 0.0417489 0.00493765 0.0279895 -0.061006 -0.0872166 -0.0583636 -0.143052 -0.0495095 -0.278222 0.0856695 -0.0860266 0.0354198 -0.0426374 -0.0531422 -0.0685097 -0.0144558 -0.105773 0.0548306 0.0296202 -0.0789137 -0.0893575 0.0771373 -0.135929 -0.131769 0.128471 -0.0492284 0.0823137 -0.0714655 -0.0935177 -0.17054 -0.0279818 0.0290089 -0.217097 -0.1143 -0.0622987 -0.0743676 -0.0454981 0.0843485 0.0536133 -0.159957 -0.0792732 -0.00560574 0.147639 0.0752553 -0.138986 -0.0316865 -0.0854948 -0.043775 0.287458 0.0252448 0.0148984 -0.145483 -0.22763 -0.0711662 -0.21199 -0.284001 0.0617789 0.0378908 -0.279455 0.0570685 0.12327 -0.0408094 0.0602267 0.0379491 -0.294026 -0.459157 0.15325 -0.164966 -0.184427 -0.0444696 -0.178234 0.08218 -0.345798 -0.0818235 -0.146495 0.00759979 0.0577399 -0.0684974 -0.0373343 0.23068 -2.36828e-05 0.0997609 -0.0640055 -0.171719 -0.0745481 0.0959943 -0.13152 0.10716 -0.0371019 -0.186776 0.0512428 -0.0674638 -0.0352687 0.0046363 0.0822749 -0.0521786 -0.13567 -0.0454944 0.190714 -0.115601 -0.031508 0.0236233 0.0212128 0.0295795 -0.106956 -0.16133 -0.0374792 -0.0986527 0.131433 -0.0851942 -0.182435 -0.0757729 -0.00253193 -0.126576 0.0278716 -0.061288 0.0230387 -0.14129 -0.379736 0.241525 0.0407681 0.0899089 -0.125584 0.0140462 0.0227 -0.166213 -0.303105 -0.0475278 0.156048 0.073812 0.0558151 -0.0718668 -0.0606951 0.145101 0.184942 0.0149178 -0.0178245 0.0217651 -0.0372337 0.099585 0.0797834 -0.0306298 -0.0932392 -0.0998958 -0.0387598 0.0282544 0.00639982 -0.0396559 -0.00560531 0.0524678 0.00390811 -0.0508314 -0.0137334 0.0104265 -0.0917483 -0.0589335 0.0309105 -0.0601672 -0.019165 0.0547784 0.00202718 -0.130956 -0.0756491 0.0172575 0.0472961 0.192019 -0.232661 -0.162439 0.251907 -0.0513151 0.0445246 -0.114372 -0.236977 0.0166765 -0.23217 -0.0600458 0.0357939 0.112999 0.0307955 -0.0113231 -0.0764514 -0.154694 0.0145583 0.079152 -0.0779958 -0.0630143 -0.0122199 0.0572849 -0.0936595 0.0360659 0.207397 0.107211 0.137761 0.218823 0.109008 -0.027723 0.143969 0.0366842 -0.0433444 -0.109076 0.061341 -0.0716595 -0.0593771 -0.0391004 -0.134681 -0.0597201 0.199809 0.0640391 -0.0526813 -0.0867696 0.0186095 -0.112685 0.11508 0.20536 -0.0542485 -0.0940251 -0.070589 -0.00285515 0.31189 0.00665249 0.0021133 -0.035024 0.164901 -0.0638983 -0.0186347 0.100084 -0.025007 0.0348619 -0.0707774 -0.0309647 0.0804321 0.0846335 0.0453799 -0.00728501 0.0356097 -0.00069624 -0.0962334 0.179282 0.121705 -0.0558219 0.0430645 -0.091753 -0.131969 0.0190975 -0.0319457 0.114361 -0.028026 -0.0214618 0.0235243 0.0282908 -0.174648 0.212457 -0.00153425 -0.31385 0.0864834 -0.235194 0.0660869 -0.1796 -0.0288579 -0.302448 0.0427349 0.000807848 0.0148207 0.0677683 0.0124272 0.18223 -0.0849508 0.077046 0.188821 0.0371759 0.0302285 -0.035016 0.083486 0.0333844 -0.132457 0.10727 -0.122726 -0.190534 -0.0836515 -0.0441627 0.065442 -0.138946 -0.00904664 -0.0383147 -0.000185228 -0.278297 -0.0232914 -0.0542824 -0.0396921 -0.00592769 0.0623163 0.0389134 0.235993 0.0556587 -0.0433498 0.035664 -0.029229 0.123948 -0.20648 -0.0672502 0.0161777 0.0435338 -0.00314523 -0.0705074 -0.0965641 0.141459 0.126311 -0.130856 -0.0321295 -0.00305143 -0.176582 0.0282234 0.0724682 -0.119642 0.0113613 0.0728522 -0.123963 -0.152413 0.00336354 -0.133142 -0.245682 0.0188926 0.125114 0.0804619 -0.100408 -0.0526945 0.00104015 0.132471 -0.0499998 0.0705816 -0.0981642 0.128117 -0.172753 -0.0672159 -0.173279 -0.0188766 0.0495262 0.000567833 -0.072588 0.129716 0.0800258 -0.0134567 -0.208141 -0.0392944 0.121025 0.108324 0.104295 -0.0493179 0.0280198 -0.172265 -0.0628421 0.126907 -0.20225 0.0761714 -0.06778 0.0933919 -0.0525483 0.21206 0.0471689 0.0582557 0.0276402 0.14133 0.198083 0.0355563 0.0891642 -0.0604535 0.0206479 -0.0251521 -0.0299117 0.0551509 -0.0370176 0.0104713 0.0160457 0.186728 -0.0777078 0.0737166 0.00332483 -0.0334553 0.169118 -0.021716 -0.0255267 0.169969 -0.00801344 0.0883823 0.038154 -0.0876775 0.056497 0.192432 -0.0258457 0.0251967 -0.00248105 -0.15547 0.0417266 0.0656425 -0.187371 -0.144375 -0.0499686 0.0556285 -0.0226685 0.0910736 0.103146 0.076865 -0.162478 -0.137228 -0.0965466 -0.0618866 -0.102742 -0.0792096 -0.169799 -0.0993113 0.10147 -0.0549843 0.0290058 0.0474542 0.0969875 -0.23484 0.00734012 -0.0818032 -0.0296526 -0.0390265 0.0198663 0.157911 0.0145086 -0.0357623 0.149841 -0.0840748 -0.00363378 -0.054703 0.00600379 0.10224 0.0557548 0.0277404 0.219156 -0.0107953 -0.215531 0.0751213 -0.0609504 0.0296524 -0.130594 -0.215444 0.0356318 0.0659442 -0.372361 0.067883 -0.205555 -0.0480257 0.153023 0.131906 -0.0236187 -0.055202 -0.0989417 0.0230691 0.0705953 -0.212438 0.0193414 0.00352143 0.384468 0.212659 -0.0143206 -0.130549 0.190801 0.0739416 0.0538828 -0.134278 0.028124 0.17029 -0.00214258 -0.106386 0.0484298 -0.0396877 0.0919449 -0.0781406 0.207591 0.131021 0.172043 -0.0257508 0.136522 0.175789 0.0117852 -0.180121 -0.261293 -0.472096 -0.00419898 -0.113311 0.0523235 0.0536959 0.198186 -0.0698008 0.0168472 -0.148407 -0.257174 0.0682191 -0.0919693 -0.0702614 0.081776 0.335436 -0.0250532 0.126044 -0.059711 0.0682283 -0.0763905 -0.0465962 -0.0733883 -0.0735681 0.0148058 -0.118075 -0.0910794 -0.197531 0.0194888 -0.13927 0.0706778 0.0383084 -0.11554 0.152363 0.263767 0.16019 0.137004 -0.132923 -0.164304 -0.0278216 -0.0198042 -0.193315 -0.164088 -0.246524 0.0363856 -0.0245798 0.0425657 0.215233 0.0537201 -0.0382463 0.16594 0.227451 -0.196013 -0.0915157 -0.0301696 0.0128329 0.146649 -0.102307 0.231777 0.0663908 -0.134641 0.031662 0.137224 0.187175 -0.197248 0.263286 -0.0686531 0.217134 0.0503422 -0.0271392 -0.0341374 -0.14738 0.17893 -0.00257166 -0.0601754 -0.175212 -0.072214 0.136204 -0.0258234 -0.0910731 0.0306378 0.00926871 0.10409 0.00872609 -0.150323 -0.0598612 -0.124585 0.0165846 -0.129639 -0.111299 -0.0204122 0.214004 0.209472 -0.205123 0.0741371 0.0285432 -0.177917 0.0224075 -0.0934797 0.0369987 -0.157431 -0.0587677 0.103463 -0.230685 0.14186 -0.191218 0.000248619 -0.0360292 0.0393385 -0.0979089 0.235426 0.018007 -0.0254856 -0.120901 -0.0821959 -0.0197583 0.0480534 -0.0747972 -0.051066 0.00456921 0.0014242 -0.0918373 0.116094 0.119299 -0.00971252 0.0208469 0.104367 0.0628396 -0.0723572 0.0143408 -0.0570221 -0.149236 -0.0907361 0.00687166 -0.0776004 0.0596246 0.179198 0.110355 -0.0421945 0.00108866 -0.0413815 -0.255993 -0.106473 0.00847492 0.305845 0.0777384 0.200321 0.318862 0.0106655 -0.0868455 -0.166344 0.0917032 -0.0729829 0.0660714 -0.158463 -0.305369 -0.0894336 0.0204101 0.143715 0.0785079 0.201436 -0.0621552 -0.111545 -0.0647326 -0.0936343 -0.163476 -0.179126 -0.0376931 0.0693989 0.060066 -0.00532343 0.00733473 -0.123506 -0.0552475 -0.109751 -0.117554 -0.0452544 -0.148022 -0.199065 -0.122475 -0.0626531 0.116205 0.274495 0.201292 0.150961 0.0240182 -0.0498142 0.0393971 -0.0161962 -0.0707228 0.103359 -0.150497 -0.0298754 0.171446 0.10228 0.0091352 -0.174812 -0.0445643 0.00329946 0.0879058 0.0147218 -0.115878 0.155211 0.0751895 0.0211781 0.131387 0.00805051 -0.0948691 -0.0722212 -0.0526105 0.164648 -0.123177 0.0177794 0.0617987 0.0229986 0.126702 -0.0547351 -0.0612048 0.139965 0.0679168 -0.026263 -0.227824 0.103097 -0.0683954 -0.0279405 0.135702 -0.0790963 0.0705146 0.0809032 0.0552872 0.0530411 0.0852075 -0.187974 -0.00199252 0.0467901 0.016631 -0.140651 0.150479 -0.0596111 -0.0213699 -0.0166761 0.196872 0.0772306 0.0390387 -0.0322154 0.113988 -0.114936 -0.0999966 0.00566247 0.0671041 -0.222983 0.107694 0.0221828 0.049191 0.00632801 0.0989383 0.0942563 -0.0856648 0.0638013 0.126637 -0.0914258 0.105812 -0.0321132 -0.0622475 -0.0306528 -0.150992 -0.163036 0.0664131 0.0762494 0.010518 0.138297 -0.098928 -0.0749174 0.049701 0.0637157 0.0872618 -0.142023 -0.0252493 0.0849249 0.00639382 -0.00658942 -0.0576978 -0.0730085 0.0244252 -0.0587863 -0.155646 0.0558255 -0.0218802 -0.112424 0.0329357 0.0405915 -0.0321683 -0.0134641 -0.203977 0.0409469 0.0302715 0.0946525 0.202616 -0.00258906 -0.0412061 0.0205159 -0.0321859 0.0829405 0.0988158 -0.033042 0.00102519 -0.016829 0.163684 -0.0189405 -0.117989 -0.0267164 -0.0642435 -0.00963183 -0.0390842 -0.152626 -0.111374 0.122084 -0.155113 -0.0522886 0.0525032 -0.0469886 0.128889 -0.0109163 -0.0531826 0.0640244 -0.00238764 -0.234088 -0.161798 0.122405 -0.0864828 0.0871944 0.0695909 -0.00244608 -0.0250447 -0.0799671 0.0527339 -0.0550331 -0.346518 -0.0132294 0.0387329 -0.0922764 -0.0694733 0.177995 0.334234 -0.0266166 -0.0798444 0.0140653 -0.0328324 -0.0342307 0.131135 -0.0828545 0.250536 -0.238145 -0.0295917 0.136188 0.13429 0.161544 -0.182993 0.0404591 0.0803205 -0.0792538 -0.0192923 0.037654 -0.148014 -0.0295982 0.125232 -0.129403 -0.000306319 -0.105025 -0.0352622 0.058528 0.0588226 0.00513392 0.0360394 0.0676114 -0.0598454 -0.00824936 -0.0538448 0.352467 -0.110243 -0.0517306 -0.0665102 -0.184429 -0.36842 0.246339 0.0852206 0.0332552 0.0280648 0.103879 -0.0167794 0.0763651 0.0404474 -0.0245198 -0.137199 0.0200755 0.0720068 -0.00588926 -0.12518 0.0539066 0.0421566 -0.0856347 0.157895 0.049092 0.288918 0.196726 0.0536103 0.123298 0.118069 -0.272165 0.0101761 0.105573 0.00453243 0.0178464 -0.387279 0.0495751 0.0295536 0.171473 0.185154 -0.13721 0.191059 0.136242 -0.047043 0.32828 0.0262332 -0.0828616 -0.0536024 0.121051 0.0824625 -0.242214 0.0539042 -0.162585 0.138141 0.0226184 -0.0717775 -0.0509618 -0.226246 -0.166556 -0.0339753 0.0540702 0.0357551 0.0375347 -0.100461 0.10166 0.0630263 0.103885 0.207377 -0.171778 0.193968 0.149376 -0.115053 -0.147898 -0.0747242 0.0327698 -0.151936 0.134267 0.0666637 0.168737 0.0750084 -0.131089 -0.207076 -0.100247 -0.0747404 -0.121165 0.0657643 -0.134037 0.146737 0.129235 -0.00328595 -0.117676 0.0730389 0.0410189 -0.330636 -0.277086 -0.00651627 0.0377508 0.0229656 -0.02522 -0.0555117 -0.00287542 -0.014849 -0.0983964 0.170081 -0.0607726 0.032924 0.0449236 -0.0128901 0.0327616 0.125106 -0.0289005 0.0562033 -0.0907204 -0.0355558 0.00689007 0.0801466 0.120616 -0.177616 0.0341253 0.00372779 0.0964292 0.084652 -0.200707 -0.280587 0.097195 0.08228 -0.123443 0.0600692 -0.0403944 0.319073 0.0732301 -0.117429 0.11883 -0.0258592 -0.0184771 0.127133 0.0193028 -0.0192273 -0.0421591 0.0904314 0.111836 0.0512186 0.0707848 0.151979 -0.0244997 0.00136106 -0.0730947 -0.32902 -0.0510119 -0.0160143 -0.0902305 -0.0571573 -0.000968906 -0.0892142 0.0837814 0.063116 -0.087483 -0.05754 -0.159991 0.0117716 0.207619 -0.0150388 0.016387 0.104269 -0.11636 0.00237764 0.0266742 0.293888 0.00874305 -0.199527 -0.264724 -0.225156 -0.257685 -0.0962013 -0.197165 -0.0357969 -0.157226 0.0934865 0.132133 -0.0854692 -0.106862 -0.0106811 0.0241235 0.067976 -0.00701149 0.0204338 0.201136 -0.0661928 0.0709776 0.332701 -0.0317002 -0.0355218 0.0943999 0.15633 0.202298 0.166363 0.118894 -0.0969534 -0.0519484 -0.0541445 0.097536 0.0338976 -0.189876 -0.10105 0.0294155 -0.0429347 -0.0746255 -0.095787 0.0646272 -0.000501518 -0.0560516 -0.0940718 -0.0890333 0.0204819 -0.0979912 -0.0720262 -0.062596 0.0452279 -0.0840947 0.0306615 -0.00455503 -0.0110273 -0.0106474 -0.192831 0.0628986 0.00808767 -0.0370878 0.0221881 0.202006 -0.0790091 0.00918551 0.0467631 -0.106949 -0.0283806 0.0282127 0.0581464 -0.0773742 -0.0333065 -0.0869436 -0.143412 0.014081 0.0420664 -0.0640409 -0.138624 -0.00834081 -0.153463 0.0566305 0.0318596 -0.218048 -0.0174116 -0.0562345 -0.00475355 -0.0540896 -0.109544 0.0640326 0.122334 -0.142861 -0.215098 0.164307 -0.132034 0.0263823 -0.0256791 -0.148501 -0.0262052 0.069245 -0.0677807 0.0309228 -0.0521343 -0.0195483 -0.014435 -0.141593 -0.0212535 0.0259692 0.0047511 -0.0738679 0.165031 -0.0749915 0.0457552 0.119824 0.165072 0.0224268 -0.0490115 -0.138354 -0.133838 -0.0345204 -0.0312263 0.046956 0.14901 0.0367683 0.00658722 0.070177 -0.0689306 0.0798171 0.000827287 -0.00564873 -0.0450307 -0.0650792 0.0672308 -0.0682848 -0.106428 0.100475 -0.0644308 0.0228608 0.0384902 0.131083 -0.130412 -0.000653861 -0.193341 -0.159482 0.00523926 0.232872 -0.0336309 -0.0427545 -0.00440784 0.0269522 0.121787 0.00403064 0.0634496 0.145161 0.00656753 0.396077 -0.133029 0.126432 -0.0752823 -0.0619867 -0.0660706 0.187813 -0.226657 -0.138123 0.0322147 0.188678 -0.189502 -0.203561 -0.184286 0.205169 -0.0099364 -0.0777837 0.151201 -0.0089871 0.0538113 0.198287 -0.0237644 -0.0976044 -0.0683305 0.128914 -0.246908 0.0487003 -0.0281734 -0.00217048 -0.0524236 0.0159457 0.00676923 -0.205787 0.176438 -0.0922289 0.106033 -0.0745693 0.0660218 0.191473 -0.152284 -0.0731004 -0.0437541 -0.142404 0.0266495 -0.0467335 -0.124557 0.12235 -0.0054517 0.0984214 0.0625149 0.00516172 0.223322 0.0814689 0.0465179 -0.0502658 -0.201404 -0.0175026 0.0389063 -0.0045852 0.064518 0.0710035 0.125076 -0.0553372 -0.0589112 0.168077 -0.101548 0.0364031 -0.0403653 -0.223645 -0.0989227 -0.303531 -0.24306 0.179121 -0.120772 0.11288 0.0956869 0.295499 -0.0149045 -0.111898 -0.0570466 0.0250214 -0.025087 0.0770971 -0.172991 0.286412 -0.0454292 0.104169 0.0986842 -0.231275 0.0807883 -0.151872 0.0758284 -0.127088 -0.215907 0.0414545 0.0516906 -0.0333258 -0.102822 0.105624 -0.224293 -3.59791e-05 -0.0732753 0.080049 -0.0234576 -0.0186428 0.106061 -0.102541 -0.133748 -0.0896121 -0.116452 -0.00631932 -0.210303 -0.0533939 -0.143126 -0.0824377 0.0256446 -0.125953 -0.119032 -0.000349592 0.0573616 -0.155057 0.087214 0.0908059 -0.079988 -0.0167584 -0.0668385 -0.0519083 -0.112774 0.08874 0.198272 0.0309403 -0.276454 -0.0100401 -0.113575 -0.29605 -0.0350494 -0.00696505 0.0158031 0.0164428 -0.0576508 -0.374826 -0.0288952 0.10903 -0.0642689 -0.141316 0.0253499 0.230521 0.056214 0.146899 -0.10357 0.0284633 0.0662922 0.059695 -0.146063 -0.0288655 0.0516818 0.129939 -0.197176 -0.158103 -0.252921 0.0900525 -0.107295 0.00304119 -0.0492174 0.0112749 -0.0242961 -0.109336 -0.0433909 0.35598 0.0433774 0.291582 0.0467298 -0.12904 -0.019315 0.220746 0.123885 0.0198773 -0.0949554 0.182429 -0.141317 -0.0956808 -0.163133 -0.1368 0.00760506 -0.0525373 -0.0457956 -0.0952395 0.0833934 0.0159318 0.392274 0.161027 0.0796765 0.0914726 -0.189031 0.00443756 0.00296181 0.110121 0.0287735 0.18358 0.131816 0.0206747 -0.0596579 0.152752 0.166819 0.0213765 0.0992287 0.159488 -0.0876187 -0.104357 0.0012075 -0.0457325 -0.0518299 -0.189225 -0.162499 0.0157712 0.0773627 0.0828901 0.105584 -0.167842 -0.0274335 0.0991305 0.198569 -0.148406 -0.0831455 0.140602 -0.0547477 0.00321828 -0.0110591 0.0634216 0.0108282 -0.0196344 0.119024 0.0432735 0.0440656 0.17955 0.00727312 -0.0655696 0.151806 -0.0690398 -0.179382 0.192976 -0.0367382 0.11206 0.0970092 -0.0135602 -0.0598491 -0.00893212 0.0660348 -0.154638 0.0632289 -0.0661565 0.111181 -0.00775855 -0.317851 -0.0218591 0.091255 -0.200378 -0.0196815 -0.00212055 0.244938 -0.0209746 0.124079 0.0211144 0.0531087 -0.0631066 0.00269889 0.0726002 0.141695 0.0875792 0.0235097 0.216679 0.12179 -0.0718977 0.0438692 -0.0336748 -0.0140248 -0.172991 -0.0614779 0.0501372 -0.0475935 0.0250721 -0.116803 0.12004 -0.0297602 0.137536 0.0424091 -0.0301043 0.245279 0.0491455 0.0523185 -0.0423123 0.181668 0.00269596 -0.166839 0.0386709 0.0384693 0.106744 -0.0762317 0.0340042 0.0310811 -0.0409046 -0.00474402 0.0356877 0.0926618 0.0315175 -0.0576502 0.0102944 -0.0143289 0.190012 -0.0986755 0.0314342 -0.0519677 -0.123642 0.065918 -0.140883 0.0955165 0.0674769 -0.0475003 0.0555166 -0.0285264 -0.0575741 0.0222821 0.00492853 0.0916031 -0.08299 -0.076461 0.087938 0.0282271 0.011248 0.00227973 0.000658609 -0.00769584 0.122386 -0.0849164 -0.00410136 0.122499 0.0242649 0.0333246 0.0240888 -0.0992034 -0.0409624 -0.147665 -0.0417362 0.0708939 0.007441 -0.0188315 0.0483785 -0.051402 -0.103214 0.0374878 0.0332621 0.137362 0.0566378 0.0199753 0.260408 0.120164 0.09423 -0.0744196 0.00738746 0.0276159 -0.0983396 0.0735653 -0.0308951 0.0927235 -0.126202 0.112893 -0.155228 0.0601923 0.0877566 0.118888 0.0984441 0.0993261 0.0271738 -0.0105716 -0.0856266 -0.0629858 0.0596601 -0.0593301 -0.182896 -0.00651941 0.00081288 -0.168349 0.0292831 -0.0570743 0.00839866 0.00130112 0.148879 0.0449372 -0.0607461 0.104906 0.00785902 -0.0845546 -0.00469657 -0.0719975 -0.0788708 -0.0138406 0.0448011 0.0555167 0.199269 0.0963601 -0.261978 0.0082458 -0.14999 -0.0699404 0.0675342 0.0211017 -0.321234 0.160901 -0.105239 0.0665893 -0.055047 0.0336829 -0.0787183 0.0377985 0.369969 -0.103117 0.165112 0.194432 0.286687 0.14084 0.090508 0.177424 0.14832 0.103026 0.0778851 -0.0250257 -0.123981 -0.186358 -0.0421202 0.179708 -0.169771 0.0535288 -0.0520622 0.126657 -0.112056 0.15143 -0.0824315 0.0760597 0.0484242 -0.285511 0.0347023 0.135341 0.116908 -0.0326839 0.0152742 -0.00855219 0.143676 0.0887758 0.166799 0.147549 -0.0436777 -0.0695072 -0.0772319 0.124179 -0.135985 -0.189118 -0.0698299 0.00387906 0.149483 0.0359878 0.130547 -0.0444077 -0.144803 0.0755237 0.0345324 -0.0210989 0.182367 0.0662875 -0.116198 -0.128078 0.0168027 -0.276205 0.0485138 -0.148025 -0.0302896 0.121799 0.163046 0.0122504 0.128544 -0.0047876 0.0864256 0.115563 0.00487499 -0.0815918 -0.100004 0.0973989 -0.108107 0.0456971 0.112931 0.00388676 0.000629396 0.12232 -0.0105478 -0.161868 0.121046 -0.027922 -0.00931722 0.0155884 0.220051 0.143745 -0.101003 0.0611261 0.121683 0.0962927 -0.00156672 0.0122798 -0.0228758 -0.00735805 -0.0590668 0.107333 0.0672077 -0.0336789 0.00720908 -0.042199 -0.000341945 0.0167015 -0.125443 0.214568 0.00271695 0.315801 -0.0239077 0.00649945 0.182825 -0.0855176 -0.0673415 -0.0414976 -0.197824 -0.263668 -0.148495 -0.154855 -0.105835 0.0163434 0.134279 0.0462617 -0.224959 0.0996166 0.112703 0.10379 -0.0422635 0.0688476 0.010969 0.136401 -0.0660613 0.0784033 0.0716041 -0.0768553 0.0494498 0.290799 -0.00296323 0.0391855 0.0212055 0.00672251 -0.14571 -0.142404 0.039128 -0.253935 -0.199706 0.176262 0.0421434 0.158237 0.124459 -0.0383244 -0.220469 0.0863814 -0.132692 0.165366 0.0742843 -0.170874 -0.149964 0.137216 0.165938 -0.0228225 0.0101697 -0.0652142 0.0318248 -0.0525 -0.041611 -0.174814 -0.0163769 0.0081027 -0.0361374 -0.113777 0.237056 0.0840506 -0.118944 0.0813195 0.0527558 0.27777 0.0259968 0.0108362 -0.282678 0.0702859 -0.104923 0.00104082 -0.0348783 0.0599772 -0.103803 0.0444643 -0.0247102 -0.0105581 0.176248 0.173363 -0.290334 0.0253669 -0.317247 0.00627329 0.120994 0.132426 0.0809132 -0.262175 0.21982 -0.0858125 -0.131906 -0.116745 0.0779946 0.0941959 0.00644593 0.0644403 0.179054 0.159609 0.0467755 -0.218789 0.0912486 -0.209035 0.0357268 0.306385 -0.0169305 -0.0197811 -0.0044306 0.207656 -0.224148 -0.0381381 0.15502 0.163111 -0.0904864 0.162572 -0.00783452 -0.0870863 0.0568997 0.0689339 0.0439367 -0.094011 0.0603739 -0.0216033 -0.108163 -0.0888033 -0.0643632 -0.0695564 -0.103931 0.126014 0.0965938 -0.0176714 -0.0154276 -0.0814795 -0.051347 -0.0176509 -0.25704 -0.0831684 -0.278877 0.00289477 0.0191245 0.130228 -0.00876874 -0.253075 -0.0381857 0.291297 0.00763087 -0.0895496 0.00136199 -0.174152 0.148655 -0.036419 0.0330845 0.182911 -0.0661775 -0.104554 -0.0519265 -0.0534474 -0.0371783 -0.114677 0.120521 -0.104798 -0.00226728 -0.183456 0.203374 -0.201992 -0.10679 -0.0754682 -0.277574 0.00235131 -0.171567 -0.177195 -0.0341849 -0.0448848 -0.0357487 -0.0738581 -0.0719982 -0.0236921 -0.191413 0.0386277 0.199996 -0.133319 -0.114519 -0.113061 0.0172235 -0.264375 0.0305178 0.180127 0.065915 -0.306246 -0.121195 -0.12781 0.0506022 -0.103656 -0.234734 -0.0692267 -0.14308 -0.0742285 -0.0849157 -0.196381 -0.261787 -0.00660805 0.027768 -0.083524 -0.0234025 0.0106758 -0.0620545 -0.0615063 -0.0845377 0.0655505 0.111769 -0.169785 0.00726138 -0.0541594 0.00355426 -0.0572115 0.0127752 -0.203682 -0.0901155 -0.236388 -0.160754 -0.203805 -0.0632351 0.0142833 -0.0151658 -0.0746936 0.0429112 0.115375 0.104914 -0.0536451 0.00145425 -0.0722129 -0.120735 -0.100411 -0.100203 -0.0395517 -0.0521577 -0.00041823 -0.0111681 -0.142597 0.0121453 0.0384264 -0.249617 0.00687892 -0.111768 0.0180783 0.036852 -0.0424515 -0.0705149 -0.0176616 -0.120389 -0.135537 0.0238005 0.0368472 -0.00727874 0.0255851 -0.183383 -0.149921 0.0238261 -0.218757 0.04655 0.252131 -0.215911 0.0218025 -0.0881055 -0.237652 -0.127028 -0.0489411 -0.00974295 -0.0546954 -0.0181435 -0.0742962 0.0988603 -0.0534728 -0.213812 0.137321 -0.192579 -0.0207901 -0.0233312 0.19325 -0.179797 -0.108188 -0.183707 -0.108881 -0.190083 0.0110128 -0.197669 -0.121865 -0.0457998 0.0115577 0.00963238 -0.1879 -0.115543 -0.0656956 0.0595821 -0.339901 0.181446 -0.0515242 -0.0538975 -0.178275 -0.124551 -0.132534 0.0244291 -0.264753 0.00404973 0.00261663 -0.189387 -0.129813 -0.159832 -0.0391074 -0.28064 -0.0380217 0.0663825 0.0815694 -0.0839069 0.00475742 -0.210205 0.206522 0.11339 0.155335 -0.0738602 -0.0701648 -0.0407108 0.110894 0.178848 -0.162661 -0.0520432 0.178481 -0.207349 -0.0754937 -0.0656895 -0.0359051 -0.24 -0.0831603 0.089201 -0.3943 0.138171 -0.192059 -0.132792 -0.268237 0.00238031 -0.106927 -0.148233 -0.19961 -0.0230913 0.115127 -0.230922 0.060011 -0.217902 0.0464017 -0.273254 -0.257573 -0.100069 -0.0940437 -0.251317 -0.116395 -0.191477 -0.0511074 -0.122937 -0.128715 -0.143504 -0.0733011 -0.0660318 -0.304983 -0.108572 -0.122952 -0.165003 -0.0502469 0.0320542 -0.0560973 0.0341542 0.119965 -0.105588 -0.104907 0.00146424 -0.127175 0.0441334 -0.16563 0.091596 0.0258609 0.0234552 -0.117299 -0.126459 0.219237 -0.057172 -0.104494 0.169311 -0.173258 -0.042659 0.0911233 0.028612 0.192542 0.0139145 -0.114324 0.0343843 -0.141855 -0.0185837 0.038983 -0.0541477 -0.117936 -0.0445827 -0.170434 0.0764872 0.0254836 -0.0424682 0.33156 0.181232 0.0617532 0.200677 0.118456 0.202123 0.147496 -0.0503595 -0.0485201 0.0290177 -0.0490826 -0.25165 -0.100089 -0.00577772 -0.0536286 0.0859947 0.14842 0.0966131 -0.137537 0.289395 0.0464756 -0.148404 -0.0272013 0.0981116 0.0402566 -0.0322074 -0.00536578 -0.0709926 0.0856991 -0.0524076 0.215374 0.0573862 0.120867 -0.00121513 0.167373 -0.240186 0.0377069 -0.0755422 0.00587736 -0.0734516 0.300002 -0.257426 0.221502 0.16997 0.102648 -0.133763 0.0609595 -0.0899945 -0.0993943 0.0799656 -0.0802033 -0.118848 -0.000212706 -0.0824461 -0.0134863 -0.0485786 0.0330489 0.0274407 0.145336 -0.0273612 -0.0375312 -0.0748399 0.143034 0.117877 0.126072 0.0366483 0.0664248 -0.0558778 0.0729708 -0.209636 0.0318562 -0.108584 -0.0717049 0.082271 0.0750347 -0.111144 0.00637888 0.0522075 0.33608 -0.100127 -0.120026 0.0836069 0.140544 0.0980446 0.0363364 -0.0541774 0.0249945 -0.00765392 -0.0310469 0.0967442 0.15446 0.123596 0.162131 -0.164449 -0.0289319 -0.0505725 0.107234 -0.00175909 -0.0228656 -0.156297 -0.154363 0.178625 -0.0250439 -0.0576021 0.0571943 0.0830984 0.0162043 -0.0139667 -0.0668 0.000799878 0.00703608 -0.102899 0.0112734 -0.0816513 0.107776 0.0155905 0.0491797 -0.044045 0.0199966 -0.158269 -0.0724518 0.0800325 0.154582 0.117941 -0.0181785 0.0568352 -0.0354017 -0.0297192 -0.0987008 0.014724 0.0862222 -0.0207989 0.0757255 0.207056 -0.000794554 0.046291 0.0196989 -0.111522 0.150115 -0.0970448 -0.00835497 -0.0613589 -0.171122 -0.0660704 0.0603443 0.0379401 -0.0209984 0.133309 0.0263689 0.0427981 -0.0721919 0.0256762 0.015663 0.0410587 -0.0648095 0.00362095 -0.019234 -0.0210281 -0.030878 -0.0136379 0.0470528 0.0110257 0.054253 0.0652348 -0.110253 0.109438 -0.0334817 -0.0531037 0.149915 0.0560877 0.274054 0.137436 -0.00323755 -0.159144 0.202853 0.11103 -0.0638634 0.0363299 0.000612244 0.00513778 0.0273019 -0.0357161 0.133114 -0.0141038 0.122638 0.047253 -0.0429042 -0.0690868 0.041846 -0.102641 -0.0447908 0.126018 -0.137062 -0.14052 0.0274485 0.0238558 0.0338336 0.0721378 0.213621 -0.0925676 -0.0282959 -0.0838363 -0.0729741 0.175342 0.0109407 -0.180829 -0.188415 0.00548228 0.165486 0.146811 0.0625885 -0.0875164 -0.276156 0.0136064 -0.0962142 -0.0529878 -0.124157 0.0976028 -0.0704319 0.0339601 -0.11284 -0.0434697 -0.0524385 0.0600804 0.0146622 0.0693964 0.0105482 0.0687975 -0.0125576 0.159689 -0.0377039 -0.144099 0.0635178 0.2076 -0.00191461 -0.0624933 -0.104156 -0.0338256 0.153796 -0.10795 0.115969 -0.0960028 0.21254 0.237274 -0.0774228 0.0389214 -0.101142 -0.0484056 -0.123069 -0.122606 -0.0976936 -0.0589465 -0.00783171 -0.134499 -0.0739193 0.0276499 0.0284901 0.127215 -0.0794223 0.140619 0.0330523 0.121389 0.239522 -0.0647084 0.0189173 0.114512 -0.362416 -0.175249 0.116958 0.089317 -0.229116 -0.113565 0.294144 -0.0447943 -0.0920492 -0.0500414 -0.0773954 0.142583 0.112542 0.20548 -0.0147667 0.0420118 0.0756711 0.061708 -0.0285326 0.026681 -0.0182745 -0.182355 -0.0816694 -0.23854 0.0701983 -0.118058 0.244188 -0.0943663 -0.11141 -0.0851019 0.00738526 0.150798 0.0405645 0.0917422 0.0266939 -0.0557381 -0.107001 0.0759796 -0.0442901 -0.101708 0.160223 0.340681 -0.133788 0.176069 0.114551 -0.0861384 -0.0972795 -0.0485672 -0.215776 0.0106093 -0.08279 0.062556 0.153405 -0.051144 0.102684 0.0586187 -0.00480262 0.0113856 -0.00857938 -0.0383122 0.165302 0.0675476 0.0737012 -0.0202297 0.240367 0.0712952 -0.241339 0.17486 0.0512732 -0.0541692 -0.0718295 0.103626 -0.160599 0.252088 0.0253641 -0.00960019 -0.187836 -0.0379766 -0.200535 0.0755517 0.0093342 0.0872943 0.0122318 0.15957 0.112087 0.137842 -0.176714 -0.0498622 -0.0909253 -0.0650861 -0.051398 0.150104 0.0520558 -0.041885 -0.16459 0.0357629 -0.111859 0.0947505 -0.0169782 0.0656783 -0.0382635 0.108063 0.208008 0.00704833 -0.185713 0.0403536 0.0060297 0.0614347 0.0655731 -0.136042 0.0294952 -0.00351376 0.025644 -0.00516658 0.219166 0.0304624 0.0643538 0.187281 0.0837557 -0.234323 -0.0473915 -0.152538 0.11041 -0.156425 0.0266223 -0.100164 0.0398699 -0.198273 -0.0184774 0.0855554 -0.0755342 0.21286 -0.0518352 -0.0956861 -0.0857621 -0.0794461 -0.0620851 -0.128274 0.0128279 0.0952687 0.200421 0.0779211 -0.164516 0.0182349 -0.0999488 -0.104508 -0.0758653 0.0053538 -0.0986534 0.085328 0.0372986 