0.158005 -0.13199 0.0446599 -0.127665 -0.0201432 0.0340269 0.111845 0.0943748 0.0672274 0.0628712 0.0365136 0.0355511 -0.112226 -0.132085 0.200306 -0.294212 -0.0619853 -0.0125071 -0.0505874 -0.229872 0.108175 0.232171 -0.0794443 -0.00716327 -0.0398155 0.0314873 -0.0949813 -0.0515923 0.0243099 -0.082283 -0.0376244 -0.151389 0.106858 -0.0556368 -0.123257 -0.0226683 0.0557205 0.110131 0.181061 -0.0632341 0.0221902 -0.227233 -0.103919 0.204984 0.0937799 -0.0502824 0.133637 -0.106249 0.130443 0.168432 0.072645 0.0607569 0.084548 0.0369812 -0.033367 -0.150612 0.0516097 -0.00950896 0.14091 0.182009 -0.0275274 -0.0371727 -0.272173 -0.118466 -0.0582578 -0.0247248 -0.0510559 -0.0816694 0.0540409 0.0491337 0.0881238 0.0741134 0.114152 -0.0540451 -0.0869802 -0.23753 -0.191575 0.154584 0.0783278 0.105785 -0.150623 -0.0476611 -0.0265555 -0.119385 -0.266155 0.00531127 -0.0500816 -0.0504506 0.0276105 0.127551 -0.144259 -0.115292 0.00938085 0.0358553 0.19397 -0.0287141 0.00496591 0.0752312 -0.0210478 -0.0576019 -0.0835997 -0.213367 0.005828 -0.0474263 0.211099 -0.0417926 0.0903023 0.0143052 0.061854 -0.0888082 0.225713 -0.0346503 0.114998 -0.0461981 0.113071 -0.0467392 -0.0825945 0.143861 -0.0623581 0.0535847 -0.0721184 0.04254 0.149244 0.144969 -0.126053 -0.133886 0.0670814 -0.0239275 0.0494486 0.0141891 0.0394518 -0.0744932 0.0366038 -0.0716527 -0.137499 0.0140737 0.029449 0.101411 0.0545376 0.0117996 -0.00536194 -0.108081 0.0625522 -0.116305 -0.084927 0.118446 0.173065 -0.0513065 0.00813004 -0.038397 -0.0334904 -0.0706007 -0.151031 -0.0385189 -0.051309 -0.121329 -0.0561592 0.0271706 0.011886 0.0509997 -0.0512899 -0.0499946 0.0331797 -0.182669 -0.0138844 -0.0751493 -0.0165359 -0.00296669 0.0113186 -0.0606835 -0.244962 -0.0847555 0.00765619 -0.0478879 0.224697 -0.100822 0.0585623 0.043745 0.0827327 0.0211485 -0.104749 -0.0454831 0.0178421 -0.0101618 -0.0642377 0.00106026 0.08929 -0.0334899 0.0523986 -0.00629408 -0.10982 -0.0380692 0.0561256 0.0226126 0.0130212 0.125722 -0.0872853 -0.0168728 -0.0855218 -0.0267541 -0.0192668 0.020492 0.121632 -0.0785823 -0.167564 0.0119542 0.0649954 -0.188597 0.0597655 -0.144795 -0.0472422 -0.135667 -0.0238072 -0.0699637 -0.133778 0.1745 -0.265797 0.00528561 -0.101014 -0.0965393 0.0754948 -0.00661082 -0.112047 -0.0597598 -0.0174992 -0.0478923 -0.0524227 0.0195521 0.0514241 -0.133055 0.121556 -0.169915 -0.0709047 -0.133218 0.0670988 -0.0253123 0.000449893 -0.092819 -0.0859342 -0.100881 -0.0673141 -0.107028 0.00619637 -0.0660427 0.138403 -0.0621831 -0.0402307 -0.141046 -0.0437096 -0.0666574 0.0954374 -0.00983798 0.103224 -0.117617 -0.18202 -0.0953187 -0.339425 -0.105904 -0.115872 0.0556735 0.0937721 0.250553 -0.345495 0.215596 0.00379231 -0.0688381 -0.091144 0.134476 0.0500997 -0.0753095 0.00665603 0.0432666 0.00341668 0.0550801 -0.17946 0.0164593 -0.0885721 -0.0840205 0.0373697 -0.0153638 0.144761 -0.0245361 -0.0390203 0.0409334 0.145963 -0.16774 0.154258 0.14752 0.0706758 0.074515 -0.168828 -0.0280317 -0.0418388 0.108742 -0.33126 -0.00388626 0.146728 0.303399 0.0494269 -0.277158 0.0486396 -0.130561 -0.158643 -0.0761157 0.148518 0.157471 0.0116547 0.0196245 -0.110307 0.134992 0.0268214 -0.0360308 -0.098804 0.267591 0.0402083 0.0324476 -0.262776 0.201709 0.0865388 -0.0747954 0.0240786 -0.17662 -0.122486 -0.297104 -0.0710563 0.0961724 -0.0468933 0.0898493 0.0464904 0.0183729 -0.0181246 -0.231721 -0.000633225 0.192599 0.25617 -0.0520318 0.14758 -0.18226 0.040074 -0.127331 -0.151944 0.071902 0.00206471 0.126981 -0.0989639 0.0205183 0.0500253 -0.0450642 0.113252 0.326164 0.000198528 -0.441099 0.053381 -0.208738 -0.131901 -0.101696 -0.0767998 -0.223913 -0.288802 0.0166853 0.281636 -0.245983 -0.0617491 -0.244881 -0.0594722 -0.264003 -0.0442237 0.117048 -0.0669331 0.0805862 0.0516667 -0.175384 0.120173 -0.050366 -0.265543 0.00758405 -0.268537 -0.0785975 0.123947 -0.205389 -0.0163334 0.083884 0.357883 0.108831 0.0156821 0.0356602 -0.059385 -0.0553861 -0.00710172 -0.00246073 -0.122121 0.078213 0.0431198 -0.106368 -0.0641381 -0.0249446 0.0123136 -0.235591 -0.0343001 0.0359434 -0.015575 0.0644089 -0.0235745 -0.0643994 0.137685 0.0613521 0.0405245 0.232383 0.107478 0.0125228 -0.0354761 0.0921755 -0.106807 0.0163846 -0.0233159 -0.0857007 -0.261422 0.0535713 0.0301274 -0.0495048 -0.174191 0.0429008 0.0164434 -0.100013 -0.115543 -0.210227 0.0273593 0.252726 0.0958222 -0.00840931 -0.263627 -0.0537897 0.0259411 0.0489339 -0.0387424 -0.0611161 -0.00921917 0.10013 -0.0517458 -0.0772248 -0.0515656 0.000701523 0.0677064 0.0948836 -0.012141 -0.0370782 0.0510421 0.0563277 0.047925 -0.0531102 -0.076748 -0.0108334 0.0159463 0.0733723 -0.0621182 0.135505 0.0992503 -0.184279 0.0176788 0.0935332 0.0452622 0.156713 -0.0910368 -0.0362011 -0.10286 0.0816019 0.0894361 -0.0316936 0.190468 -0.219735 -0.0830127 0.0476901 -0.056753 0.0116374 -0.0169437 -0.015055 0.0456933 0.151111 0.0394904 0.122252 0.0867548 0.148094 -0.0507921 0.112498 0.0713758 0.159334 0.0609774 0.125111 0.0178769 -0.00266971 -0.0113048 0.130539 0.123558 0.00993124 -0.0305306 0.0576606 -0.0941866 -0.0610535 -0.0017714 -0.00633843 -0.0308669 0.00670288 0.105086 0.0734288 0.0552358 0.0758478 0.106376 0.0904022 0.0508629 -0.251776 -0.0640247 0.04826 -0.0526793 -0.00585161 -0.0755664 -0.00883338 0.130557 0.0186904 0.127969 -0.11557 0.0816081 -0.167042 0.0191886 0.0209232 0.0213554 -0.284671 -0.089127 -0.230991 0.0397678 -0.0707956 -0.162095 0.0822583 -0.108593 0.0886789 0.0923994 0.226706 -0.10765 0.091768 0.00464962 -0.0427708 0.0707889 -0.161978 0.00976161 0.0090884 -0.140832 0.0687475 -0.119386 0.115991 -0.136112 0.00126438 2.42131e-05 0.0439005 0.0971099 0.0215235 0.0352041 0.00366128 -0.0908322 0.0162432 0.0585861 -0.0449311 0.147704 0.00825125 -0.0725371 -0.00702299 -0.084071 -0.0674775 0.11451 -0.104857 -0.044196 0.0962127 -0.0833816 0.00673571 0.0598168 0.0675951 0.19934 0.0128748 0.153118 0.0402474 0.0240485 -0.0385221 -0.0933123 -0.00878717 0.0958393 0.000839154 0.0316501 -0.130282 -0.0676568 -0.0504015 -0.0452618 0.00288091 0.151866 0.0861116 0.0367919 -0.09503 0.0329799 -0.0645143 0.0587679 -0.0987869 -0.0683736 0.0704812 -0.0338646 0.0991448 0.0817019 -0.044656 0.00052062 0.0524069 -0.120297 0.156415 0.0763566 0.115218 -0.0803987 0.0147595 0.110385 0.0780532 0.023747 0.0222937 -0.167397 -0.0909856 -0.123732 -0.022508 -0.104625 0.0311077 0.0399588 -0.102898 0.111722 -0.0453258 -0.0140443 -0.0313512 -0.00353458 -0.142319 0.0214197 -0.0637421 -0.129536 0.0184258 0.091401 0.0457138 -0.0662964 -0.118599 -0.102814 0.12132 -0.0225488 -0.347543 0.150354 -0.0887005 0.0528534 0.237995 0.0214823 0.0666139 -0.248353 0.0170281 -0.0457387 0.0669976 -0.0105026 -0.0124889 0.0364437 -0.0622968 0.096691 -0.17988 -0.0269992 -0.027583 0.050791 0.331742 0.120119 -0.289809 -0.175778 -0.0693319 -0.0379817 -0.130142 0.00476572 -0.0125384 0.0334548 0.0433097 -0.300313 0.172876 0.243311 0.109294 0.0969987 0.168804 0.00995391 0.0212273 0.153596 0.173116 -0.0498015 -0.313719 0.201577 -0.232868 -0.096083 0.202306 -0.035136 -0.0975504 0.0130258 0.108182 -0.0247739 0.00765093 0.0280244 -0.0596244 0.0283697 0.317185 0.0201593 -0.135382 -0.0680868 0.119638 -0.134608 -0.0255839 0.274934 0.0470856 -0.0322838 0.00168003 -0.0127203 0.0511718 -0.0639222 -0.0914994 0.0275982 0.173943 -0.101997 0.00975682 -1.61488e-05 0.398363 -0.111845 -0.0745633 0.0861136 0.112559 0.0679614 -0.0587783 0.0735922 0.0528101 -0.0335396 0.00777161 -0.2339 -0.249749 0.362263 -0.0900002 0.321984 0.395825 -0.0477829 -0.0995926 -0.188709 0.0811636 -0.00764446 -0.0749336 -0.0832138 -0.0762552 0.0382426 0.001119 -0.156055 -0.191159 0.358221 -0.437133 0.0021682 -0.108536 -0.148139 -0.0843871 0.279031 -0.0960244 -0.0280201 0.256071 0.126646 -0.114422 -0.141849 0.107294 -0.199485 0.0209884 0.169973 0.208228 -0.263778 0.236357 0.117199 0.00644697 -0.0250319 0.0815601 -0.129568 0.155401 -0.201448 -0.0718507 0.169925 0.223851 0.189413 0.0163887 0.224671 0.155035 -0.012238 0.161159 -0.019214 -0.0180634 0.112814 -0.0935054 -0.0613662 -0.0375441 0.0935237 0.0552597 -0.113808 0.148664 0.0212504 -0.0310105 0.0780544 0.137237 -0.0291902 -0.032701 0.178924 0.106648 0.0228413 0.022756 0.160771 -0.0983011 0.0381425 -0.0536663 0.00871734 0.27641 0.197131 -0.00375247 -0.0654219 -0.0622666 0.108639 -0.0161836 0.0141238 0.238088 0.373674 0.0349494 -0.0346746 0.0183376 -0.0640837 0.118421 0.147646 0.0798801 0.170013 -0.0618168 0.0328542 0.0153481 0.171427 -0.0377031 0.123038 -0.11329 0.148698 0.0438909 0.0793903 0.0295682 0.0122115 -0.239024 -0.0905061 0.0988727 0.095289 0.174364 0.040846 0.0524918 -0.13304 -0.144722 0.0343271 0.180454 0.0219274 -0.0137652 -0.122677 0.105913 0.0476515 -0.0161625 -0.132396 0.0201329 0.0952838 -0.0713394 0.057569 0.218155 0.00672172 0.172767 0.0673456 -0.185624 0.0831921 -0.0309082 0.168716 0.0891756 0.00124272 0.0937701 0.0148855 -0.110355 0.197377 0.171474 -0.0336445 -0.196711 0.0487074 0.196876 -0.0867028 -0.0927289 0.175299 0.0954838 -0.0503882 -0.0247816 -0.263309 0.151324 0.0611279 0.11261 0.196986 0.0453556 0.0703495 0.0572096 0.11118 -0.0758083 -0.115034 -0.189661 -0.0890243 0.0188017 0.0412718 0.111317 -0.0659564 -0.0913578 -0.0432284 -0.262228 0.0538374 -0.121038 0.118442 0.0274249 -0.0643504 0.0723401 -0.0903458 -0.0454216 0.0824419 0.0516458 0.095898 -0.0115077 -0.0560458 0.0233327 -0.0227265 0.0930386 0.0373852 -0.0271109 -0.0630486 -0.129742 -0.150318 0.00841113 0.216135 -0.0325194 0.0516511 -0.0740787 -0.105453 0.0235873 0.159961 0.0515296 0.159327 0.166418 -0.000325129 -0.0415667 0.157858 -0.0682557 0.0755512 0.133062 -0.0465498 0.154726 0.0108442 -0.0211338 -0.0946285 -0.0200093 -0.114925 -0.0319697 -0.13646 0.102312 0.0130706 0.230137 0.0687661 0.255698 0.0949545 0.0852001 0.304075 0.0802181 0.10802 0.0025418 -0.0745308 0.143633 0.025507 -0.0068001 0.0547419 0.129583 0.026041 0.0331853 0.0410775 -0.102912 0.144565 -0.058835 0.00445238 0.112179 -0.01432 0.0621567 0.0793069 0.0488804 -0.0316251 -0.094074 -0.0888787 -0.0715898 0.0891866 0.110239 0.0978704 0.035784 0.135236 0.0989138 0.172373 0.00483894 -0.0116706 0.00353985 0.00356341 -0.0546673 -0.0240728 0.118726 0.0301943 0.103946 0.0121394 0.0773461 -0.028366 0.139924 0.0655039 -0.169876 0.132742 0.0738017 0.0226978 -0.0720746 -0.00173305 -0.0607398 -0.11445 0.128123 0.00652351 0.0505633 0.170181 -0.0395353 0.0909725 0.00865729 -0.241401 0.0466585 0.121948 0.0583028 -0.138487 0.104975 -0.213109 -0.336495 -0.202814 -0.0100217 -0.142914 0.116688 -0.0738655 -0.132657 -0.108557 0.211855 -0.36372 0.192251 0.216453 0.0348477 -0.00421148 -0.359571 -0.118982 -0.102985 0.330493 0.0317769 -0.305913 -0.105205 0.011939 -0.0713224 -0.0326176 0.222867 0.0198123 -0.118206 0.229204 0.110937 -0.110549 0.109546 0.14726 -0.00958824 -0.100646 0.305204 -0.0382944 -0.335761 -0.168896 -0.108154 0.250734 -0.54247 -0.148145 -0.0925035 -0.392445 -0.0873664 0.110941 0.165885 0.17905 0.0941716 0.0972827 0.0889328 -0.181375 0.0719054 -0.0308599 0.0240044 -0.171506 -0.0600566 -0.316466 0.0470618 -0.384583 -0.0134375 0.0423353 -0.154783 -0.121873 -0.0535839 0.0978643 0.0978897 0.223362 0.0126464 0.155042 -0.0891683 0.206553 -0.159917 -8.21169e-05 -0.0730003 -0.146284 0.136142 0.0779064 -0.316246 -0.0564954 -0.333673 -0.0247702 -0.221481 -0.0347661 -0.00585371 0.00456596 -0.242001 -0.0271268 -0.0731533 -0.132388 0.315561 0.200032 -0.13343 0.0299196 -0.0835048 -0.0162173 -0.0923836 0.343637 0.0922148 -0.109249 -0.0231558 0.0355822 0.121134 0.491256 0.0981897 -0.0209163 -0.22081 -0.227294 -0.152352 -0.0286753 0.281326 0.00441021 0.173381 -0.094118 0.0465348 0.0325773 -0.255115 0.117959 0.0301781 -0.0890899 -0.144328 -0.299002 0.301368 0.129066 -0.0712358 0.0331486 0.0699348 0.0489271 0.031939 0.052681 0.168156 0.249011 0.0876661 0.0475435 0.0798991 0.0541691 -0.0984676 0.0288187 0.0449525 0.0941945 0.0853991 -0.0724006 0.110754 0.078762 0.0341123 0.0631962 0.0235339 -0.0411008 -0.00985723 0.267086 0.0194518 0.179439 -0.10937 0.0429325 0.0446749 0.0168174 0.194423 0.0733185 0.0263631 -0.0712713 0.0507917 -0.034892 -0.122281 0.000855286 -0.134302 0.14435 -0.0397363 0.0295979 -0.0386821 0.00876452 -0.00964415 0.239646 -0.0489521 -0.105692 0.111065 0.168584 -0.0326148 0.153972 -0.32117 -0.111605 0.0428494 -0.0228822 0.0544527 -0.00284492 0.00672648 -0.0389247 -0.0984541 -0.0482492 0.104428 -0.0551066 0.163373 0.238681 0.0589465 -0.247388 0.0210245 -0.0908836 0.140295 -0.0418246 0.217764 -0.0114256 -0.10364 0.0185109 -0.0670275 0.0286346 -0.108948 0.0813594 -0.0271683 0.116358 0.111361 -0.00518077 -0.0934668 0.0385813 -0.187753 0.0427719 0.0624389 -0.0402524 0.0352848 0.00573931 0.0268291 -0.290404 0.0845338 -0.0737644 0.102611 -0.14966 -0.000720876 0.24667 -0.0104022 0.170176 0.10193 -0.242968 0.19354 0.0166527 -0.0190199 -0.0565033 0.0867506 0.0428179 -0.13034 -0.0526133 -0.100115 0.0206866 0.180309 0.266457 0.174152 -0.109296 -0.018685 -0.0726249 0.0850208 0.0605194 0.055752 0.215625 0.0912283 -0.00970057 0.162834 0.057168 0.0544859 0.152171 -0.0437355 -0.0315523 0.245919 -0.0273951 0.181537 0.0430099 0.0223207 0.0970994 0.0152673 0.0356409 0.15729 -0.0787231 0.0477902 0.0813652 0.113024 0.1411 -0.00368312 0.245543 0.101162 -0.0251497 -0.00308901 0.0381689 0.14093 0.203862 -0.142261 0.0279809 0.167412 -0.105736 0.103455 0.187788 0.141933 -0.013414 -0.0767159 -0.119482 -0.00759681 0.193205 0.00771219 -0.050368 -0.0301527 -0.0885488 -0.167367 0.0133586 -0.173526 0.170491 -0.109001 -0.0912403 -0.0221073 -0.069252 0.126792 0.0116519 -0.163797 0.119393 0.118736 0.0232686 0.0484841 -0.0338661 0.181261 0.0385845 0.087378 -0.0661412 -0.0757988 0.166215 0.0823203 -0.0146016 0.018593 -0.0878512 0.140578 -0.119049 0.00716515 0.0758453 0.0684272 0.157354 -0.0277763 -0.0817426 0.0817422 0.0719862 0.0646245 0.10411 0.00765599 0.0144222 0.051999 0.179863 -0.0531085 -0.0333448 -0.126443 -0.021668 -0.127201 0.121456 -0.0919073 0.025442 0.0496876 -0.133542 0.135304 -0.00588962 0.157502 0.0685727 -0.0380504 0.0106753 0.0453307 -0.031994 -0.0560227 0.00459071 0.0063625 -0.0801267 -0.0274329 -0.0548311 0.136926 -0.126475 0.166635 0.0247225 -0.00741382 -0.0308537 0.00696388 0.0798632 0.0927503 0.130637 0.0313599 0.0344932 0.0514962 -0.0491148 -0.108739 -0.0261521 0.0377613 -0.0817582 0.0103919 0.0792038 -0.0136966 0.0701802 -0.465009 0.135663 -0.0611311 -0.0775787 -0.186266 0.0711797 -0.0903836 0.28527 -0.105672 0.266502 -0.0629817 -0.128184 -0.0866759 -0.0168525 -0.128477 -0.101979 -0.07485 -0.142462 0.364204 0.110091 -0.0845402 0.0334108 -0.123255 -0.138268 -0.0242616 -0.0656545 -0.113686 0.121026 0.011028 -0.00958 -0.14939 0.11765 0.198417 -0.389743 -0.0390505 -0.0214827 -0.0927629 0.195977 -0.182918 0.109474 -0.11699 0.0639661 -0.0462641 -0.0299885 -0.0824701 -0.0420598 -0.0712435 0.146807 0.0485185 -0.0635293 0.20878 0.0115424 0.137505 -0.180851 -0.188119 -0.133658 -0.190647 0.216781 0.0251998 -0.355095 0.0815888 0.182779 -0.126816 -0.00801038 -0.275768 0.056496 -0.364651 0.108068 -0.0151938 -0.100551 0.3322 -0.141552 -0.0780172 -1.90619e-06 0.279773 0.0958562 0.278689 -0.0601868 0.245591 0.086582 -0.171873 -0.0332746 -0.169084 0.359688 -0.00692353 0.0787015 0.155719 0.30033 -0.0107726 0.0490151 0.00443937 0.0328195 -0.230294 -0.177045 0.0435983 0.0368666 0.540309 -0.00309626 -0.280759 0.00260186 0.381401 0.168662 -0.118707 0.301685 -0.337325 -0.138484 0.0223166 0.123692 0.00103196 -0.156683 -0.116781 -0.0151619 -0.258388 0.0683827 -0.0609657 -0.0153471 0.129796 0.27342 -0.255852 -0.0461738 0.0552973 -0.0656839 -0.0720122 -0.10598 -0.0790181 0.195183 0.0636565 0.0812883 -0.149475 0.0161007 0.0970804 0.0610706 0.0760446 -0.070859 0.112854 0.0912656 -0.141057 -0.03264 0.119576 0.129008 0.0473544 0.220147 -0.0143566 0.0173594 0.00660128 0.0338189 0.221249 0.0220091 -0.102341 0.135194 0.0948151 -0.0169995 -0.0371532 -0.0108412 -0.136119 -0.0911056 -0.0829106 0.0684824 -0.05474 0.164082 -0.182185 0.110203 0.0131117 0.129221 0.18346 0.126119 0.0449061 -0.022067 0.0188604 0.119721 -0.0179319 -0.071465 -0.0184907 0.0877636 -0.0511326 0.0468646 0.038039 -0.0599426 0.0977823 -0.0157396 0.0152877 0.113727 -0.0541086 0.180328 0.0198245 0.119353 0.0773453 0.187921 0.0516753 -0.171885 -0.0514337 0.262836 -0.102923 0.216205 -0.0263456 0.159852 0.0676324 -0.152837 0.0212573 -0.127874 0.172882 -0.0429712 0.125622 0.160762 0.0583637 0.0368612 0.12805 -0.0765822 0.101599 -0.0182549 0.043889 0.0290662 -0.0284642 0.101244 -0.0832274 -0.181215 0.0460027 -0.0476784 0.0733116 -0.0657165 -0.0940769 -0.0173012 0.0330366 -0.0119293 -0.144178 -0.119447 -0.00852899 0.0434894 0.122951 0.138407 0.0462617 0.0194257 -0.0710115 -0.150935 -0.01198 0.0959071 -0.040731 0.094699 -0.0309004 -0.0424035 -0.13067 -0.00712814 -0.061403 0.123694 0.0231702 -0.224987 0.136343 0.0548464 0.168802 -0.204632 -0.00592321 0.0849303 0.117347 -0.00418461 0.0412643 0.0547699 -0.088828 0.007653 0.106797 -0.0996197 0.0279971 -0.0532568 0.184613 0.124344 0.0279216 -0.0117975 0.0408395 0.068932 -0.169938 0.0917082 0.0390373 0.159897 -0.15417 0.0960253 0.0981269 0.013314 0.0130714 -0.0645638 0.0894576 0.0743867 0.0453685 -0.00134822 -0.087176 0.17288 0.000932417 0.0148231 0.0498086 0.18604 0.128446 0.0388498 -0.0492421 -0.184117 0.115253 0.0584973 0.220619 0.0162229 0.0855952 0.0495428 0.128842 0.181111 0.117652 0.0121775 -0.096454 -0.0619746 0.0404102 0.152873 0.159036 0.144986 0.178027 0.00127874 -0.0767695 0.0312883 0.00996434 0.0589347 0.00190406 0.0743518 -0.090814 0.0356634 -0.0797439 0.153052 0.203045 0.137232 0.0398662 0.110942 -0.116013 0.0347039 0.0233043 0.151498 -0.023164 -0.0107941 -0.00944907 0.11515 0.078457 0.119657 0.050244 0.174242 0.0364082 0.0389607 -0.0535966 0.0491729 0.0702979 0.000206888 -0.125012 0.0375167 0.00347433 0.116948 0.122718 -0.00401959 -0.00900113 -0.124443 0.0763086 0.167722 -0.0803498 0.0226413 0.0887901 -0.0318956 0.105379 0.117544 -0.00597148 -0.0788716 -0.0487671 -0.100056 0.103752 0.0767543 -0.00420829 -0.00400332 -0.0126281 0.00697986 -0.16668 0.0735971 0.121074 0.0812666 -0.0519581 -0.0456413 0.0763571 0.091244 0.323023 0.0290612 0.0193528 0.125659 0.0321852 0.325231 0.0420878 -0.165452 -0.347456 -0.39906 0.0138207 -0.053673 -0.328828 -0.350114 -0.168999 0.194456 -0.0323627 -0.291511 -0.0254033 0.0914885 0.265662 -0.0628367 -0.0639037 -0.308288 -0.0504591 0.166624 0.0397376 -0.134383 -0.118478 0.111261 -0.0402072 0.0330738 0.00128023 0.151069 -0.0753483 0.23702 -0.173212 -0.176519 -0.153731 -0.0235251 -0.0566696 0.0368537 0.0501935 -0.204937 -0.0958167 -0.0596013 0.394979 0.244477 0.276942 0.0939263 -0.260027 0.0528456 0.023567 0.0576242 0.0715703 0.216086 0.00844176 0.149072 0.185347 0.0361901 0.0659301 -0.0561096 0.232792 0.073653 0.0642464 -0.199596 0.175554 -0.0433037 -0.230255 0.0433795 0.0215468 -0.086051 -0.269097 -0.0252945 0.440506 0.0536994 -0.326256 0.131666 0.0528615 0.134359 0.0487889 -2.8912e-05 -0.0937992 -0.0376329 -0.024098 0.240938 -0.0792466 0.166069 -0.0527077 -0.0183754 0.366065 -0.00518305 0.0337092 -0.103724 -0.202397 0.14685 0.0134849 -0.0824931 -0.373625 -0.0536687 0.0713782 -0.205728 0.038129 -0.186412 -0.0644574 0.252836 0.0433632 0.00191165 0.183607 0.127945 0.104539 -0.166538 0.497916 0.0517012 -0.0326202 -0.203051 0.0354852 0.0566847 0.0859693 -0.0315929 0.051936 0.0456461 0.00617509 -0.21222 0.21172 0.155269 0.105771 0.0941421 -0.0104894 -0.169604 0.247211 -0.0952663 0.224363 0.0943509 0.0350431 -0.226764 -0.115033 0.0982667 -0.154882 -0.321515 0.0038078 -0.0565818 -0.0390497 -0.19263 0.124689 -0.0562567 -0.00361188 0.022308 -0.211243 0.0057179 -0.151615 -0.134337 -0.0174384 -0.132885 -0.298958 -0.240385 0.0388247 -0.0346544 0.251181 -0.0517308 -0.0754737 -0.133687 -0.0976934 0.113112 -0.172268 0.0247969 -0.0372552 -0.00305592 -0.154857 -0.0369883 0.0112701 0.160173 -0.0582519 -0.124096 -0.0507073 0.0169849 0.116696 0.106277 0.0749149 0.06892 -0.213232 -0.201039 0.0734673 -0.10488 0.0200579 0.0441066 -0.0708711 0.0506474 -0.0536707 -0.0997984 -0.126125 -0.0203509 0.00347612 -0.102901 -0.00883774 0.177112 -0.05304 -0.0527213 -0.00524385 -0.00958921 -0.0540472 -0.0821681 -0.144972 0.0950378 0.0212265 -0.0468225 -0.189986 0.0335327 0.0239976 0.0287557 0.0739515 -0.140696 -0.166775 -0.0443998 0.0459934 0.00786315 0.000801488 0.00406072 -0.0697039 -0.00256348 -0.116125 -0.111096 0.17586 -0.107618 -0.13687 -0.104894 -0.098292 0.115777 -0.0789505 -0.0144455 -0.191372 -0.0847855 -0.0347753 -0.02077 0.087523 -0.0313204 -0.0626289 0.248139 -0.0880933 0.0766184 0.038114 -0.00442538 -0.0891578 -0.025609 0.000966328 0.0321822 -0.00816535 -0.0487112 -0.0263393 -0.0728546 -0.116385 -0.153358 0.122027 0.0803078 0.123778 -0.163633 -0.118805 0.00348683 -0.0171226 -0.198311 0.0398775 -0.125327 -0.0677109 -0.127268 -0.0632669 -0.0160565 -0.0410859 -0.158632 -0.0811327 0.0447644 -0.015077 -0.098441 0.0258771 -0.0225668 -0.0182736 0.0741012 0.0157506 -0.023322 0.0380386 -0.00654942 -0.207688 -0.0820707 -0.113395 -5.37328e-05 0.0938032 -0.0713105 -0.196452 -0.153905 0.0235351 -0.032794 -0.0402314 -0.11832 -0.0478992 0.0731676 0.00677692 -0.119688 -0.0586255 0.0878171 0.0280153 -0.0805325 -0.10203 -0.0607217 0.0112129 0.0619634 -0.168059 0.0182647 -0.0703834 0.028595 0.0142114 -0.0151087 0.0300936 -0.145217 0.0455158 -0.106646 0.124449 0.0172911 -0.111525 -0.0475346 -0.0225173 -0.0539516 -0.104091 -0.0604253 -0.122068 0.112567 -0.0707608 0.0322872 0.0734136 0.0263556 -0.0591787 -0.139504 0.0777193 -0.103941 -0.109661 0.0985251 -0.186646 0.0166502 -0.140695 0.0148206 0.0326896 -0.169643 -0.159929 -0.0143257 0.029237 -0.0713259 0.0289305 -0.112521 -0.000496898 -0.0378048 0.177586 0.0270033 -0.238808 -0.00911681 0.0899791 -0.0387601 -0.0424376 0.00827117 -0.0757036 -0.0537522 -0.139651 0.055984 -0.150793 -0.0351873 -0.226714 0.0536437 -0.029604 -0.130156 -0.171242 -0.0205981 -0.0670968 -0.0671396 0.0609839 -0.019166 0.0526036 -0.07528 8.0546e-05 0.043896 -0.0629129 0.0322003 -0.055571 0.0674786 -0.0705019 -0.159139 -0.198909 0.0538574 -0.00322114 -0.0947011 0.057843 -0.0578684 -0.0412846 0.190231 -0.101733 -0.360641 -0.108525 -0.0647734 -0.111933 -0.109507 -0.0883695 0.0785551 0.102 -0.0746906 -0.339127 -0.0259188 0.118008 0.108451 -0.0677456 0.0766383 -0.129317 -0.0249875 -0.0854775 0.251497 0.148571 -0.109123 -0.132078 -0.0547489 0.189288 -0.0579421 0.319877 -0.0293053 -0.101495 0.21469 -0.00396548 -0.249076 -0.00773098 0.0479433 0.228019 0.373524 0.0582148 -0.238044 0.141021 -0.1001 -0.349174 0.00352915 0.328549 0.021306 0.0805919 -0.0924945 -0.0707215 -0.171488 -0.153896 -0.250171 -0.132611 0.0926955 0.142033 -0.0717023 0.0378524 -0.0630731 0.0183876 -0.244385 0.0387099 0.00787494 -0.55882 0.10589 0.00628739 -0.169834 -0.36513 0.0663887 0.238422 -0.173041 0.252763 -0.0501217 -0.263135 -0.00506381 0.11865 -0.220842 0.0327495 -1.71149e-05 0.0219184 -0.0181527 0.132376 -0.0140239 0.119332 -0.0765673 -0.134727 -0.108576 0.248103 -0.0124076 0.0388773 -0.15335 0.18993 -0.481648 -0.0566399 0.00961888 -0.407302 -0.0645788 0.160026 -0.0724062 0.220267 -0.0397962 0.112543 -0.0856687 -0.00333669 -0.065398 -0.0763888 0.0461008 0.167868 0.206427 0.0990177 -0.0128764 0.123651 -0.186018 -0.248276 0.154982 -0.216487 -0.0789641 0.119527 0.112412 0.152028 0.109853 -0.0739915 0.274647 0.30633 -0.12367 0.005965 0.086258 0.011701 -0.157946 -0.0316333 0.178312 0.198246 0.0553504 -0.00220543 0.122143 -0.103837 -0.195899 -0.00057025 0.037837 -0.0701724 -0.0295441 -0.00230371 0.0148299 -0.21933 0.171958 0.0964419 -0.057892 0.0335044 0.0779885 -0.0040602 -0.0868364 -0.00270145 0.0827584 -0.0620007 0.0174733 -0.0535223 0.28726 -0.00450873 0.0561367 0.0811438 -0.0199821 0.371777 -0.0509275 -0.032257 0.00261785 0.0508568 -0.0704124 -0.151397 -0.00234193 0.0510338 -0.05826 -0.0890491 0.0495281 0.09125 0.0133164 -0.0390317 -0.126609 0.0959032 -0.112415 -0.157369 -0.0316305 -0.00221505 0.10807 -0.0802592 0.168721 -0.181221 -0.01295 0.0919995 -0.0170622 0.0633822 0.0588943 0.0826716 -0.022837 -0.0597674 0.0888432 0.221957 0.0559342 0.101814 0.00401574 -0.202832 -0.0927772 -0.00855805 0.0316155 -0.0862166 0.0467845 0.0232341 0.0833425 -0.185964 -0.0643894 -0.063615 0.161115 -0.0376132 0.0364151 -0.0242951 0.0287117 -0.00687 -0.140574 -0.121343 0.0497642 0.0742819 0.00319511 0.0232294 -0.0946433 0.172115 0.121155 -0.202479 -0.0135671 0.127742 -0.00470568 0.160446 -0.125957 -0.0854719 -0.130464 0.0339841 -0.0895413 0.0273587 0.436334 0.0921722 0.00396293 -0.0883847 0.0696264 -0.00844003 0.062223 0.0401369 -0.0771313 0.293868 -0.02763 0.081548 0.0398657 -0.14872 0.153659 -0.0109732 0.0379518 0.0952931 0.0716237 -0.064978 -0.00700593 -0.135089 0.0869443 -0.0660216 -0.00555274 -0.0639875 0.0294749 -0.0425937 -0.0382674 0.0193488 0.0957893 0.0392019 -0.00552439 0.0848969 0.22759 -0.102116 0.0506098 -0.213134 0.0483163 0.0697483 -0.0176482 -0.0484881 -0.086366 -0.0640837 0.0749198 -0.165797 -0.0529593 0.133585 0.0120712 0.0834496 -0.0280403 0.188508 0.101371 0.109427 -0.10241 0.159114 0.100356 -0.0191147 0.181944 -0.00742412 0.0338652 0.0454681 0.038842 0.0906212 0.0494144 0.0448291 -0.0871915 0.0299694 0.145912 0.0608735 -0.149932 -0.0493323 0.0743641 0.00197727 0.0423476 -0.0359663 0.011218 0.00336707 0.0265777 -0.167639 -0.147475 0.0293642 -0.00633588 0.0273909 -0.155807 0.0671999 -0.0443157 -0.00922393 -0.0818594 0.0459658 -0.0618254 0.0669562 0.0351241 -0.0593189 -0.0102432 0.0218306 0.0267751 0.130972 -0.191351 0.114697 0.0432634 -0.0802802 -0.0192856 -0.104419 0.0716725 -0.0641492 0.00942788 0.21058 0.0987337 -0.0797665 0.111341 0.0360627 0.0493525 0.0680386 0.141199 0.0966863 0.0170872 0.0133457 0.00110433 0.0265326 0.109459 -0.0283299 0.218147 0.0394539 0.0688856 0.0165486 0.0543251 0.0848373 0.161973 0.120601 0.174164 0.103094 0.0895854 0.109043 0.113216 -0.256252 0.028454 0.215133 0.0560386 0.00701144 -0.0825072 -0.0184032 -0.11291 0.0903916 0.0791388 0.116247 0.0784783 0.0363142 0.0506349 -0.0525447 -0.458628 -0.345579 -0.389005 0.122995 0.421692 0.126182 0.0726645 0.0546576 -0.204618 0.126511 0.303138 0.66027 0.0138262 0.0873212 0.0289487 0.197395 -0.111361 -0.27645 0.0119278 0.0626301 -0.0336817 0.319902 -0.0105459 -0.342677 -0.0537852 0.0748756 -0.090989 -0.0415483 -0.130655 -0.264359 0.0994239 0.315551 -0.238864 0.118495 0.26675 0.0346974 -0.0497372 0.140657 0.0463313 -0.160697 -0.17118 0.0837569 -0.124377 0.0558544 -0.253626 -0.126689 -0.0484896 -0.233868 0.15113 0.0992708 0.00279972 0.00152025 0.0201865 -0.312654 -0.279787 0.159845 -0.128877 -0.147851 -0.217836 0.372447 -0.0686712 -0.0432312 0.224194 -0.134936 0.0496577 -0.0537879 -0.199351 -0.0990835 -0.0490723 0.0207197 -0.401375 0.27761 0.0950594 0.0896925 0.156644 -0.587774 -0.000242986 -0.0652271 0.105137 -0.0992983 0.434327 0.107708 0.0167831 0.12878 -0.183635 -0.0265112 -0.42021 -0.0932454 0.0620174 0.090903 0.0385811 0.228443 0.127335 -0.258215 -0.103719 0.0166812 -0.0396607 0.0731013 0.575103 -0.080623 0.0144757 0.101004 0.175883 0.231849 -0.0993807 -0.209454 -0.167415 0.377263 0.08089 0.0505795 0.27218 0.474902 0.393521 -0.270245 0.0570637 -0.210009 -0.04948 -0.0597717 -0.366968 -0.211289 -0.034339 0.410324 -0.0457428 -0.0316595 0.0905641 -0.116722 -0.0260844 -0.179552 0.0466917 -0.0561876 -0.238812 -0.15075 -0.0293901 -0.120554 -0.0711655 -0.0773783 0.091104 0.0314108 -0.0870775 -0.0442655 0.249625 -0.0278016 -0.0787981 0.0924708 -0.0872359 0.126345 0.0136424 0.0992705 -0.111841 0.22889 0.0233148 -0.136869 -0.0553099 -0.0441666 -0.153909 0.0515084 0.0382871 -0.139928 0.157213 0.106516 0.00137334 -0.019062 0.0178603 0.0525051 -0.0542544 0.0131324 0.00553382 0.00484352 -0.0291754 -0.0968749 -0.0294049 0.0272082 -0.0326965 0.10137 0.12347 -0.0261166 -0.0437928 0.0791295 0.0354161 0.0545075 -0.0212238 0.0146968 0.00441487 -0.0292998 -0.0149912 0.104016 -0.176673 0.0144367 -0.153061 -0.0667484 0.117917 0.00424489 -0.0530268 0.0852326 0.0814192 -0.116028 -0.104193 0.074098 0.13769 -0.202898 -0.130378 0.00485252 -0.139114 -0.0533587 0.052486 -0.232953 -0.0357769 -0.0201855 -0.0890308 0.0982783 -0.0118403 -0.260895 -0.239115 0.200944 0.0280507 -0.0116323 -0.052145 0.0275654 -0.00182303 -0.00143482 -0.0854068 0.173698 -0.00843042 -0.0836002 -0.0383757 -0.1742 0.120511 -0.0167532 -0.0818307 -0.0200948 0.00725103 -0.151139 0.178137 -0.0841589 0.176269 0.0424655 -0.0230723 -0.142648 -0.0749445 -0.14503 -0.012257 0.0585522 0.0462382 0.0566065 -0.0532496 -0.0834773 -0.0833227 0.00652243 0.141449 -0.0998534 0.0587219 -0.25393 -0.032145 -0.195983 0.066426 -0.100231 0.114373 -0.0574323 -0.0334043 0.103663 -0.146503 -0.0857541 -0.0640847 0.0496689 0.137319 -0.0659748 0.105596 -0.111986 0.0397571 0.0614214 -0.0656719 -0.0448764 0.00597137 -0.0293513 -0.00368085 -0.0512551 -0.0345165 0.0924904 0.0878801 -0.0976367 0.155756 -0.0916491 0.0711006 0.179553 -0.0200934 0.0802996 0.0154756 0.00333514 -0.0240026 -0.0516044 0.0129704 0.0889472 -0.0215673 -0.0485879 0.191129 0.0882545 -0.0420358 0.114569 -0.117844 -0.00289044 -0.0162729 -0.0548318 -0.115413 -0.12202 -0.0560587 -0.0264274 -0.0677911 -0.0325246 0.121843 0.0567146 0.112529 0.0141618 -0.0573632 -0.00529389 -0.174986 -0.122713 -0.00403161 0.0953998 -0.0612083 -0.00120445 0.0755793 0.0115251 0.117595 -0.0728423 0.00242302 -0.059204 -0.00684559 0.255012 0.0659702 0.0499155 -0.141877 -0.0119206 -0.122481 -0.118011 0.017829 -0.00542213 0.0885664 -0.341363 0.0917526 -0.100158 0.0296161 -0.0261692 0.183887 -0.188958 0.16207 0.0867318 0.110977 -0.15108 -0.0272304 0.132792 -0.061278 0.0113425 0.0941212 0.0424051 0.113287 0.0403782 -0.0722354 0.138633 0.0106211 -0.0834468 -0.148092 0.0796845 0.0911255 0.0670876 -0.0849174 0.201756 -0.0791571 -0.0469168 -0.0131305 0.0486523 -0.00478004 -0.0479978 -0.0364928 -0.0694938 -0.0221697 0.0882045 -0.142837 0.020463 -0.0403145 -0.148876 -0.0656141 -0.0567844 -0.144865 0.00828794 -0.00378859 -0.169404 0.305597 0.203243 0.176316 0.283671 -0.0162802 -0.0843133 -0.0447523 -0.289507 -0.387965 -0.038978 0.208603 -0.0174154 -0.107825 -0.141656 -0.111562 0.351553 -0.047549 -0.0964943 -0.1106 -0.0798201 0.0779547 -0.0843139 0.0701078 0.00193866 -0.00914445 -0.0554083 -0.115034 -0.0983509 0.0721978 -0.0958025 0.158013 0.1228 -0.107396 0.130164 0.0814399 -0.0368514 -0.000555996 -0.0676445 0.122627 0.0509988 -0.00850746 -0.288429 0.141746 -0.194398 -0.0388048 -0.0827666 0.126004 0.0203315 0.0714555 -0.0315995 -0.0942854 -0.366892 -0.226146 -0.221438 0.0744874 0.297622 -0.0229882 -0.38105 -0.0678249 0.187022 -0.369608 -0.0648431 -0.144753 0.0512854 -0.050821 -0.406917 0.0391866 -0.413252 -0.0917748 -0.0473158 -0.00287339 -0.156671 0.135036 -0.208755 -0.000561232 0.0357083 0.0173012 0.0371528 -0.0696099 -0.0919732 -0.124334 0.0771162 -0.1652 0.0709768 -0.00929662 0.068909 0.0328961 -0.0246712 0.168646 0.0867276 -0.0436563 0.153165 -0.020032 -0.00243139 -0.0120218 -0.210663 -0.242826 -0.453869 0.169198 -0.210044 -0.299975 0.0631202 -0.133104 0.145996 -0.228544 -0.0287472 -0.0928291 -0.139237 -0.0494572 0.0358582 -0.261798 0.191679 0.0283874 -0.148013 0.3857 -0.0509978 -0.186229 0.0304461 0.0398351 -0.0132821 0.199329 0.145286 -0.0206235 -0.0895479 0.171666 0.107181 0.105482 0.0374563 0.0404047 0.229322 0.100966 -0.0391727 -0.0396976 0.0870489 0.147742 -0.0324595 0.0842747 0.17183 0.000615378 0.12509 0.133104 0.027682 -0.0626084 -0.0478006 0.119662 0.0215939 0.138302 0.0854135 -0.0873463 0.198855 0.0678561 0.121754 -0.064348 0.12167 0.131455 -0.00306485 0.243832 0.110893 0.0586547 0.107802 0.135204 0.128054 0.0950188 0.0970743 -0.170043 0.121747 0.15218 -0.00606987 -0.0334128 0.0381054 0.0246512 -0.016858 0.0568279 -0.0745691 0.164146 0.0286241 0.195582 0.0626449 0.114102 0.113768 0.191574 0.0828203 -0.00851012 0.0812033 -0.146846 0.0979811 -0.150141 0.169233 -0.0363396 -0.137293 0.0207192 -0.0621135 -0.0218501 -0.0042373 0.137004 0.0207397 0.0701775 0.0168313 0.0542477 0.124229 0.0867162 -0.018159 0.0566458 0.239193 0.0615286 -0.0891668 0.155454 0.0501542 0.0850389 0.273771 -0.0610125 0.0264409 0.000214411 -5.99562e-05 -0.0267963 0.0367738 -0.0935951 0.250982 -0.0165204 0.12775 0.173674 -0.0133211 0.0661822 0.187 0.0764968 0.210054 0.148625 0.0511038 0.0443314 0.0809265 0.0999706 0.081032 0.139103 0.153577 0.159929 0.301023 0.248655 0.0373303 -0.00481765 0.121014 0.0584242 -0.00582248 -0.0188059 0.00292885 0.106554 0.236323 0.246975 0.0222005 0.0799227 0.00105711 0.108251 0.0526881 0.00994737 0.0781068 -0.0342269 0.0726103 0.06783 0.143296 0.118567 0.0827092 0.0187229 0.0903482 0.109547 0.0296703 -0.0258857 -0.0785503 0.079667 0.181244 0.0328 0.11043 0.0285172 -0.115381 0.149039 0.145495 0.1066 0.0996289 0.00307697 0.0884938 0.0839385 0.190099 0.130126 0.0324388 0.0408741 0.143052 0.230538 -0.0983503 0.0755627 0.153578 0.00245105 -0.0703714 -0.108127 0.0437064 -0.158917 0.00192353 -0.000174995 0.08107 0.0477013 0.118548 -0.0534457 0.0795367 -0.0119069 0.200477 0.0322199 0.0542491 0.102462 0.0106285 0.214593 0.0416108 -0.0236284 0.140304 0.175912 0.245484 -0.11952 0.144842 -0.0454535 0.000127023 -0.114185 0.0127596 -0.0505018 0.1203 0.0756238 0.143372 -0.000653153 0.0351185 -0.0981116 0.20987 -0.00373128 0.0667439 0.00738426 0.0897407 -0.0322333 0.178162 0.181486 0.14113 -0.0742861 -0.0265293 0.131948 -0.0281931 0.0170343 0.083429 -0.175669 -0.0205083 0.038672 -0.0218204 0.036076 -0.0668353 0.127553 0.0210483 0.00448068 -0.0710521 0.0322188 0.0768837 0.0897766 0.0371291 0.0577831 0.080105 -0.0440092 -0.116771 0.107189 -0.0561711 0.132431 0.12907 0.296294 0.031064 0.0925973 0.0133892 -0.029838 0.101791 -0.0632921 -0.134012 -0.0185681 0.0788495 0.0421427 0.187994 -0.0023457 -0.0356668 0.177242 -0.137619 -0.144453 0.112135 0.0224807 0.151891 0.0364561 -0.149265 -0.0838598 0.217187 -0.184077 0.0964771 0.104031 0.205523 -0.688517 -0.317709 -0.218736 0.14997 -0.181979 0.0612398 0.0684643 -0.0196861 -0.0592432 0.0594173 -0.118215 0.0971534 -0.249255 0.050377 -0.0408075 -0.0597019 -0.0627513 -0.148969 0.0701481 -0.00384271 0.0954955 -0.0912522 0.0738788 -0.262294 0.166151 0.106045 -0.213183 -0.179148 -0.251197 -0.0681197 -0.106795 0.0942711 0.118569 0.39739 0.093303 -0.190061 -0.0681981 -0.245945 0.241485 -0.190563 0.10701 0.211023 0.21719 0.0139908 -0.207946 -0.279556 -0.166955 -0.0530372 0.22659 -0.198682 0.0815794 0.0538524 -0.0267732 0.352183 0.068039 0.0318565 -0.164233 0.436077 -0.110299 -0.196604 0.0221166 -0.147542 -0.157907 0.132781 -0.0642101 -0.0705475 0.137521 -0.0981374 0.000199932 0.138983 -0.0818738 0.286688 0.271897 -0.0699315 0.156871 -0.0483306 -0.0739212 0.152411 -0.065968 -0.0468685 -0.20645 -0.213886 -0.0171649 0.0363328 0.0816504 0.0283764 -0.258175 -0.220092 -0.00802748 -0.295826 -0.190722 -0.208918 0.0518183 -0.166117 -0.235234 -0.269975 0.0108202 0.0962459 -0.243598 -0.0903818 0.0505556 -0.188698 0.365855 0.0537717 0.240835 0.0774648 -0.120577 0.0328774 -0.314934 -0.0270123 -0.150106 -0.183257 -0.188927 -0.214952 0.660128 -0.00709616 0.0698407 -0.0596557 -0.284371 0.223657 0.0452317 0.0946118 0.0452411 -0.139003 0.0838526 -0.163754 -0.0455991 0.0674715 0.0390675 0.00772075 0.146304 -0.0465681 0.100356 0.00730295 0.136549 0.0596302 0.190575 -0.0394187 -0.0574616 0.0355464 -0.0266553 0.176444 -0.060622 0.00216323 0.036339 -0.0790226 0.0598178 0.123308 -0.100741 -0.0803262 0.185301 -0.00636269 -0.0896715 0.00769993 -0.141073 0.223972 0.0703713 0.0380043 -0.121458 -0.0133409 0.0422431 0.064089 -0.219565 0.0446918 -0.0986121 0.0521776 -0.0348003 0.0494979 0.219889 -0.0529408 0.185142 -0.0261618 0.0807408 0.0744528 0.0931611 0.112623 0.0581656 0.0852095 0.153399 0.133115 -0.0978592 0.040899 0.11876 -0.0292315 0.0762279 0.176472 0.181012 0.0672471 0.123261 -0.023486 -0.0790268 0.0764245 -0.14434 0.0700257 -0.0371649 0.0951347 -0.0839333 0.0404905 0.184925 0.118007 -0.162212 0.040538 -0.121875 0.201375 -0.153272 -0.0527936 0.00412568 0.0791732 0.157036 -0.00475127 0.0371055 0.0972185 0.0992151 0.155026 0.113354 0.0666834 -0.110849 -0.0127789 0.00590449 0.10867 -0.100731 0.277641 -0.0637247 -0.0563067 0.218974 0.0502021 -0.0192292 0.100449 -0.0479017 0.140084 0.102248 0.0701647 0.249631 0.0484782 -0.132292 0.0113592 0.0742642 -0.0740353 -0.164027 0.146451 -0.0613625 -0.172475 -0.0507512 0.0779419 0.0160725 -0.108004 0.19668 0.158308 0.00757472 0.0751721 0.107192 0.0976427 0.31025 0.0549943 -0.0240868 -0.124303 0.0954721 0.0602506 0.119334 -0.0482668 0.229422 0.220032 -0.0296926 0.0826193 -0.0511251 0.0948298 0.17132 0.135125 -0.0265339 0.0382857 -0.0250074 0.188096 -0.0352526 0.041367 0.16008 0.0754997 -0.0387084 0.137579 0.0824801 -0.0382647 0.065323 -0.00151097 0.0782399 0.00722373 -0.0226276 0.172809 -0.0982326 0.0553131 0.0497207 0.0940344 0.130003 0.137569 -0.00843038 0.0602441 0.111773 0.215492 0.109709 -0.0560434 0.0229233 0.0413109 0.0027132 0.146971 0.0823373 0.206758 0.18529 -0.00575132 0.0362077 0.189574 0.00868375 -0.0688683 0.197589 0.117306 0.176805 -0.019065 0.0364533 0.309163 0.100322 -0.0745353 0.123013 -0.078414 0.052944 0.281428 0.308028 0.0997916 -0.141453 0.0778635 0.103083 0.00182728 0.0189459 0.105074 0.0506512 0.203887 0.148228 0.256089 0.103361 0.0513683 0.215741 0.092268 -0.119819 0.0322874 0.0429498 0.0986959 0.0316077 0.133694 -0.0707543 0.188867 0.279082 -0.0732832 -0.0322069 0.0661646 0.180163 0.117663 0.0734429 0.122286 0.204759 0.122457 0.0683625 -0.0235745 0.10368 -0.0146284 0.0673292 0.0080996 0.0240409 -0.217668 0.0951397 0.190336 0.118376 0.0659614 -0.0465646 0.034499 0.178797 0.0651881 -0.135236 0.116259 0.0665806 0.039739 0.329937 0.0354812 0.0463264 -0.162365 -0.0671394 0.0788289 -0.139064 -0.0721294 -0.515877 -0.41439 -0.0954291 -0.0912615 -0.113544 -0.131566 -0.108158 0.407438 -0.162019 0.148165 -0.116861 0.0355968 0.252865 0.243926 -0.0474406 -0.157758 0.0630604 -0.0763018 0.139279 -0.00759402 0.0205435 -0.174933 0.157344 -0.0904072 0.315149 0.138134 -0.171473 0.169179 0.0687919 0.196648 0.171018 -0.186705 0.0450847 0.0477741 0.00372739 -0.132539 -0.0905312 -0.0276084 -0.102417 -0.323858 -0.130767 0.127527 -0.0586823 -0.021387 0.0430784 -0.341264 0.0391084 -0.129739 0.0317112 0.154129 -0.0473918 0.142502 -0.264238 0.182967 -0.0201583 -0.400823 0.0625966 0.0792432 0.0263853 -0.28526 0.0648242 -0.200484 0.0290701 -0.0545548 -0.0321782 0.0973982 0.175616 -0.0817872 0.000329763 0.0965399 -0.122193 0.448893 -0.0515813 0.0146261 0.10704 -0.0795432 -0.257376 0.0739765 -0.120903 0.0850263 -0.112615 -0.239022 0.19265 0.222614 0.0208331 -0.106669 -0.0511912 -0.0584475 -0.0388575 -0.18745 -0.129549 -0.0096907 0.203701 0.089707 0.0273466 -0.0697312 -0.154126 0.194926 -0.0369512 -0.311691 0.283284 -0.202545 0.0972661 -0.384767 -0.258547 -0.0795202 -0.0579021 -0.39605 0.290644 0.426501 -0.085118 0.101285 -0.072294 0.0788169 0.264322 0.0795396 0.0569832 0.0810917 -0.0217803 -0.0336728 0.27989 -0.0215515 0.288626 -0.0164166 -0.0429976 -0.00275783 -0.013635 0.185574 0.15688 0.267865 0.0782773 0.0237242 0.331802 0.296386 0.0561355 0.121032 -0.0178489 -0.0926631 -0.0178955 0.0383227 -0.102788 0.263104 0.0187989 0.0852937 0.0721372 0.0899384 0.126923 0.0246032 0.164043 0.259353 0.361038 0.115249 0.140163 -0.0746814 0.120832 0.0775577 -0.0408011 0.084327 0.133468 0.194717 0.0686858 0.118828 0.120501 0.0831828 -0.19953 -0.0174256 -0.0424676 0.185697 -0.0377285 -0.0465952 0.0126083 0.0988441 -0.0107263 0.156183 0.121143 0.0373563 0.117209 -0.0572219 -0.0948493 0.0157964 -0.0181993 0.164739 -0.173207 0.0289916 0.003933 0.0925633 -0.0121796 0.0245817 0.0402482 -0.026774 -0.136871 0.138998 -0.0010902 -0.131634 0.0744405 0.143387 -0.118152 -0.145225 0.00946316 0.118048 -0.00394685 -0.0768815 -0.0836421 0.0404335 0.0602256 0.133413 0.0100416 0.02174 0.0774256 -0.0391351 0.123949 0.0271878 0.242337 0.0193266 0.224654 -0.0464792 -0.104287 -0.132966 0.282446 -0.0580694 0.0185692 0.0268059 -0.0478349 -0.0476717 -0.0976386 -0.0567498 0.162608 0.0928687 0.102059 -0.0283911 0.0848058 -0.0286918 0.0322903 0.113064 0.089251 0.159097 -0.00617617 0.128365 -2.38186e-05 -0.029285 0.0586974 -0.0895695 -0.00876415 0.0450317 0.0811175 -0.149679 0.012223 0.0931217 0.0110853 0.0486703 0.0450114 0.187314 -0.0540579 -0.0485902 0.0373254 0.12217 0.0944938 0.0448138 -0.0205574 0.072292 0.0357404 0.0939726 -0.0695169 -0.113181 0.00218956 -0.00759505 0.360871 0.0588142 0.0697938 0.0939525 0.0209416 -0.000265782 -0.0841139 -0.121742 0.101222 0.0317237 0.0170181 -0.0153108 0.117697 0.0433609 -0.0307203 0.0561014 0.220118 0.203812 0.0652742 -0.0470856 0.232642 0.10956 0.178203 -0.0582948 0.132801 -0.00929515 -0.0264967 0.0363126 -0.0101473 0.136201 0.132538 -0.0489641 0.00438415 -0.0520263 0.107653 0.0281277 -0.0612753 0.0633805 0.0791265 0.00601986 0.0588154 0.0224672 0.014416 0.0276094 -0.0701595 0.19368 0.0910318 -0.11291 0.193043 0.0138775 0.157034 -0.0725301 -0.0296367 0.230074 -0.00725037 -0.00323134 -0.0560148 0.109861 0.0382336 0.117297 0.0750371 -0.0275859 0.0100786 0.0174613 0.0105029 -0.0105517 0.0443401 0.0689978 0.13999 0.112964 0.0496547 -0.00587199 0.243787 -0.0667395 -0.0448302 0.00966502 0.0357089 0.12809 -0.119708 0.14448 0.0968762 0.0550352 -0.0134708 0.0592893 0.0224137 0.0555754 0.0415795 0.0495075 0.00324539 -0.0149545 0.00106417 -0.134367 0.157704 0.0627419 0.16193 0.240801 -0.00402074 0.119978 0.00579786 -0.0225448 0.0216964 0.0443565 -0.0887541 0.058032 0.0257406 0.18234 -0.00684012 0.0738584 0.094827 0.164633 -0.386397 -0.0763631 -0.0977206 0.070477 -0.195302 -0.250155 0.0890907 0.232017 0.265652 0.0835575 -0.531439 0.116074 -0.00441358 0.167906 -0.0813354 -0.177829 0.0238356 0.0570448 -0.199849 -0.24672 -0.186472 -0.263473 0.234748 0.204191 0.152818 0.163218 -0.0595675 -0.206142 -0.185557 0.125225 0.0878208 0.32557 0.246458 -0.0923206 -0.102392 0.0851312 -0.217474 0.0370358 0.0911867 0.0953251 -0.151588 -0.191418 -0.308118 0.437885 0.0456978 0.0201592 -0.124797 -0.550196 0.194875 -0.101407 -0.196465 0.0189031 -0.190558 -0.16576 -0.151631 -0.360862 -0.365999 -0.006089 -0.0888699 -0.0495473 0.116271 -0.0750957 -0.0445186 0.15874 -0.152524 0.105656 0.211378 0.289886 -0.128923 0.063499 -0.223172 0.0612839 -0.0912526 -0.0319991 -0.000122131 -0.147841 1.96526e-05 -0.332057 0.186809 0.0896298 0.172241 0.223555 -0.0277176 0.0599676 0.0713758 0.260951 -0.0579177 0.111301 -0.089905 -0.0869057 0.0509343 0.0864295 -0.240627 0.247885 0.114346 -0.0372859 -0.0324995 0.123732 0.294682 -0.0817842 -0.142163 0.320031 0.0276953 -0.0153388 -0.129389 -0.259122 0.0597844 0.0679045 0.0905298 -0.0305697 0.0888817 -0.0949393 -0.167983 0.143617 0.132916 -0.261799 0.193495 -0.184707 -0.0517121 -0.0480385 0.0915658 0.186489 -0.303861 0.060953 0.267083 -0.0332198 -0.235807 -0.234125 0.018952 -0.0299313 0.151024 0.0353202 -0.0344137 -0.0718687 0.0673655 0.200114 0.062765 0.0628059 0.144493 -0.0973179 0.0971588 -0.0598123 -0.03273 0.0673362 -0.0443066 -0.0470473 0.0385765 0.0695139 0.000484127 0.0659274 -0.139013 0.158644 0.0263648 -0.00706035 -0.0139293 0.214404 -0.0351453 0.0501559 -0.0661639 0.0471218 0.0805308 0.0796007 -0.0155061 0.122413 0.00559798 -0.00457904 0.122879 0.184374 0.0761129 -0.177267 0.0688056 -0.118484 0.0254629 -0.176057 0.0514397 0.0472231 -0.0212457 0.16111 -0.0957846 0.0993288 0.00108391 0.0685998 0.113185 -0.00556401 0.0743701 0.11848 -0.00546084 -0.0293394 0.102682 0.000308376 0.0523923 0.0647691 0.184271 -0.0934129 -0.0338 0.0305486 -0.0661493 -0.055892 -0.0487428 0.159676 0.0283041 0.162225 0.175625 -0.00289334 0.148497 0.217074 -0.321761 0.0281123 0.00057986 -0.143556 0.165266 -0.164508 0.122402 0.0375978 0.146367 0.0780069 0.0028971 -0.0587079 0.0351657 0.17759 -0.189878 0.0831612 0.00884102 0.0909968 0.0217925 0.00364162 0.0596959 0.155545 -0.0598061 -0.0809158 -0.138581 0.0750547 -0.0748512 0.187302 0.0506754 0.0330404 -0.0344009 -0.0845859 -0.166594 -0.011926 -0.177797 0.0197878 0.0146692 0.0592212 0.0143503 0.176246 -0.0809834 -0.124933 0.0671202 -0.0684883 0.116266 0.190842 -0.0326917 0.0852384 0.0225892 0.126589 0.0999533 0.0990722 0.10359 0.196535 0.0241277 0.00144014 0.304704 0.123644 0.233393 0.0285796 0.173481 -0.0319934 -0.0519442 0.183133 0.0869428 -0.0487738 0.191405 0.0698067 0.153751 0.251348 0.235686 -0.0935592 0.068735 0.0194023 0.0822738 0.0288556 0.0540486 0.165535 0.0814585 0.200497 -0.0373282 0.0324761 -0.0802452 0.0496745 0.158643 0.117705 0.303716 0.0424387 0.073639 0.180097 0.174995 0.0610634 0.0308475 -0.0592184 -0.00643642 0.0761264 0.0626505 0.0580376 0.118334 0.0180984 0.0809828 -0.0275701 0.264314 0.274364 0.0722537 0.0447165 0.103103 -0.00487177 0.174853 -0.04828 0.0789421 -0.00292196 0.332843 -0.053543 0.0956969 0.109887 0.108123 -0.035555 0.0306564 0.16589 -0.0683813 0.175067 -0.018908 0.23091 0.0161276 0.00570686 0.0969595 0.0363167 0.00232094 0.106118 -0.00387167 0.0736494 -0.0627022 -0.0449283 0.0457376 0.155028 0.0165289 -0.00998549 0.109667 0.234808 0.102315 0.0860455 -0.0429046 0.0486341 0.271319 0.132402 0.0504571 -0.129475 0.140928 0.0415846 -0.125297 -0.0290179 0.124101 0.0697411 -0.0990115 0.0337246 0.125515 0.151026 0.175212 -0.096363 -0.0460633 0.0710452 0.105161 0.109861 -0.00541346 0.213267 0.204652 0.14327 0.0821124 0.0701055 0.181993 0.103437 -0.0584464 0.0409058 0.0973012 0.0271719 0.0253099 0.172598 0.00598431 0.0246888 0.1163 -0.0411489 0.228488 -0.0206818 -0.401948 0.196474 0.161075 -0.0539655 0.455073 -0.15645 0.235332 0.0807631 0.13857 -0.184021 -0.133488 0.0619876 0.136495 -0.0221548 -0.0206135 -0.173055 -0.0417568 -0.11608 0.013267 -0.236465 -0.183942 0.18705 -0.151878 0.0419946 0.209922 -0.0454052 -0.196472 0.163768 0.160873 0.0315674 -0.134652 0.0191033 -0.199621 -0.192416 0.0457847 -0.0672286 -0.0203313 -0.0477812 0.0297148 -0.027464 0.0121412 -0.0595339 -0.163182 -0.138904 -0.163705 0.100948 0.237572 0.0133602 -0.0515852 -0.0187086 -0.148039 0.168642 -0.068478 0.0626934 0.0188852 -0.271843 0.104827 0.0401709 0.0475379 -0.0955099 -0.0349738 0.139298 0.200543 0.144763 -0.0173595 0.0464574 0.073671 0.0997788 0.0789953 0.148686 0.000162892 0.175285 0.165393 0.100467 0.122784 -0.0641629 0.184931 -0.267461 0.291846 -0.371445 0.14635 0.156449 0.0375796 -0.121431 0.166791 0.107124 -0.11401 0.0200045 -0.0725364 -0.467297 -0.22761 -0.135232 0.139631 0.31389 0.126723 0.0317017 -0.198214 0.0702487 0.0838667 0.0688869 0.166491 0.0468733 0.0447712 0.00875258 -0.23128 0.146904 -0.00523192 -0.187286 -0.0368919 -0.00531601 -0.340495 -0.0889828 -0.0932264 0.0801835 -0.149515 -0.16061 0.00123479 -0.0202858 -0.445797 0.171953 0.0389748 -0.239005 -0.0170273 0.0300245 0.084041 0.301538 0.0932478 0.0956999 -0.0163665 0.190186 -0.00261498 -0.123972 0.0208927 0.202723 -0.0972683 8.39062e-05 0.0492735 0.0214077 0.173316 0.397318 0.0830723 0.0060185 0.243429 0.184612 -0.105079 0.000623263 0.0882674 -0.120988 0.00159407 -0.0308185 0.0114308 0.037432 -0.128523 -0.110949 -0.0964341 -0.0970301 -0.154069 0.0784137 0.0794986 -0.0972009 0.0775605 -0.0515419 0.179432 -0.0112271 -0.117494 -0.015563 -0.0117975 0.0458639 -0.0296217 0.124385 -0.00835691 0.0164326 -0.0188694 -0.0198264 0.0678393 0.126636 0.0245069 0.0104403 -0.0439723 -0.0312843 0.0205289 -0.0646099 -0.13988 -0.10439 0.213797 0.269207 0.117805 -0.00550808 -0.127362 0.163578 0.111847 0.0982103 0.151605 0.143109 0.0639564 -0.0547234 0.0700687 -0.109898 0.0870261 0.0751956 0.0312531 0.0862287 -0.0608411 0.1432 0.011071 -0.0780799 -0.0810653 0.104461 -0.132464 -0.1191 0.0970487 0.0034076 -0.0822051 0.0146508 -0.102101 0.252326 0.173905 0.178305 -0.0908321 -0.0978922 0.104294 -0.0662075 -0.0386943 0.0807967 -0.075944 0.0253268 0.107422 0.0424163 0.119124 -0.0683621 0.0608338 -0.042505 0.0417599 -0.173231 0.0826275 -0.146125 -0.0461322 -0.00125615 0.0162872 0.0750225 -0.128997 0.0794703 0.16893 0.182556 0.230776 0.330916 0.0695956 0.0239209 0.128731 -0.0237576 -0.0046894 0.0943443 -0.0249898 0.297505 0.145948 0.186632 0.00371412 -0.0731425 0.0124734 -0.0324599 0.00224306 0.0642771 -0.111067 0.111156 0.0223186 0.0634881 0.0224053 -0.0736484 0.0514206 -0.108209 -0.0367504 -0.00689435 -0.073871 0.157625 -0.0720979 0.189106 0.043996 0.0751694 0.12104 -0.0152092 -0.0118594 0.0828913 -0.0213252 0.0643802 0.11607 0.174746 0.0175481 0.130305 -0.0509202 0.0216064 0.105759 0.0308091 0.0199153 0.144548 0.0913618 0.0735581 0.027147 -0.291053 0.139079 -0.0181 -0.182485 0.0112076 0.0306663 0.0667347 0.144686 0.0493234 -0.0861394 0.137762 0.143992 0.170488 0.156708 0.0537505 0.0549868 0.035176 0.00943839 0.136965 -0.0120279 0.08385 0.00710363 -0.0237103 -0.057971 0.0674615 0.0480209 0.101088 0.142734 0.222366 0.000782584 0.0829676 -0.00116152 0.206566 0.0552961 0.0483968 0.0874794 -0.0789063 0.0929137 -0.0493514 0.0359805 0.00800692 0.197469 -0.064139 0.129729 0.30674 0.0446407 -0.0455892 0.0721192 -0.0127124 0.0623396 0.0569036 0.0964802 0.0437229 0.251559 -0.0993054 -0.115599 0.0140769 0.0707543 0.128552 0.151743 -0.145461 -0.0435228 -0.0535052 0.1922 -0.0506771 0.0296272 -0.0135015 -0.0329574 0.0639113 0.0577425 0.0890912 -0.0338622 0.0229309 0.116797 0.150464 0.0268028 -0.049265 -0.122156 0.0668432 -0.0573291 0.0240645 -0.0918117 -0.115656 0.373001 -0.013712 0.00860113 0.278008 -0.146245 0.251203 -0.229826 -0.17392 -0.403003 0.040471 -0.179407 0.222874 -0.0884333 0.101281 0.0339569 0.00105402 -0.200631 -0.230363 0.0146028 0.146306 0.153478 0.00437867 -0.0755781 -0.13217 0.129444 0.0708422 0.0488209 -0.270904 -0.242821 -0.337125 0.249874 0.169219 0.164595 0.254242 -0.139751 -0.218908 0.14063 0.0430618 0.00534021 0.274784 0.190004 0.230545 0.164225 -0.0556673 0.0259052 -0.317508 0.0870164 -0.0145167 0.104551 0.240984 -0.0883343 -0.101241 0.00744284 -0.273006 -0.00451286 -0.134045 -0.106911 -0.32418 0.000855184 0.294379 -0.131273 0.293463 -0.220717 -0.0589335 0.0438222 -0.142341 -0.118859 0.0748924 -0.125993 -0.0983706 -0.0309732 -0.0254858 0.370185 0.0353344 0.000535941 0.201603 0.0352701 -0.185836 -0.231409 0.183264 -0.173197 -0.0780212 -0.27673 0.125418 0.0950082 0.14365 -0.154831 0.192024 0.241673 0.211854 -0.0706468 0.140381 0.0160598 -0.155882 -0.134592 -0.0557246 0.396086 0.301158 0.0408574 -0.0750499 0.0609403 0.089838 -0.105073 0.141575 0.0750602 0.000807581 -0.0594808 -0.101374 -0.0220095 -0.0413593 0.198919 -0.0278053 0.0777592 -0.0183389 -0.0386528 -0.0482024 -0.219465 -0.227933 0.132292 0.171811 -0.546858 0.0673557 -0.346645 0.195074 -0.043316 0.261847 0.0997684 -0.0112693 0.00512615 -0.00847795 -0.0443113 0.0662634 0.0300266 -0.0222723 -0.0741177 -0.0170708 -0.107273 -0.0527172 -0.130238 -0.0954388 0.0731299 -0.0216371 -0.0504682 0.150464 -0.0807879 -0.0730567 0.143447 0.0618567 0.000637784 -0.107076 0.0634229 -0.0654733 -0.0408616 0.154119 -0.0139804 -0.089126 0.0185252 -0.0470414 -0.142564 -0.110925 -0.102332 0.0296542 -0.096074 0.00888085 -0.191218 -0.178169 -0.0901374 0.112141 0.144799 -0.153747 0.136764 -0.0368871 0.109088 0.0471258 -0.0732092 0.049956 -0.10839 -0.114867 0.00813274 0.0126285 -0.106076 -0.0692637 0.0294052 0.0383594 -0.26758 -0.211668 0.0298178 -0.231917 0.183808 -0.0722237 -0.140597 0.0580599 -0.205256 -0.0316823 -0.00992148 0.00944341 -0.0640014 -0.0400428 -0.0497754 0.0204434 -0.0386079 -0.0390095 -0.0321283 -0.0540131 -0.0490719 -0.00356597 0.078973 -0.109345 0.0780545 -0.0198971 -0.112544 -0.184267 0.0373399 0.0126906 -0.0262046 -0.0642443 -0.047494 -0.00919157 -0.0594114 -0.00175927 0.0985529 0.22423 -0.0967697 0.0705619 -0.018743 -0.00133482 -0.0124547 -0.201949 -0.0579575 -0.025132 -0.275042 0.0360593 -0.102803 -0.0757914 0.0170092 -0.16432 0.0295964 -0.180673 0.0741139 -0.174367 0.0816056 -0.256698 -0.14439 -0.0323406 -0.0684572 -0.132525 -0.0336946 0.049739 0.0621437 -0.030837 -0.022413 -0.236762 -0.041788 -0.00359 -0.0115326 0.0282463 0.0285494 -0.0172502 -0.174234 -0.00808707 -0.135331 0.001071 -0.0689729 0.0752498 -0.0490558 -0.0481366 -0.0437841 -0.149664 0.0651898 -0.0184402 -0.168778 0.195305 0.0536152 -0.0664145 -0.0634743 -0.0586942 -0.134678 -0.0786748 -0.0938577 0.00606891 0.112904 -0.0106444 0.0510931 0.238995 -0.19637 -0.11039 -0.0722166 -0.00467502 -0.0734174 0.0672208 -0.131506 -0.0888533 0.0736046 0.0573437 0.0933071 -0.0730752 -0.0545687 -0.0423147 -0.12461 -0.0345567 -0.0131575 -0.00223784 -0.0786449 -0.04627 0.137281 0.0297505 -0.056333 -0.0853679 -0.141682 0.0429098 -0.257161 -0.139951 -0.111334 -0.0303373 0.0606735 0.00391722 -0.230132 0.0927466 -0.0361121 -0.0494491 -0.186325 -0.0277235 -0.0805045 0.0680164 0.0419517 0.120851 -0.0651449 0.0818048 -0.163045 -0.0498638 -0.217103 -0.19801 -0.111926 -0.264329 0.00977699 0.00066259 0.0179763 -0.0234766 0.0872341 -0.0371377 -0.117502 -0.0494302 -0.0631676 0.0620314 -0.0521051 -0.144694 -0.162452 0.125642 -0.0610252 0.074929 0.0123497 -0.0663817 -0.00642267 -0.010164 0.00980639 -0.116481 -0.256414 -0.0588248 0.0327263 0.075963 -0.0308644 -0.167579 -0.00411978 -0.0161924 -0.135146 -0.11974 -0.049763 -0.016528 -0.0153672 -0.210164 -0.00385398 -0.000360366 -0.0226993 -0.120045 -0.0221427 0.131044 0.0816634 -0.00146074 -0.180411 -0.106062 -0.113199 0.0696335 -0.0158248 -0.090926 -0.105003 0.0508987 -0.0175055 0.469834 -0.0516675 -0.100047 -0.100042 0.0773558 0.27957 -0.182251 -0.149244 -0.253881 -0.0569662 0.273957 0.179315 -0.105852 -0.00714308 -0.0489576 -0.0458388 0.195715 0.0919704 0.0731913 -0.183732 0.0248511 0.12746 0.1485 0.214319 0.103553 0.163127 0.149187 -0.0362467 -0.212054 0.135452 0.137517 0.0810668 0.0304612 -0.243455 -0.096977 0.0830128 0.0936911 -0.0948435 0.211807 0.140536 -0.052859 -0.0321589 0.33847 -0.125154 -0.144183 -0.084577 0.0604233 -0.00217172 -0.343745 0.27789 0.048652 0.273402 -0.00851167 -0.140332 0.151938 -0.16275 0.0179437 -0.253826 -0.258071 0.209885 0.00136959 -0.100019 0.0405021 0.2634 -0.00409247 0.200465 -0.15412 -0.0355371 -0.230217 0.0567946 -0.131029 0.000236352 0.00682457 0.277986 -0.204439 0.273775 0.0127947 -0.1161 0.111811 0.154184 -0.17895 -0.0495213 -0.170403 0.171021 0.0804709 -0.0963814 0.212611 0.126452 0.304891 -0.352164 -0.135106 0.111175 -0.150232 -0.168866 -0.0696311 0.052568 0.167187 0.0247945 -0.0608033 -0.202244 -0.0648991 -0.286943 -0.173673 0.282215 -0.0630969 0.153492 0.0210843 0.104041 0.0164949 0.0657531 -0.0376325 -0.167736 0.190347 -0.0981285 -0.0564564 -0.0477581 -0.212405 -0.078837 0.0121238 -0.139766 0.0621665 0.126035 0.118168 -0.0486402 0.0152008 0.0809197 0.0586351 0.220747 -0.0172446 -0.0967771 -0.020471 0.0808994 -0.0217819 -0.022038 0.0663349 0.0572115 -0.0123509 -0.050601 0.0426005 0.00857074 -0.0618682 0.0807049 0.157237 0.0833466 0.0586446 0.0941765 0.0233765 0.0477152 0.0201338 0.027099 -0.041988 -0.0372629 -0.0506393 0.0299346 -0.0138066 0.0197198 -0.0356409 0.0529888 0.0908824 -0.186059 -0.0678881 -0.0196831 0.0161701 0.137447 0.0374799 -0.101564 -0.0991888 0.27817 -0.0454044 -0.0241008 0.0207021 0.0572909 0.143062 0.010159 0.155657 -0.0154834 0.0730751 0.0774572 0.139066 0.0576908 0.031674 0.131775 -0.0208706 0.0356041 0.0169905 -0.029513 0.0859456 0.0217841 -0.070022 -0.0586449 0.15416 0.0577755 0.0118958 0.0970892 -0.0391058 0.0376677 0.0512028 -0.0392415 0.092298 -0.634188 0.0101578 -0.0266696 0.170147 0.0209547 0.125467 0.0894189 0.102902 -0.00738864 0.1429 0.0269797 0.0112518 0.0933552 0.0136493 -0.113986 0.0107958 0.0432825 0.0366899 -0.069228 0.0361138 0.201774 -0.00250259 0.0120931 -0.0284992 -0.013522 0.0633372 -0.0868924 0.0906722 0.00715329 0.0763574 -0.00547114 -0.0920673 0.0214167 1.18014e-05 0.0313023 0.00473777 0.0548255 -0.0172839 0.0455548 -0.0583481 -0.0909781 0.060568 0.202382 0.00683156 0.0382956 0.0129598 -0.0315854 0.0135194 0.032416 0.0329709 0.0814357 0.0047512 0.0195334 -0.0293636 -0.0244895 -0.11643 -0.0123452 0.0890078 -0.0750138 0.0147464 0.062552 -0.0109531 -0.0149552 -0.162492 0.0471533 -0.0675423 -0.0296833 0.0391561 0.0581377 -0.02965 -0.00471059 0.0811841 0.0306018 -0.0872196 0.0142908 -0.00846681 0.00123872 0.0668599 0.0412117 0.0249751 -0.00445404 0.0715444 0.0189665 -0.158589 -0.0256572 0.102068 0.00575995 0.013581 0.104786 0.0732634 -0.0516461 0.0755952 -0.0138314 -0.051327 0.0878409 0.0434264 -0.00342812 0.0414763 0.11379 -0.0171121 0.0697818 -0.0207055 0.0667754 0.00358464 0.130359 0.0497603 0.0572441 0.0148335 0.0740468 -0.051428 0.0645256 0.0682638 -0.0318961 -0.205084 0.0554679 0.110434 -0.0330178 0.11925 0.009432 -0.0664683 0.078769 0.107763 0.00552262 0.0479409 0.0491106 0.0916876 0.0517431 -0.0146556 0.387593 0.107683 0.0353251 0.0931623 -0.03415 0.0974512 0.0359159 0.0800011 0.0623001 0.0721076 -0.0330223 0.0299929 -0.0598576 0.104692 0.0220345 0.117214 -0.00894548 -0.0332185 0.0558193 -0.0610343 0.0144183 0.0211836 -0.0639825 -0.06742 -0.0501645 0.0515234 0.112931 -0.0635569 -0.0450022 0.024961 -0.00304847 0.137128 -0.0348669 -0.0818593 0.0231288 0.00111816 0.0465351 0.0886923 -0.00924401 -0.0568607 0.0556667 0.105352 0.108192 0.139567 0.112025 -0.156927 0.123442 -0.000558351 0.0654445 0.00999212 -0.0354314 0.0516027 -0.0181091 0.0380396 -0.194334 -0.264856 0.0857935 -0.0158719 -0.0659063 -0.0182595 -0.22088 -0.0952729 0.294193 0.156286 -0.14881 0.174067 0.0803576 0.0493515 -0.595728 -0.102222 0.0403408 0.167922 0.230282 0.0672247 -0.0859616 0.0247686 -0.0719746 0.0584989 -0.182997 -0.115897 0.137635 -0.0325439 0.0633566 -0.00572918 -0.0375006 -0.100524 -0.020341 0.0923073 -0.23563 -0.0810122 -0.274664 -0.0258001 0.0782949 0.00194117 0.141523 -0.0281803 0.0256105 -0.0801615 -0.0198008 -0.0923458 -0.020995 0.0206122 -0.0640947 -0.217358 -0.115193 0.0624152 0.126397 0.104221 -0.00986966 0.0456838 -0.0501861 -0.00726544 -0.338973 -0.0471545 0.0966761 -0.286579 0.0901211 -0.278911 0.0122698 -0.179914 0.0645598 -0.149171 0.110652 -0.0780177 0.0188676 0.0149076 -0.0763074 0.0835091 0.000439637 -0.0502811 -0.128148 0.205386 -0.0563462 -0.047202 -0.109257 0.0786845 -0.127105 -0.0708569 0.318454 -0.0132464 0.1084 -0.136765 -0.136192 0.04199 -0.0483593 0.0389688 0.123566 -0.154921 -0.110263 0.0297351 -0.0789374 0.265251 0.0489781 0.109573 0.0466506 0.201531 -0.226005 0.0943837 0.181537 0.139609 -0.298325 -0.224707 0.095549 0.22606 0.0108626 0.11044 0.289248 -0.018107 -0.107635 -0.0209376 0.00455869 0.177365 0.0736475 0.0186013 -0.250326 -0.078843 -0.0809412 0.146754 -0.100992 -0.0786847 -0.0187833 0.145463 0.124735 -0.238321 0.0708746 0.150418 -0.0603624 0.0160054 -0.00126371 0.134901 -0.00695355 -0.00528459 0.241982 0.142258 0.164088 0.111377 0.0507331 -0.0401794 -0.0756472 0.189645 -0.0955418 0.0215183 0.118271 0.0972325 0.120349 0.0186293 0.125548 -0.0299677 -0.0547296 -0.03022 -0.0525333 -0.00678308 0.0971743 -0.175986 0.101305 0.0549381 -0.00690541 -0.0259228 -0.22112 -0.00470854 0.0853762 -0.0553223 0.0701534 0.0208442 0.164082 -0.0138131 0.0255766 -0.196348 -0.0221645 0.108358 0.0600611 -0.030908 0.0132784 0.123556 0.149088 0.206126 -0.0238875 -0.279888 0.0831456 0.0982383 0.0473206 0.133304 -0.0781546 0.00929823 -0.0609905 0.186726 -0.147043 0.216435 -0.0114159 0.0765958 -0.222987 0.044 0.0668749 -0.279227 0.037855 0.153713 -0.0848808 -0.0927162 0.114721 -0.155627 0.00622593 -0.00955466 0.00138283 0.0641237 0.04321 -0.0467249 0.0520858 -0.0704939 -0.0801315 0.315816 0.0169281 -0.109678 -0.0706288 0.187708 -0.171623 0.244482 0.163451 0.00983781 -0.0642519 -0.0109058 0.0572459 0.125818 0.121545 0.123357 0.0176085 -0.0789899 -0.0920668 0.0189848 0.0834877 -0.0063474 -0.018706 0.0917743 0.0119588 0.00636412 0.0810815 0.0834973 -0.00277181 0.117835 0.284108 0.0437416 -0.05898 0.0180999 -0.0263986 0.00714875 0.198596 -0.0248145 0.0338176 0.031061 -0.0182346 -0.110085 -0.0658289 -0.191835 -0.00322929 -0.0415304 0.0646176 -0.124583 0.11135 -0.174644 -0.00312334 -0.191173 -0.0571681 0.0748875 -0.105997 0.0141429 0.0813395 0.212566 0.18409 -0.202163 -0.184944 0.20105 -0.0277705 0.148702 -0.0928914 0.0333083 0.00457818 -0.0170025 0.0538574 0.0571536 -0.0620653 0.16477 0.0265575 0.172379 0.183664 -0.0239503 -0.018917 -0.168769 -0.173817 0.131953 0.0794929 0.126233 -0.0697636 -0.0317973 -0.0549328 0.0221031 -0.0382832 -0.0388939 -0.106589 0.0392135 -0.155188 -0.00652568 0.015998 -0.018684 0.0540384 -0.0405232 0.159932 0.0674654 0.0335961 0.065171 -0.0527144 0.0204872 0.0713151 0.0886377 0.0787458 -0.0891188 0.161485 0.05281 -0.058708 -0.0405074 0.0711502 -0.0189358 -0.00957062 -0.242473 -0.0554872 -0.0152153 0.0611033 -0.104703 0.0527331 0.0142464 -0.076885 -0.0981755 0.029158 0.101003 -0.0549058 -0.0866801 -0.0218843 0.0231649 0.0208667 0.0914423 0.0198941 -0.0118373 -0.0774714 0.005252 -0.0751074 -0.112345 -0.00836937 0.150711 -0.0250203 -0.0120297 0.00178749 0.0331525 0.0263534 0.109895 0.0908778 -0.056533 -0.121301 0.0426598 -0.0919418 -0.0150725 0.048806 0.0773473 -0.0309574 0.0115894 0.0285913 0.00737529 -0.013578 0.133101 0.0755206 0.0218728 0.0873374 -0.120192 -0.150682 -0.086562 0.035702 -0.0233122 -0.171877 -0.0977721 0.0448056 0.0975585 -0.0906696 -0.0559473 -0.0831961 -0.00923227 -0.0177593 0.209355 -0.151068 -0.018912 -0.256796 0.218988 0.279671 -0.139225 0.135867 -0.0831875 -0.106326 0.134111 -0.107808 0.0705606 -0.126328 -0.0576872 -0.127691 0.105271 0.0287136 -0.00710014 -0.0660077 -0.0398592 0.319024 0.0614978 0.219498 0.203205 0.0479184 0.0332258 -0.0299283 0.000230938 -0.0290605 -0.0437144 -0.305156 -0.0175019 0.131591 0.152267 0.00420002 -0.29789 -0.0921621 -0.0779515 -0.248951 -0.0576336 0.145227 0.0720028 -0.0319082 0.162101 -0.239305 -0.0183171 0.00755946 -0.234968 -0.110586 -0.0575138 0.218362 -0.23088 0.0858099 0.109551 -0.237785 0.069656 0.0217968 -0.0620697 -0.109924 -0.33959 0.160503 -0.16326 -0.302952 0.0966116 -0.0454596 -0.0101908 0.106568 0.0593514 -0.000110865 -0.127641 0.050524 0.0722175 0.154757 0.00579192 -0.0815941 -0.0615648 0.100202 0.210806 -0.173273 0.0413733 0.0244626 -0.112268 0.163291 0.0326455 0.0533107 -0.137163 -0.241521 -0.115905 0.00461859 -0.346701 -0.0274838 -0.124101 0.200995 -0.0257745 -0.361975 -0.0850714 -0.120636 -0.0809871 -0.0600011 -0.169878 -0.0356803 0.0552368 0.157766 -0.0203088 -0.00574412 0.119869 -0.130979 -0.081343 0.0914698 0.197149 0.164247 -0.00415684 -0.0554229 0.0302391 -0.102081 0.191594 -0.252132 -0.0100293 0.0776248 -0.12451 0.0287869 -0.181029 -0.00899978 -0.0136344 -0.0200027 -0.029396 0.0361472 -0.0924857 0.102861 0.178719 -0.0496294 0.0628118 -0.0553658 -0.0140265 0.0942822 0.0723108 0.0403375 -0.064573 0.0677475 -0.0335011 -0.0640857 0.0337337 0.106357 0.0149558 0.13685 0.0373114 0.089241 0.0215473 -0.111695 -0.161332 0.015515 0.139024 -0.220479 0.0801362 -0.0805743 -0.23129 0.047352 -0.163076 0.198758 -0.0238504 0.0759842 0.0657506 0.0963168 -0.0474176 0.0547489 0.0252616 0.0871506 -0.00594296 -0.0236013 0.031259 0.145846 -0.037047 0.138352 -0.104283 0.00578055 0.0897148 0.0063975 0.0683242 0.135807 0.226495 0.136109 0.282218 -0.0261148 0.0997098 0.0423652 -0.0646854 0.0359056 0.0510699 0.1146 -0.0994758 0.0906203 0.1334 0.0840754 -0.0954112 0.0384511 -0.0983273 -0.116536 0.162006 0.0897395 -0.0725776 0.0843945 -0.148455 -0.108036 -0.191975 -0.115296 -0.140137 0.062436 -0.0763149 0.0874271 -0.00629046 -0.0689736 0.0243492 0.10576 -0.0709643 -0.0271704 -0.0585939 0.0220088 -0.0946762 -0.0159867 0.0596036 -0.00076774 0.103808 0.0415226 -0.0564835 -0.0384742 0.212383 0.225531 0.00760481 -0.0537981 0.0764539 -0.063657 0.106162 0.0917526 0.157027 -0.0222644 0.170905 -0.0624662 0.151465 -0.0985323 0.0107515 -0.0388739 0.111908 0.091059 -0.293537 -0.0508833 0.122442 0.10333 -0.0634637 0.0308394 0.186366 0.068408 0.176461 -0.111481 -0.0303149 0.103031 0.0516456 0.191766 0.0414583 0.06372 0.00907508 0.0422061 0.0139182 -0.051497 -0.0499463 0.022416 -0.0276866 0.0482088 0.0804742 0.0561143 0.0954868 0.0872852 -0.105245 0.13313 0.112862 0.04092 0.00160346 0.037632 0.0369792 0.0213878 0.0879225 0.055295 0.066276 0.193348 0.152579 0.0377263 0.0515793 0.218041 0.0743024 0.0553086 0.0876218 0.052222 0.101815 -0.135657 0.129874 0.0469832 -0.0648009 -0.0617872 0.0224973 0.0711878 -0.0718321 0.0242188 0.11127 0.0434006 -0.0346104 0.031308 0.130906 0.0708466 0.153832 0.0193948 0.0390202 -0.0758602 0.0496322 0.0245181 0.213699 -0.0500112 0.127238 0.203969 0.12557 0.0124076 0.00248636 0.0333542 0.125956 0.0475253 0.129614 0.0536626 0.215195 0.0810616 0.00656545 -0.0445087 -0.0151463 0.0895071 -0.0524262 -0.203035 0.0564233 -0.0259301 -0.00285135 0.073006 -0.127348 0.196367 0.104853 0.0503276 0.0450267 0.151283 0.133903 -0.0260507 0.0671719 0.122875 0.0967374 0.0752884 -0.0316984 -0.0197457 -0.121955 0.0434098 0.246363 -0.000379398 0.0580199 0.14753 0.164017 0.131626 -0.132502 0.0962201 0.1209 -0.0238965 0.0182171 0.18355 0.0447999 -0.133594 0.00906974 0.118304 0.0396858 0.184884 0.330014 0.0680605 -0.0255611 0.017524 0.09568 0.0656123 -0.186963 0.0999794 -0.160964 -0.0827654 0.0849878 0.0279692 -0.0249591 -0.0253089 -0.193224 0.0305488 0.190472 0.121938 -0.0855346 0.0641805 -0.0838417 -0.0454565 -0.0125959 -0.056988 0.212427 0.14348 0.322059 0.149725 -0.315841 0.349151 0.0487448 -0.0857437 0.0240588 -0.103971 -0.0652122 -0.0351311 0.111671 0.08655 0.163727 0.153661 -0.14867 -0.181412 -0.0795217 -0.0385015 -0.109816 0.229859 -0.0761659 0.110277 -0.0915342 -0.0883069 -0.151782 0.158799 -0.216538 0.105348 0.0443051 0.253976 -0.131872 0.0261298 -0.142372 0.066317 -0.0930972 0.0436271 -0.0948694 -0.227952 0.0833282 -0.0721191 0.0918584 -0.199372 -0.0163639 0.0511871 0.0873147 -0.00856856 -0.245889 -0.130777 -0.206047 0.0657369 -0.067478 -0.25232 0.249207 -0.102553 0.106908 -0.000677823 0.165026 0.178709 -0.000715752 0.132165 0.0533649 0.231297 0.0558628 0.0851927 0.049057 0.107687 0.299907 -0.0103498 0.219514 0.142177 0.142024 -0.210526 0.202175 0.119708 0.0124653 -0.116331 0.0187039 -0.172241 -0.0591851 0.0080287 -0.0955784 0.053916 0.0249421 0.0316845 -0.00168447 0.299334 -0.0663162 -0.124573 -0.0961265 0.0636614 0.131679 -0.249426 0.180753 0.0304549 -0.0878869 -0.0456741 -0.00368571 -0.186383 0.103838 -3.68746e-05 0.0735654 0.124137 0.164259 0.0449047 0.0094914 0.0029066 0.0793707 0.186495 0.0553715 0.0345256 0.0378625 0.0665557 -0.250973 -0.0369582 0.19288 0.182649 -0.0241759 0.104858 -0.145064 0.196588 0.117011 -0.0980548 0.0752756 -0.0363914 -0.234909 -0.0700066 -0.0948553 -0.141929 -0.0981349 -0.021431 0.073267 0.0813899 -0.0963071 -0.0238069 -0.0704387 0.0362309 0.0524391 0.108234 0.168039 -0.0510488 -0.126731 0.148191 -0.0263803 0.0888389 -0.0503252 -0.164209 0.150125 -0.105082 0.103074 -0.0744084 -0.0222269 -0.130786 -0.0452382 -0.267975 -0.000286052 -0.0380349 0.00465681 0.0777419 0.0910575 0.0285212 -0.0474569 0.0896962 0.351254 0.238667 0.12158 -0.150773 0.0283454 0.0744112 0.050557 0.134096 -0.0506864 0.129155 0.223332 0.0715935 0.172218 0.00910821 0.0746215 0.183146 0.0493036 -0.0712185 0.205979 0.144446 -0.0967823 0.356372 0.199896 -0.032775 -0.229852 0.0521425 -0.0272689 0.131586 0.108728 -0.00953626 0.231707 0.191788 0.141245 0.0837059 0.0418362 0.188081 0.0437973 0.17788 -0.0519479 0.0153893 -0.0215189 0.0593603 -0.0638782 -0.0406461 0.0208004 -0.0517826 -0.0856131 0.140436 -0.0404494 0.11394 0.110547 -0.0525746 0.0433524 0.0609413 0.15534 0.111937 -0.0855164 0.0225143 0.29539 -0.0181476 0.0580422 0.0295621 0.122242 0.141125 0.191047 -0.0436849 -0.0691713 -0.0316795 -0.00522001 0.22321 0.193101 0.072226 0.178064 0.0961875 0.111872 -0.12208 -0.0247892 -0.0439877 0.0708131 0.102309 0.178964 0.145719 0.163183 0.0850941 0.0297824 0.0263766 0.0443001 0.0158054 0.0198389 -0.0160771 0.237082 -0.0285863 -0.0252085 0.0913226 0.102468 0.0310688 -0.102661 -0.0635873 0.144585 -0.0538283 0.0816092 0.0226368 0.00416458 0.22325 0.199766 -0.017396 0.0536073 0.0919263 -0.163627 -0.0237215 -0.100283 -0.109776 0.00905541 -0.0278867 0.122193 0.0396643 0.0483327 0.0744383 0.0501798 -0.00903255 0.299336 -0.030699 -0.0279872 0.196881 0.0704027 0.0747112 -0.0406875 0.0742467 -0.042 -0.0178987 0.0283311 0.0417882 0.172566 -0.218001 -0.00986954 -0.00210273 -0.136612 0.0172455 0.199253 0.140777 -0.121166 -0.0740766 0.289331 -0.0254191 -0.0609088 -0.0154124 0.0692974 0.176654 0.126682 0.197078 0.0712318 0.144829 0.0690742 0.105814 0.0969786 -0.232982 0.0143093 0.12324 0.0057995 0.0446685 -0.00362601 0.124875 0.144257 0.0263876 -0.0992438 0.112433 0.0195606 -0.0840267 0.0390454 0.0512604 0.0173669 -0.0415525 0.0839983 -0.0450217 -0.0670603 0.137444 -0.0906669 0.00326909 0.0212253 0.101387 -0.0207105 -0.0989217 -0.096831 -0.0561536 -0.0109344 0.0852339 0.0920035 0.0254524 0.0195474 0.0966944 -0.120746 0.214965 -0.00324678 -0.0295711 -0.0736843 0.0691919 -0.0575466 -0.0185634 0.088035 -0.163008 0.0231505 0.101626 0.58947 -0.0132175 -0.12291 -0.160696 -0.199343 0.118774 0.116449 0.00293478 0.0755171 0.210499 -0.0806954 0.114752 0.197142 -0.0442389 -0.0394333 0.162506 -0.268903 0.122471 -0.17097 0.0690878 -0.0214631 -0.074369 0.0628008 0.0244507 0.192079 -0.0919193 -0.0233811 0.0294278 0.0493959 0.0501726 0.215564 -0.143654 -0.194894 0.0849069 -0.309711 -0.0485353 -0.0228318 -0.077359 -0.0662081 -0.0807254 -0.271724 -0.0285553 0.0268569 0.0269714 -0.0387322 -0.0579307 0.0987893 -0.0246179 0.0473269 -0.142769 -0.160192 0.0377723 0.339284 -0.077358 0.220712 -0.0722055 -0.00745055 0.0769784 0.165244 0.0652735 -0.143099 0.502632 -0.00740399 -0.0904896 0.0801951 0.167425 0.370452 0.117004 0.165604 -0.320469 -0.0323434 0.0946452 0.0371185 -0.277287 0.166689 -1.32236e-05 0.299244 0.00780469 0.0185342 0.254972 -0.119735 0.10619 -0.294303 0.192521 -0.351008 0.103174 0.0898693 0.0447931 0.180369 -0.295952 0.101596 -0.0525088 -0.318157 0.0422222 0.13031 0.138361 0.251253 -0.0289166 0.116052 -0.356874 0.14657 0.23287 -0.120506 0.22694 -0.177535 0.084093 0.335591 -0.0570061 0.0472436 0.0637565 0.29132 0.107304 0.027323 -0.0277325 0.148736 -0.145708 -0.0547024 0.151841 -0.0446192 -0.0127173 -0.0578808 -0.343727 0.0743974 0.0663876 0.0679194 -0.0603525 -0.0534264 0.188996 -0.321499 0.00585476 -0.0292889 -0.197546 0.135832 -0.151498 0.228264 0.0641942 0.256359 0.143757 0.0597568 0.206346 0.0126156 0.0326784 -0.0437109 0.0490811 -0.028733 -0.103042 -0.0323188 -0.00111322 -0.0368766 -0.0197377 0.256096 -0.142925 0.150188 0.0453289 0.170449 0.0343445 0.145744 0.0861703 0.191026 -0.0186747 -0.12344 0.0311128 0.0699004 0.0228584 -0.0418749 0.0103574 0.0822931 0.147064 0.181636 0.0530025 0.113712 -0.0715864 0.169606 -0.169162 -0.106025 -0.0729163 0.232181 0.105986 0.0270382 0.173286 0.165278 0.0497713 0.16719 0.0691275 0.0577135 0.24052 0.11903 -0.0169859 0.115298 0.0959894 0.0300894 0.033657 0.126671 0.0383444 0.121479 -0.0370812 0.195257 0.229633 0.00470088 0.0437304 0.101298 0.0622663 0.15689 0.053097 0.175669 -0.16975 0.0761641 0.151098 0.138296 0.136525 -0.122098 0.0620137 -0.133426 0.0119762 0.0791209 0.141571 0.133373 -0.0341162 -0.0258069 0.280554 -0.126011 0.306982 0.0237218 0.0111703 0.129812 0.0559291 0.128487 0.131673 0.0826693 0.0876247 -0.0675836 0.0991263 0.154203 0.209367 0.169255 0.163482 0.0898906 0.107345 -0.0725358 0.139325 0.257227 0.0184513 0.135323 0.0922621 0.00773895 0.117659 0.0644013 0.142298 -0.0526489 0.093172 0.0690497 0.27875 0.10708 0.0100016 0.0115993 -0.0570225 0.0840542 -0.109862 -0.0399069 0.0527583 -0.158399 0.142867 0.0569185 0.135489 0.222686 0.107287 -0.00392076 0.015779 0.214187 0.0351958 0.0611822 -0.00127421 0.0114979 0.0545595 -0.0360096 0.141053 0.0854328 -0.00145953 -0.0941014 -0.0587248 0.0194664 -0.0540759 0.159228 0.0807477 -0.0260916 0.0300755 0.0750725 0.159517 0.138707 0.0677544 0.156419 0.168421 0.0967111 -0.184475 0.111253 -0.0959306 0.239408 0.121071 0.196466 -0.00455122 -0.00858949 0.128325 0.0437666 0.079286 -0.00731396 0.122162 0.0141767 0.0315319 -0.0464129 0.151374 -0.0837829 0.174172 0.0193188 -0.0264735 0.117357 -0.0448917 0.0267837 -0.10029 0.0542822 0.0988609 0.0172451 -0.00722795 -0.0254312 0.0868061 0.182686 0.0610803 0.118524 0.0210758 -0.0440052 -0.0980833 -0.12624 0.0617364 0.170748 0.0533219 0.216223 0.0584006 -0.051796 0.194636 -0.0434967 0.104533 -0.09947 -0.00065547 0.111062 0.108401 0.00126032 0.13366 -0.0369808 0.149187 0.0523331 0.15651 -0.0315297 -0.0592892 -0.0492742 0.109974 0.142805 0.0651477 0.00786026 0.0306777 -0.101388 -0.106069 0.0676051 0.0836717 0.149734 -0.0331844 0.0246099 0.211744 -0.0646099 -0.0108386 0.077138 -0.00663711 -0.0416267 0.211195 0.1462 0.0848066 0.223068 0.120036 -0.0240039 0.120457 -0.0286887 -0.102197 0.165348 0.0173827 0.126506 0.00127384 -0.10676 -0.0779665 -0.544725 -0.066302 0.408887 -0.02501 0.1082 -0.473136 -0.0813372 -0.42817 -0.041028 0.0377389 0.402098 -0.123419 0.280827 -0.247817 0.074498 -0.447804 0.179383 -0.0315095 0.107179 0.0716107 -0.383815 -0.0374117 -0.219145 0.167746 0.0469504 -0.111859 -0.0244425 0.0737911 -0.15089 0.348921 0.159753 -0.0925116 -0.254682 -0.134773 -0.181212 -0.409728 -0.025893 0.00148089 0.412022 -0.125823 -0.159501 0.154368 -0.0623622 -0.0848675 -0.0849144 -0.207925 0.127996 0.175433 -0.0111579 0.0688352 -0.101557 0.136072 -0.195757 0.18459 -0.0833015 -0.0219085 0.0217942 0.286097 0.324438 -0.358709 -0.0978999 -0.154211 0.122048 -0.133717 -0.500428 0.0411085 -0.299277 -0.274547 -0.0334535 -0.038565 0.399671 0.442534 0.00265386 8.80557e-06 0.145303 -0.0129469 0.216313 -0.0174318 0.0343617 0.0607602 -0.0432166 -0.312029 0.356681 0.142713 0.243321 -0.197587 0.0467257 -0.0144684 0.0837632 -0.10424 0.0581183 -0.0116991 -0.032723 0.113079 0.0674998 0.0724 0.0837881 0.0107848 -0.267361 -0.0370976 0.0305959 -0.04686 0.0312226 -0.0612824 -0.203651 0.0581159 -0.0519185 0.291267 0.0222462 -0.116703 0.220509 0.0831173 -0.292706 0.248045 -0.223139 -0.0358561 0.0135447 0.209369 0.0261217 0.190398 0.220972 0.145772 0.087939 -0.0490159 0.0226319 -0.0383352 -0.111689 -0.154744 0.030302 -0.0491521 -0.21459 -0.185378 0.00837962 0.150071 -0.034044 -0.128085 -0.0659233 -0.0885631 -0.112754 -0.0116603 -0.133355 -0.0688885 -0.112237 -0.204334 0.0524088 -0.196834 0.10759 -0.0102131 -0.142754 0.0569019 0.11897 -0.0559776 -0.117888 -0.157598 0.112061 0.0295228 0.100584 0.0973433 0.0426739 -0.104964 -0.0533172 -0.0480408 -0.172264 0.0747336 0.227028 -0.167624 -0.0151584 0.175953 -0.0308088 -0.0830617 -0.0264489 -0.100217 -0.05516 0.0522358 -0.0133285 0.00946347 -0.0446847 -0.0453805 0.126965 -0.268931 -0.136895 0.158827 -0.015917 -0.259628 0.144917 0.0196635 0.0214365 -0.164085 0.0343763 0.00207314 0.0793255 -0.0250262 -0.175821 -0.114785 -0.149456 0.0730805 -0.127093 0.0201237 -0.0532857 -0.1637 0.106825 -0.0718296 0.155487 -0.0575247 -0.0591216 -0.0910084 0.0167332 -0.22803 -0.233641 0.0366671 -0.0894621 -0.0389862 -0.0442699 -0.10255 0.00747964 0.020232 0.0499419 0.114252 0.052858 -0.0038235 -0.218172 0.0720957 -0.135244 -0.0325356 0.100632 0.117617 -0.227723 -0.1564 -0.308267 -0.0428585 -0.151926 0.111971 0.182319 -0.114684 -0.0205449 -0.165185 0.114522 -0.0522729 -0.0356913 -0.0597251 -0.0906143 -0.0966886 -0.146072 -0.0665587 0.113621 0.12932 -0.0701039 -0.0234069 0.0240117 0.157977 -0.112181 -0.312637 0.224262 -0.144253 -0.0591011 -0.202745 0.0589416 -0.297443 -0.0314252 0.104501 -0.053287 -0.233469 -0.133766 0.0486721 -0.0180438 -0.116042 -0.122915 -0.0165233 -0.0684262 -0.0169439 -0.0328862 0.0186955 0.0716249 -0.0115184 -0.0236611 -0.00948419 -0.116012 0.00854383 -0.169703 -0.105501 -0.0026496 -0.066025 -0.0579782 -0.0378178 0.025736 -0.0085737 -0.0777389 -0.318311 -0.248801 0.0906806 -0.0257733 0.0344245 0.0676078 -0.232075 -0.125007 0.0575075 0.0525475 -0.0301649 -0.118864 -0.215677 -0.147718 -0.0415201 0.0351722 0.175159 -0.0551963 -0.0440547 -0.0119464 0.00301081 -0.0300033 0.0208356 -0.127207 -0.0404519 -0.104587 0.00175079 0.0255017 -0.203622 -0.0303737 -0.0793557 -0.03814 0.0745781 -0.147275 -0.0736755 0.0349502 0.0881862 0.116179 0.0178642 0.00203504 -0.0851908 0.0407032 -0.190259 -0.0263567 -0.156163 -0.125671 -0.0160147 -0.204607 -0.0631979 -0.0704123 -0.011774 -0.133865 -0.0739681 0.0520872 -0.0906795 0.0427585 -0.00301653 0.0304432 -0.108065 -0.0744705 0.0399789 -0.208505 -0.0971456 -0.097119 0.0163237 0.0162418 -0.132708 -0.30934 0.0667997 -0.123025 -0.110682 0.200755 0.0639852 -0.196481 0.0508607 -0.0219805 -0.106299 0.0912864 -0.0085664 -0.0964567 0.0395442 -0.0917291 -0.156964 -0.122318 -0.059918 -0.0498895 -0.079116 0.0308213 -0.0418041 0.0799823 0.051892 -0.334615 0.0700729 -0.0464917 0.308044 -0.0239494 0.273474 -0.114516 0.168287 0.0526832 0.0566599 -0.120337 -0.115304 -0.0133035 -0.0261279 0.0888004 0.0390321 0.123455 -0.0619608 0.111818 -0.124403 -0.133773 -0.165454 -0.271936 0.322051 -0.261959 -0.0345799 -0.167369 0.031383 0.00424616 0.161023 0.17759 -0.0985997 -0.0656789 -0.0727012 0.00493445 -0.237206 -0.0542792 0.31852 -0.0229386 0.0974364 -0.0165505 -0.295703 -0.0257725 0.168543 0.146878 0.025106 0.0762504 0.0933047 0.0479146 -0.0487686 -0.343657 -0.00437748 -0.0621195 0.0679564 0.0797447 -0.0322333 -0.265605 -0.0391291 0.02335 0.173985 0.353372 -0.0968441 0.135754 -0.22366 0.132264 -0.172096 -0.0989701 0.270819 0.108521 -0.223006 -0.35141 -0.186621 -0.27243 0.114404 -0.147726 -0.0967219 0.21048 0.103094 -0.235266 -0.00122511 0.058899 -0.417381 0.0244137 0.180252 -0.010421 -0.191306 -0.0635774 -0.298395 0.277703 0.161253 0.00179034 -0.0371408 0.117007 -0.136925 -0.145477 0.190915 -0.135758 -0.14913 0.168589 -0.157361 -0.0532254 -0.0798091 0.163231 0.0391228 0.181112 -0.199104 -0.0547999 -0.187979 0.187372 -0.443655 -0.200023 0.0580487 -0.0228271 -0.0472617 -0.0318407 -0.138758 -0.0577594 0.0502021 -0.343455 0.410445 0.123947 -0.318716 0.0400573 0.167323 0.257562 0.174589 0.0482503 0.0802637 -0.158792 0.349353 0.0374924 -0.137163 0.0885163 -0.128075 -0.0151342 -0.0291304 0.0416426 -0.00877818 -0.00859036 0.106768 0.0577572 0.0838641 0.144058 -0.0731769 -0.0691617 -0.104261 -0.0993266 -0.0707762 0.0695743 -0.178953 -0.155184 0.122725 0.22685 -0.109854 -0.195474 0.0483594 0.128021 -0.160722 0.0230612 0.039232 -0.011954 -0.118039 -0.0644502 -0.0813985 0.118911 -0.0221108 -0.261877 0.0731202 0.12085 -0.0796567 -0.0865989 -0.0780944 -0.00844183 -0.160609 -0.0585838 0.0634957 -0.00698754 0.0468427 -0.164656 -0.0633672 0.150431 -0.15803 0.104155 -0.1308 0.0197913 0.0722968 0.00356541 -0.0337108 -0.0172229 -0.0698152 -0.172757 -0.0418448 -0.0615252 0.0629076 0.0480956 -0.0392371 -0.0822805 -0.054607 -0.0426421 0.14009 0.173346 0.19275 -0.0128719 0.00620216 0.131731 -0.043273 0.125052 -0.0662285 0.0228209 -0.0758535 -0.00715958 0.0192815 -0.212631 -0.159206 0.00236898 -0.11204 -0.00499797 -0.0861174 0.017762 -0.0447369 -0.0140035 -0.160778 -0.00857581 0.0414879 0.00746346 -0.135114 0.196663 0.00771825 -0.00184726 0.0850639 -0.171531 -0.024078 -0.019404 -0.135079 0.109265 -0.0473564 -0.054651 -0.210454 0.0410307 -0.0481994 0.0164086 -0.0890418 0.0227154 0.00246348 -0.0867226 -0.0360861 -0.196879 -0.0897767 -0.102663 0.153713 -0.0101314 -0.00172771 -0.207021 -0.0109373 -0.18975 -0.161413 0.0019372 -0.0460314 0.0406109 -0.0702126 0.0433981 -0.11687 -0.0898926 0.0794583 0.0654316 -0.146734 0.034709 -0.147814 0.00538231 -0.168059 -0.104834 -0.0737819 -0.048346 -0.022036 0.0955461 -0.0113701 -0.0567426 0.0391756 -0.0116161 -0.0398478 -0.0465388 -0.0802874 -0.0315242 -0.0598204 -0.0415035 -0.0658347 -0.0192299 -0.0815869 -0.0331692 0.193355 -0.143528 0.0817315 -0.0769619 -0.246041 0.0249359 -0.00224241 -0.0765186 -0.210994 -0.171564 0.0167943 -0.00370156 -0.123543 -0.00919967 -0.011098 -0.105357 -0.175278 -0.135692 -0.0887347 -0.0199688 -0.168927 0.018504 -0.0671903 -0.017061 0.0423211 -0.186348 -0.149527 -0.0405034 -0.122257 -0.0378283 -0.196886 -0.012433 -0.00868968 0.00608944 -0.0229318 -0.0989694 0.0275452 0.158718 -0.0498347 -0.0493486 0.0530372 0.0277343 -0.00425011 0.0561911 -0.0628793 0.068814 0.083722 -0.080483 0.0662874 -0.115298 0.0158961 -0.0347666 -0.237111 -0.0877687 -0.021113 -0.108905 0.0664709 0.107083 -0.14661 -0.0363595 -0.0709702 -0.0706592 -0.0441831 -0.0729635 -0.0720084 -0.089471 0.0477808 -0.236214 0.0287958 -0.0752837 -0.0914848 -0.20619 0.0146929 0.0439836 -0.192617 -0.228809 -0.0221109 -0.0931641 -0.0661889 -0.143679 0.123113 -0.101725 -0.0714882 -0.00689668 -0.0629578 -0.0777968 -0.111163 -0.185599 -0.0148503 -0.0327079 0.0297961 -0.138307 -0.0326111 -0.153192 -0.087327 -0.211577 -0.0503864 -0.0857908 -0.261759 -0.233831 -0.30081 0.207021 -0.0601542 -0.198484 -0.0238969 0.30208 0.121823 -0.0394979 0.0554226 0.197824 0.0329904 0.293019 0.0437249 0.222383 0.0812838 0.0942966 0.0996361 -0.0968941 -0.15336 0.106544 -0.167068 0.0359089 -0.11283 -0.212266 -0.0694805 -0.241725 -0.144275 -0.027573 0.133314 -0.11759 0.0674788 0.0648789 -0.0156307 -0.0128003 0.119826 0.0204242 -0.00940867 0.0303297 0.0431832 0.110614 0.0364039 0.260261 -0.0298734 0.0950509 -0.128727 -0.146454 -0.0538588 0.0268916 0.0578548 0.0251986 -0.133233 -0.0972532 -0.0469837 0.0758207 -0.130545 0.1298 0.0366125 -0.0841382 -0.106555 0.11278 0.334974 0.279307 0.0815854 0.0859379 0.222336 0.0938812 -0.0316136 0.195868 -0.0545322 0.0302905 0.0300755 0.0255602 -0.063136 0.262275 3.85311e-05 -0.386016 0.129224 0.0120847 -0.210895 -0.134977 0.00689334 -0.0134321 -0.0779053 -0.0400587 0.176848 -0.238838 0.0210023 -0.058629 -0.118997 -0.253468 -0.149291 -0.36252 0.125536 0.294538 -0.0101277 -0.216041 0.0143255 0.0529637 -0.08242 -0.0956139 0.237753 0.334019 0.0683242 0.311113 0.0265095 -0.160128 -0.204699 -0.0761479 0.395875 -0.526456 1.25923 -0.294517 -0.0753923 0.113857 -0.113671 -0.154211 -0.0661057 0.182185 0.24691 0.0347408 0.0872745 0.11583 0.14122 -0.14946 0.0595717 0.0815321 0.000951462 -0.128899 0.100357 -0.191579 -0.309045 -0.0287246 -0.259501 0.0810727 -0.00912143 -0.0519229 -0.00807153 -0.124291 0.195252 0.0118204 0.0978158 0.00693368 0.0978413 -0.0317214 0.123246 0.103806 -0.128692 0.0387651 -0.00802626 -0.0355457 -0.083188 -0.0642516 -0.102465 0.0484418 -0.0737078 0.0350689 -0.0148803 -0.0555255 -0.014426 -0.0319505 0.12275 0.0206195 0.017811 -0.00663376 0.106875 0.144838 -0.00985462 -0.0277491 0.207898 -0.23934 0.101517 -0.0540426 0.162379 -0.0833722 -0.11811 0.042472 0.0544451 0.0656128 0.0180624 -0.0944756 0.0194268 0.0351496 -0.0709974 -0.0539147 -0.0867036 -0.0111177 0.0554704 0.0879748 0.146292 -0.0571137 -0.0908666 -0.0514181 -0.166795 0.0520075 -0.057755 0.0606249 -0.180932 -0.0958583 0.0341523 0.04602 0.0813702 0.0315988 0.0124501 -0.174882 -0.284137 0.0618341 0.0542374 0.0470574 -0.0665303 -0.240985 -0.14954 0.00127996 0.113106 0.0431867 -0.162458 0.158387 -0.0177285 -0.201004 0.0225813 0.0400959 0.0122069 0.0286306 0.0714299 -0.0389158 -0.00202245 -0.0648079 0.022955 0.0125907 0.0817239 -0.0208642 -0.0034649 0.0655743 -0.178273 0.0715655 0.0630429 -0.17694 -0.0401753 -0.0881094 0.0170568 -0.0515127 0.137626 -0.0441768 0.0630956 0.0992236 0.0710921 -0.240183 0.0508943 -0.0170009 -0.00670775 0.00596554 -0.0711293 -0.256194 0.00651509 -0.280726 0.00395735 -0.0346667 -0.040777 -0.0895959 -0.0807073 -0.137527 0.0229536 0.0590659 -0.218541 0.1028 -0.0593721 -0.0153861 0.00742291 0.0567026 0.0111509 -0.0514988 -0.0195024 -0.0837962 0.0254755 0.0731132 0.0628773 -0.121014 -0.135511 -0.00225761 0.101672 -0.10725 0.00422512 0.0176417 -0.145967 -0.1264 -0.257958 0.0493677 -0.0962879 0.00614917 0.104713 -0.0596866 -0.211387 -0.210998 0.0537925 0.0340403 0.111009 0.00778945 0.134533 -0.152462 -0.0537549 -0.0744434 -0.00876157 -0.0472486 -0.11482 0.0922777 0.0899328 0.0197998 0.000848717 -0.0302898 -0.0480498 0.0579049 0.113515 -0.054197 -0.109698 -0.0903313 -0.27714 -0.0293347 -0.0191855 -0.0115627 -0.155962 -0.104818 -0.0865946 -0.157817 -0.175827 0.01198 -0.0455687 0.109776 -0.0403225 -0.00928952 -0.110828 -0.0522681 -0.150492 -0.0573982 -0.106616 -0.190662 -0.102377 -0.0302489 -0.0544557 0.0181403 -0.00892209 0.0212199 -0.0622237 -0.0117182 -0.0445811 0.14648 -0.0957604 -0.179295 -0.033238 -0.0502846 -0.0287844 -0.00842915 0.046356 0.156348 -0.0394301 -0.0547829 -0.146406 0.0959335 0.0474483 -0.0553334 0.0851114 -0.0208361 -0.0670474 -0.0488057 -0.101267 0.0129337 -0.15145 0.0464205 0.0785418 -0.0715656 0.0267457 -0.0747436 -0.023946 -0.060395 -0.0634854 -0.0916282 0.0955198 0.0417153 -0.0531456 -0.119432 0.00171066 -0.0127819 -0.0296639 -0.121558 0.0877269 -0.110705 0.125746 0.229205 -0.143284 0.181202 -0.25322 0.00219889 0.235434 -0.127413 0.0970414 0.155063 0.048826 0.525262 -0.0076598 0.000405296 -0.00945252 0.0569332 -0.0915054 -0.115928 -0.166606 -0.420927 0.0812783 0.321072 -0.07977 0.0687291 -0.205587 0.296597 0.0529053 -0.0356958 -0.0858702 -0.00822487 0.0364727 -0.098889 -0.207192 0.212511 0.0234688 0.29737 0.15682 -0.102616 0.105999 -0.223816 -0.280395 0.374424 0.161654 0.121482 0.0478985 -0.00823137 -0.0908805 -0.0199874 -0.384946 0.0214182 -0.343607 0.100001 0.357073 -0.386256 -0.0276777 -0.272188 0.0746699 -0.0909777 0.0665568 -0.202171 -0.222238 0.267829 -0.239492 0.197659 0.0921694 -0.116464 0.0353921 2.85392e-05 0.140123 -0.108811 0.115327 -0.134431 0.354049 0.0316682 0.000393942 -0.192085 0.00225436 -0.000987969 -0.127067 0.151868 -0.269137 0.0382444 0.0916053 -0.195768 0.0751107 -0.133283 0.0071237 0.0483004 -0.111392 -0.110639 -0.0881576 -0.166288 0.0786604 -0.117325 0.0834891 -0.340381 0.0522839 -0.126634 -0.0964872 0.0197854 -0.20543 -0.0945081 0.0816159 -0.00546966 -0.177589 0.187446 -0.0220636 0.171452 0.457447 -0.12065 -0.0110782 0.179491 -0.0599657 0.0168146 -0.08049 -0.0889893 0.0674681 -0.308938 -0.0552069 -0.111526 -0.170933 0.0728511 -0.210125 -0.019662 -0.500866 -0.001818 -0.0400557 0.0968579 -0.0174373 -0.0239436 -0.0254965 0.00151475 -0.030854 0.0337667 -0.110188 0.0803285 -0.069387 -0.04147 0.0848247 0.049547 -0.16128 -0.0929997 0.0283331 -0.0991291 0.0664693 0.0587992 -0.0328506 0.00106451 -0.247945 -0.14464 0.0656509 -0.0862364 0.0199963 -0.133178 -0.0775327 0.0636084 0.0298439 -0.238919 -0.0087401 0.0589375 -0.0619139 0.0170658 -0.0841713 -0.100699 -0.00725904 0.00465623 -0.00031752 0.0159065 -0.147591 -0.0656807 -0.161096 0.0297356 -0.137706 -0.132567 0.0444925 -0.0658171 0.0179236 0.0443914 0.0302733 0.152837 0.0310519 -0.0116353 -0.105268 0.105626 -0.0856269 0.0597385 0.120259 0.0234573 -0.188556 -0.00236812 -0.0494665 0.0373782 -0.103716 -0.0325149 -0.00857042 0.0203361 0.00512535 0.0178464 -0.0263283 -0.0178076 -0.0299205 0.0281443 -0.200596 -0.0407809 0.0605905 0.0142313 0.12865 -0.0525421 -0.0118093 -0.190638 -0.0177258 -0.11839 0.046083 -0.0416704 -0.039021 -0.0363364 -0.0810427 -0.0321675 0.000177313 -0.0340581 0.0308134 0.0579038 -0.234357 0.014121 0.0470467 -0.00155516 -0.224194 0.132252 -0.0753338 -0.0151899 -0.078022 -0.0684868 -0.079379 -0.0467635 -0.00030034 0.00284438 -0.0187069 0.0871583 0.0437592 -0.0874416 -0.263883 0.0912899 -0.0497779 0.0741051 -0.321793 0.022062 0.104017 -0.0338304 -0.0210355 0.108223 -0.0814392 -0.0805133 0.0222556 -0.0571194 0.0871904 0.0143211 0.0172346 0.0455815 0.0240143 0.0157234 -0.0705024 -0.0440206 0.0506778 -0.0586628 0.0681296 -0.0347547 -0.0329156 0.021989 0.00165542 0.0917174 -0.0111445 0.055921 -0.0429379 0.0608429 0.0351761 0.0821164 -0.021764 -0.0213931 0.0651801 -0.0538398 0.00519632 -0.0644582 -0.0088004 0.117742 -0.0136354 -0.0585706 0.0549157 0.00648206 -0.0165447 0.111153 -0.0346332 -0.0526043 -0.0652711 -0.0810852 0.00119597 0.0596553 0.035245 -0.0295302 0.0985245 0.0668917 -0.00123343 -0.0150138 -0.123738 0.00680475 -0.0266454 -0.00541132 -0.0098444 -0.00503735 0.0933894 -0.0171746 -0.00790907 -0.0416193 -0.0816355 -0.0184664 0.00562205 0.0548055 0.0533553 0.0321924 0.0570195 0.0761155 0.0485382 -0.0118788 0.0268377 0.117656 -0.104749 0.0166012 0.0772795 0.013566 0.0575236 0.0567796 0.0348147 0.0587415 0.036881 0.0936905 0.148339 0.0128726 0.0129783 -0.181144 -0.102673 -0.00864514 0.0681729 -0.0536931 0.0270171 -0.0599021 -0.0176614 0.0194269 -0.0138209 -0.00843397 0.0454943 0.0255965 0.0201244 0.0857768 -0.0373315 -0.0407893 -0.102058 0.015864 -0.0322644 0.0270819 0.0160455 0.00381743 0.106709 0.124523 -0.00541086 0.0561021 0.124108 -0.168318 -0.138207 0.071962 0.00286979 0.1796 -0.0384047 0.0394341 -0.0382372 0.0128875 0.0320984 -0.0749948 0.0127774 -0.0239503 0.113734 0.108025 0.0430239 -0.132384 -0.0112608 -0.140167 -0.0376611 -0.0426888 -0.0749358 0.0760366 -0.217969 -0.0981537 0.137421 -0.126646 0.0284815 -0.0176302 0.114607 0.0810467 -0.0564313 -0.110559 -0.0215063 -0.117737 -0.197781 -0.0517943 -0.247066 -0.0569501 0.235361 -0.0281773 0.0439619 0.086507 -0.166905 -0.0460404 -0.0897897 -0.105945 0.138266 -0.079952 -0.0402569 -0.0862723 0.0343708 -0.108902 -0.0757819 -0.0614486 -0.156292 0.120024 0.0517611 -0.0084263 0.276051 0.0617436 0.0625531 -0.00875986 0.0340559 -0.118325 -0.202575 -0.126497 0.0872877 -0.0271401 -0.0752259 -0.106997 0.110879 -0.0118865 -0.146003 -0.146621 -0.120073 0.0526626 0.0155612 0.0353753 0.055194 0.0701596 0.239441 -0.134486 -0.177896 -0.201756 -0.111566 0.077017 0.0882718 -0.209484 0.0408771 -0.0537937 -0.0450922 0.065563 0.000151793 0.00642457 0.0723991 0.0253855 -0.0536191 0.0847038 -0.0342074 0.103219 0.162644 -0.156262 0.127764 0.0488915 0.0393648 0.0477002 -0.125329 0.141635 -0.117646 0.0150177 0.0754043 -0.0750389 -0.264081 -0.00693244 -0.151661 0.186142 -0.0586889 0.115147 0.0623664 0.0447569 0.0679621 0.110509 0.0577068 -0.125027 -0.127315 -0.0719388 -0.033303 0.00689202 0.0358651 0.00663123 0.0980436 -0.0498543 0.114213 -0.162068 -0.0831463 -0.0799057 -0.0644515 0.0992336 -0.143246 0.00988586 0.058134 0.0142265 -0.192407 0.0856389 0.0214926 -0.0501187 0.0107736 -0.162905 0.0930306 0.118016 0.111211 -0.000998088 0.236864 0.0372244 -0.0376907 0.082441 0.27145 -0.00807193 -0.0360867 0.217598 0.0968591 -0.0803015 -0.161406 0.0315828 0.181636 0.0746584 -0.122251 0.062103 0.0664044 0.0932782 0.00407257 0.236024 0.106696 0.120904 -0.0852672 0.051233 0.0677946 0.164574 0.106775 -0.092027 -0.182994 0.103205 0.0432494 0.0792126 0.240892 0.0584756 0.0739073 0.182944 -0.108824 0.105549 0.353867 0.146083 0.122149 -0.135264 0.150311 -0.0434475 0.0613389 -0.12848 -0.10421 0.416199 0.176597 0.110124 0.0695291 0.0550962 -0.00987989 0.107361 0.149489 -0.0442308 0.0897719 0.0664261 0.287642 0.102102 -0.120396 0.0574177 0.0530094 0.234077 -0.0414101 0.0942498 0.161293 0.0321981 0.0723801 0.0867267 0.0587011 0.241674 0.0254123 0.0380489 0.0759154 0.107047 0.0272036 0.0110303 0.0552226 -0.121622 0.172502 -0.0511812 0.0387216 0.354097 0.160907 0.15271 0.228523 0.0947344 -0.00597417 0.239193 0.274295 -0.0449419 -0.118688 0.0978619 0.179408 0.0289875 0.0554693 0.0156938 -0.00326262 -0.0957027 0.0264081 0.141055 -0.034454 -0.0650957 -0.091289 0.113548 -0.0147039 0.129722 -0.0367453 0.0817188 -0.00353882 0.0221662 0.0821657 -0.0482062 0.110537 0.0176261 0.216446 -0.0957975 -0.0350202 -0.00694898 -0.0328518 0.0553515 0.0989838 0.199757 0.0794935 -0.102874 0.149083 0.128462 0.0232075 0.205576 0.202344 0.0753015 -0.00386139 0.153313 -0.111147 0.111704 0.0442675 -0.0217013 0.240679 0.0677752 0.0405355 0.184441 0.0561045 0.0591226 -0.0263802 0.153426 0.129456 0.0868965 0.247181 0.154634 -0.107232 -0.0602589 -0.0435841 0.0282574 0.131851 0.125368 0.0901742 0.170831 -0.167386 0.168038 0.134476 0.270028 0.0141768 0.0360199 0.032053 -0.00746358 0.0817113 0.0904876 0.122256 -0.00644242 0.140664 0.0569488 0.0209835 0.0337049 0.0778564 0.122836 0.00156984 0.145355 0.109636 0.0945817 0.146427 -0.105901 0.0484918 0.107117 0.0766088 0.306375 0.0809005 -0.0307102 -0.12932 0.0663457 0.12139 0.0735467 0.0136391 0.278816 -0.0551785 0.285173 0.0768794 0.0901619 0.0888581 0.129592 -0.19887 -0.0146277 0.252728 0.110307 0.206235 -0.0321088 0.0760019 0.208192 0.0909446 0.0445583 0.105711 0.0330972 0.271247 0.0599844 0.15285 0.163669 -0.0236729 0.0116344 0.14801 0.0572635 0.0162773 0.142315 0.0409771 0.0546286 0.0391026 0.173516 0.0563911 0.206868 0.0444122 0.083419 0.167161 0.0275477 0.188773 0.129695 0.0304729 -0.177869 0.0886112 0.269358 0.0652947 0.175871 0.0157776 -0.0877141 0.000271008 -0.163747 -0.0597179 0.177682 0.108844 -0.114174 -0.0433135 -0.180857 -0.0605553 0.170888 -0.082664 -0.0987359 -0.041497 0.131094 -0.0186449 -0.208603 -0.12141 0.365291 -0.252905 -0.0896775 0.0611353 -0.0366457 0.0417023 0.259225 0.127481 -0.0561965 -0.314196 -0.239361 -0.166822 -0.276369 -0.0562609 -0.2953 0.0256008 0.136866 0.0255937 -0.212948 -0.215624 -0.235038 0.551925 0.145762 -0.0713871 0.00260237 -0.0465771 -0.00723388 -0.08728 -0.0634385 -0.13055 0.157463 0.122709 -0.052508 -0.000756504 -0.126739 0.141571 -0.264009 0.0674386 -0.138605 0.274798 -0.148647 0.116355 -0.191669 -0.301285 -0.391758 0.163104 -0.145307 0.210961 -0.0607025 0.0314698 0.112959 -0.174758 0.188719 -0.132905 0.151378 -0.0472504 -0.338044 0.133888 -0.36568 -0.306454 -0.0540742 -0.029703 -0.25545 0.472259 -0.157725 -1.45105e-05 -0.0593126 -0.101943 -0.0163128 -0.00806684 -0.0546686 -0.0175578 0.0354146 -0.108913 0.137543 0.000764053 0.0505151 -0.0802437 -0.112166 0.390373 -0.0852549 -0.0331032 0.050307 0.279031 -0.0546414 0.040957 -0.0850685 -0.0731461 -0.250287 -0.0420437 -0.391015 -0.267132 -0.0524487 0.0257541 -0.151559 -0.0317091 -0.225455 0.0960919 -0.229941 0.0509542 -0.136056 0.0922794 0.191978 0.117695 -0.105322 0.112349 -0.0913952 -0.0454889 -0.0492169 0.072182 0.273069 0.242252 0.0392338 -0.284902 0.00278236 -0.0122691 0.109952 -0.0409374 0.015181 0.112015 0.058525 0.0063435 0.127586 0.0208531 -0.24131 -0.0967061 0.290277 0.0580048 -0.148558 0.102184 -0.0334053 -0.15843 -0.0384585 -0.124469 0.107545 0.0296265 0.130591 -9.56032e-06 0.00241131 -0.125775 0.0738726 -0.0525753 0.0336667 0.104727 0.177727 -0.20062 0.259233 -0.2707 0.199552 0.143008 0.140429 0.00830386 0.150366 0.0421509 0.194326 0.142199 0.00859799 0.111254 -0.103034 -0.0260416 0.134017 -0.0125979 0.0185323 -0.0445296 0.236875 0.00133803 0.0389599 0.0465184 0.0296747 -0.0320549 0.16442 -0.135234 -0.0880305 0.223705 0.183043 -0.00242736 -0.0603068 0.155993 -0.103051 -0.17809 0.141582 -0.0872827 0.104368 -0.094084 -0.160627 -0.046862 0.0523374 0.0468794 0.0520468 -0.0522736 0.0700562 -0.114727 -0.108756 0.0323501 0.0320417 0.0647409 -0.0491525 -0.0403241 0.118148 0.304149 0.0743961 -0.0207438 -0.0825719 0.0748677 -0.0241353 -0.0906096 -0.00166462 -0.0572911 0.125774 0.0537324 -0.230635 -0.0593093 -0.0160495 0.0520227 0.0163853 0.00608097 0.0580174 0.0130708 0.0117395 -0.0376967 -0.0577417 0.150216 0.29649 0.115761 -0.0433592 -0.0608107 0.122337 -0.0181597 0.175949 -0.141131 0.0365704 -0.0135129 0.1081 -0.124796 0.0605038 -0.0460223 0.13446 0.0182024 -0.0806832 -0.115557 0.0419515 -0.160119 -0.183174 -0.0134587 0.0391378 0.0148987 -0.275642 0.132482 0.108067 0.0325292 0.0271953 0.0793356 0.0994951 0.0386185 -0.132632 0.17753 0.155106 -0.0108869 0.00452827 0.00199389 -0.0379128 0.112452 -0.067022 0.215615 0.00742858 0.0049059 0.0623387 0.158738 0.0245172 0.0428636 -0.0163462 -0.0491824 0.231627 -0.145562 -0.0175457 0.119498 -0.0406519 0.138524 0.237688 0.101429 0.071037 0.0202063 -0.0331565 -0.016387 0.108387 0.0747604 -0.192575 -0.130924 0.13001 0.0345963 0.0386708 -0.0190654 0.0855502 0.044358 -0.0852364 0.12682 -0.0605332 -0.157415 0.11814 0.139101 0.0933127 0.0570844 0.0860247 0.0180309 0.0953861 -0.111071 0.0907047 -0.0320545 0.0725643 -0.0675664 -0.0238536 0.0777862 -0.0190274 -0.0605919 0.115668 -0.0032737 0.0269264 0.0311596 -0.0416074 0.0825904 0.0660904 -0.00998406 0.00480755 0.0110419 0.0580049 0.116662 -0.106344 0.0400692 -0.00583903 -0.0148207 0.0240431 0.0588694 0.09385 0.0401767 -0.039401 0.0573647 0.0496808 0.0470284 -0.0186165 0.127259 0.0991141 0.00342776 -0.00604913 -0.19623 0.0508432 0.00523394 0.0142603 0.25595 0.0333727 0.0606851 0.212182 0.0388698 0.0243572 -0.0122761 0.00299664 -0.112566 0.136749 0.0600605 -0.00847376 0.0266255 0.0133639 -0.142976 -0.0607108 0.123242 0.0507443 0.0698772 0.040641 -0.0584688 -0.103583 0.169456 -0.0239333 0.152442 -0.0115187 0.103462 0.094302 0.119292 0.550458 -0.0804081 -0.211966 0.000537217 0.0948638 -0.0474135 -0.13038 -0.192038 0.164475 0.16615 0.214253 0.0241214 -0.251156 0.124128 0.435827 0.0371973 0.109712 -0.0679046 -0.442135 -0.0107285 0.0594832 -0.139963 -0.0630855 0.0266032 0.0829016 0.0722787 0.199553 -0.0901244 0.464846 0.437833 -0.0489286 -0.160961 -0.0662135 -0.131503 -0.376481 0.15801 -0.133544 -0.108855 0.00913155 -0.0961682 0.654474 0.145486 0.0253468 -0.044893 -0.361585 0.171331 0.0150001 -0.215832 0.038725 -0.301078 0.0766873 -0.139783 -0.171425 -0.299527 -0.204049 0.111734 -0.207713 0.18481 -0.190916 0.178994 0.112761 -0.276513 0.260124 -0.0447009 -0.0195752 0.000942381 0.087642 -0.181574 0.0170075 0.1353 -0.296374 0.458317 0.0214175 0.000340159 -0.067819 0.0869281 0.0665419 -0.374251 0.0143392 -0.108385 0.016268 -0.511923 -0.200907 0.106835 -0.0689921 0.165097 0.188526 0.122698 -0.106313 -0.143327 0.00498458 0.425821 0.258572 -0.0308092 0.210717 0.218342 0.265349 -0.201404 -0.23983 0.0989175 0.180549 -0.0867904 -0.108991 -0.299274 -0.13629 -0.2037 -0.128508 -0.0212001 -0.0257306 -0.0391586 0.338971 -0.071999 0.0228166 0.258269 -0.353443 -0.0383866 -0.102562 -0.0287938 0.227232 -0.314112 0.240706 -0.180463 -0.296106 -0.421384 0.00896706 0.0116805 0.0401623 0.162438 -0.0108699 -0.166486 -0.0869982 0.157621 0.0217109 0.0711592 0.191112 0.213613 -0.10899 -0.0247289 -0.0241643 0.0490322 0.0467813 0.0950385 0.171226 -0.0273041 0.152048 0.118676 -0.155441 -0.0249996 -0.0114575 0.0424742 -0.0878866 0.0345235 0.214315 0.0892341 0.0761281 0.0558292 -0.064727 -0.0587725 0.0510083 0.0293873 0.132961 0.0220027 0.168674 0.153769 0.197747 0.0933343 -0.0586216 -0.0811125 0.0749823 -0.186927 0.114086 0.191027 -0.0946066 -0.0234394 -0.0549242 -0.0977833 -0.0300581 0.00349598 0.0240071 0.056256 0.029683 -0.0012345 -0.00684586 -0.0290065 0.0339213 -0.0846695 0.0575571 0.1131 0.144388 -0.0341746 0.114911 -0.0181878 -0.139187 0.0590549 -0.22785 -0.0626054 0.244222 -0.0932073 0.1645 -0.238715 0.0331164 0.0813322 0.24436 -0.0210322 0.0310573 0.0341929 0.0472827 -0.000645924 0.160532 0.195329 0.0971023 0.135592 0.156931 0.173939 0.0404582 0.194779 0.00581379 -0.0573179 0.00129279 0.0789192 0.0890407 -0.0249115 -0.0340821 0.0357133 0.056837 0.0952678 -0.2057 -0.279146 0.146005 0.243921 0.00354602 0.0876802 0.0435764 -0.0705684 -0.145851 0.0484413 0.110548 0.0315685 0.136306 -0.0613955 -0.0698967 -0.0927823 0.202151 -0.0393814 0.295109 -0.104495 0.0717924 -0.0645834 -0.147639 -0.0827257 0.0445592 0.123162 -0.0433067 0.0686288 0.0708657 0.128555 0.210406 0.22599 -0.0742659 0.0639624 -0.0430909 0.31501 0.0510152 0.183334 0.0606368 0.076383 0.0917533 0.107303 -0.0407172 0.0751809 0.15871 -0.0163807 0.170904 -0.0310639 0.0488628 0.105422 0.181082 0.00119659 -0.0261822 0.031213 0.159529 -0.0186794 0.0276212 0.157597 -0.00691695 0.1119 0.143918 0.174119 0.113778 -0.0947139 0.122566 -0.0280099 -0.0441658 0.0657855 -0.100449 -0.115766 0.0623372 0.0473983 0.0206297 0.083936 0.176053 0.0594749 -0.00618662 -0.15004 0.102947 -0.0681739 -0.0248892 0.00186672 0.103063 -0.0180295 0.0115067 0.172315 -0.0182587 0.0739753 -0.0659841 0.118057 -0.0913528 0.16552 0.101583 0.255433 0.1173 0.0186772 0.0324716 -0.0314834 0.0824981 -0.0609839 0.117457 0.0282183 -0.0606058 0.142786 0.0744328 0.118649 0.112437 -0.000813818 0.259727 -0.152782 0.04058 -0.142753 0.170028 0.247096 0.153639 -0.0143783 0.181726 -0.0446696 -0.0125424 0.0239742 -0.143287 0.10469 -0.0720946 -0.0385595 0.0149584 0.10194 0.0920451 0.134552 0.0364823 0.0697717 0.0431657 -0.0384284 0.0102589 0.15693 0.0687282 -0.134872 -0.0153058 0.0636973 -0.0861602 0.00413264 0.200196 -0.0235872 0.0743655 0.168485 0.201767 0.123738 -0.0443302 -0.027229 -0.0139006 0.0313479 0.176801 -0.0423914 0.107209 0.0092706 -0.00844246 0.122703 0.0412585 -0.11568 0.0741431 -0.0973312 -0.486723 0.0992993 0.325526 0.0929416 -0.342539 -0.0303486 -0.540059 -0.0500286 0.0479081 -0.288372 -0.224383 0.166452 -0.108738 0.0639974 0.0430847 0.327345 -0.418202 0.04734 0.166873 -0.276038 0.0275335 -0.0725149 0.0349666 -0.00463992 0.227802 -0.00572269 -0.061482 -0.0599103 -0.0939269 0.183029 -0.0338619 0.157062 -0.143484 0.21977 0.169747 0.034314 -0.212707 0.120598 0.00730775 0.01678 -0.029237 0.0144535 0.0459396 -0.174842 -0.00580278 0.307716 -0.0667522 0.167183 0.367086 0.190645 0.156005 0.143867 -0.0536554 0.0531222 -0.121233 -0.0996968 -0.0096967 0.128103 0.238728 -0.132633 -0.108669 0.106881 0.165578 0.162686 0.149753 -0.131817 0.0295226 -0.0646864 0.0108381 -0.293459 0.203457 -0.000216928 0.225175 -0.289724 0.0777247 -0.119354 0.052143 -0.0188421 -0.258996 0.0781634 -0.128887 0.000164936 -0.380667 -0.149941 0.117054 0.0596291 -0.422108 0.0943222 -0.24342 0.165261 0.113407 0.0202425 0.227464 0.252208 0.110154 0.109637 0.168785 0.138225 -0.0123417 -0.1052 0.187923 0.285376 0.0647985 -0.156341 -0.0227792 -0.0816889 